6913 50
Harry -1050.582983 1582.167284 -773.147382 900.315709 1642.148439 11.170898 -805.387169 1198.915350 672.860832 391.113230 -346.093582 -50.176115 -315.829193 482.119395 -914.977652 691.316648 -956.718175 -1021.974403 1534.686079 -1180.332794 -985.313489 996.842154 233.755272 191.760062 -118.756369 128.310662 107.818827 -1111.661263 1423.650391 -375.893050 79.100347 461.233322 -951.179005 -112.438709 -1569.302254 -275.283637 1357.926968 -658.026390 -312.842824 -571.980481 -702.987978 647.622347 559.087874 -982.463226 -961.549269 -404.640530 846.205022 -873.859061 823.256445 -951.545385
Potter -56.418801 15.239129 12.396756 1.234487 423.829366 -214.766534 -21.340327 27.707806 -351.718749 -0.193639 434.219201 -39.776923 -322.941588 -348.998908 420.281886 65.524708 250.817803 172.261128 -116.342403 323.091833 17.980525 214.390209 -334.897982 -232.246276 170.911033 18.162455 34.895263 186.326182 -185.545412 100.974610 -69.472232 -33.189525 122.384031 27.730483 77.877419 190.203007 286.907917 513.079371 -381.127286 138.381766 -58.167919 -411.894208 -107.795481 -430.490911 212.139100 -244.884815 193.562360 -144.171514 98.361864 87.207261
and -779.642260 -235.607661 369.397332 1819.223794 928.134064 -409.267380 -69.414359 -1698.970017 1188.960254 -101.309337 -813.768937 -1036.591380 931.293276 -1066.718916 -1065.233665 -1195.760081 -703.291107 -598.900168 203.641186 -1263.013221 -249.603540 838.316170 315.380240 -191.022339 660.479813 914.849971 997.714440 768.282101 -137.692501 -670.785883 193.213458 424.266322 -36.039907 707.717311 -483.446298 -465.991956 -180.807790 484.694845 -504.025257 -303.036153 505.678541 8.725364 157.624177 310.422200 -677.343259 578.429542 2.570321 -641.110266 -1319.436049 -869.782723
the -414.987615 -642.089489 1107.500609 278.121218 605.119975 -298.985042 950.335780 2077.046949 206.247354 -1486.786129 -626.874260 429.196333 62.284271 204.415439 -1635.720494 -1050.757533 -958.009997 -863.510824 165.134026 -226.265232 -720.894219 76.738602 2084.575214 1273.603700 -473.935011 -925.200952 -386.598174 -639.750704 1244.847798 -782.901067 158.639303 -1445.770204 -2013.236040 380.725626 -2203.695041 -316.135759 918.545692 475.883758 -1735.505142 -194.731221 114.494407 -212.568966 977.636796 3.958240 -78.757633 -338.530720 -891.209012 -1037.997549 -1672.041656 202.779183
Sorcerers 299.058087 149.909184 -361.755039 -272.863757 -48.115401 -56.100530 -223.709171 -228.675039 -198.601107 224.374253 19.950648 -116.442003 -128.355624 56.565785 311.931360 489.311020 366.040491 73.031132 25.349921 336.411778 -114.890035 -347.933640 -315.230616 -312.342082 235.717983 -72.408014 -147.871904 -286.614936 64.080826 389.929328 143.666173 254.274658 163.475432 38.693969 392.650683 157.331529 -259.586444 -3.932912 430.477657 -160.380409 28.735023 480.539575 -224.197254 -245.244507 -123.293411 116.236391 90.854054 563.726553 947.043828 -205.397362
Stone -158.910078 410.555427 -415.290542 -105.142985 9.456508 -30.732312 -558.114309 -183.696270 -88.828919 187.562391 437.320183 -25.829652 297.825049 13.735068 -286.069505 -240.598266 0.978729 -14.835360 -87.040270 151.353566 -340.448821 69.418983 195.403224 -92.290636 795.755301 -143.957349 -108.683519 -546.405348 234.245383 35.670598 -340.048628 -45.524491 326.424749 -0.637760 162.220141 -46.061043 -541.600248 -444.537752 451.870099 244.260115 186.762163 288.597044 -461.651541 -84.439991 375.232302 -611.848239 134.107191 550.098767 559.076044 -218.264918
CHAPTER -6.058091 12.263128 67.760050 -20.019246 69.619014 8.446862 1.226882 13.925246 59.081296 -22.868929 12.155161 -40.728541 72.150197 41.164618 -30.814074 -75.881656 -47.021936 -48.713699 -111.362896 39.980705 -32.757596 -5.909684 86.997806 27.265057 -4.402873 33.025380 91.979203 47.557828 -4.196187 -40.512649 28.517280 -26.305936 -21.963049 22.622435 -121.164299 -33.345401 -23.806036 91.685084 -65.563405 -77.180418 -10.248027 -40.386142 35.703301 94.383018 18.708269 68.128024 57.497231 -46.463872 -54.166444 67.154681
ONE -0.423762 0.558454 -0.525220 0.326496 0.031917 -0.615170 0.269390 0.010630 0.206123 -0.861228 0.560258 0.073999 1.204692 0.124518 -0.719466 -0.096470 0.032735 -0.396651 -0.186922 -0.518762 -0.620430 -0.763539 1.111760 0.867687 -0.472181 -0.469523 -0.098789 -0.593605 0.087747 0.239877 -0.288302 -0.836208 -0.854746 -0.166356 -0.088524 -0.361641 -0.316131 -0.157629 -0.632201 0.502573 -0.649934 0.667648 0.842762 0.299961 0.238084 0.160755 0.050041 -0.270870 -0.881027 0.004751
THE 7.749126 -24.253843 9.986385 12.864555 -6.360726 3.690104 5.057202 3.318866 -5.351407 7.868610 -7.494474 -18.859889 6.706243 -36.736254 -38.035159 -25.070287 -45.258730 -17.747891 60.072473 -38.686986 -25.655768 13.855916 -3.730120 -18.266231 39.410263 -22.554359 -14.337719 -37.497191 -22.051665 -7.418253 -8.187528 5.865493 -35.394177 10.799323 -43.149150 18.334221 -21.427516 -20.531984 10.561315 11.488596 7.992047 -0.871150 19.171956 -10.531654 4.233560 -13.197171 -11.397002 -7.721104 2.201787 3.870581
BOY -2.140466 -0.532394 0.590448 0.041787 2.768551 -0.797716 1.526392 0.540961 -1.856903 1.177016 1.591484 0.257551 -1.295867 0.235681 -4.004379 -2.212081 1.532715 -2.266711 -2.611116 -1.967476 -0.155679 -0.164852 -1.597132 1.567203 0.809071 -2.992108 -3.177813 -0.666523 -2.538783 -5.179986 -3.248557 0.255289 0.243624 -1.409087 -2.170756 1.644825 3.737711 -0.568277 -1.725582 -0.074864 0.942221 -1.326098 -1.755127 -1.183100 -0.092254 -3.582029 -0.585358 -2.007789 0.454628 2.566282
WHO -0.475304 0.039640 -0.156137 0.117299 0.382042 -0.070091 0.144865 -0.139492 0.767908 0.292034 -0.241389 -0.466058 0.182926 0.257161 -0.775923 -0.965075 -0.964955 0.295225 0.102415 0.164936 -0.386974 -0.280001 0.865938 0.342028 -0.310959 -0.108609 -0.034205 0.207727 0.396853 -0.363204 0.135643 0.314349 -0.063916 0.416456 -0.328914 -0.314108 0.372924 -0.179103 -0.044794 -0.453758 -0.366042 0.047712 0.481149 -0.160617 0.205213 0.307754 0.191512 -0.496342 -0.987287 -0.196543
LIVED -0.011480 -0.210400 1.387303 2.019148 1.001270 0.930045 -0.382562 2.127904 2.447711 -1.367344 -0.739188 0.624310 -0.119647 0.017774 -2.437113 -2.908209 -2.346025 -0.540518 -0.324361 -1.285902 -0.762296 0.887962 3.040350 2.330469 0.191771 -0.937733 0.350116 -0.662303 0.772092 -1.316712 -0.789505 -1.279259 -2.237470 -0.034698 -1.570509 0.019805 1.020183 1.574981 -1.674530 -0.008952 -1.119180 0.134685 1.883444 0.048299 1.252637 -1.492981 0.409184 -1.860414 -3.348478 -0.355685
Mr -582.711904 -183.021474 261.263234 454.085722 689.736933 77.162596 -159.665804 388.362766 867.809973 -702.604131 -354.410613 -50.600532 -436.346070 -555.665734 -991.267473 -1168.842511 -1491.214885 -172.245813 375.888940 -638.638443 -620.398536 445.010696 601.291928 604.541172 -57.083018 -601.380450 -15.564961 -330.123282 334.674941 -272.858774 221.051217 -292.081506 -1335.287599 26.609635 -1261.497015 -474.717724 842.225007 568.419698 -883.980962 -268.275969 -221.888898 96.784519 602.851805 146.941861 318.714616 -243.847680 57.688434 -646.050915 -1704.374886 -257.719806
Mrs 40.426726 237.644101 56.178117 -234.914370 -174.478318 -93.119960 -202.807456 70.475327 -46.910280 -115.498664 -49.548390 -124.110325 144.965411 267.554813 -357.493442 39.162955 -298.254943 51.064888 83.025537 52.145313 -301.825931 -158.999265 125.863843 152.314274 -96.198655 -275.955748 -187.002768 129.389575 93.860773 20.324241 61.741477 -261.429084 -9.127089 36.259890 -23.340961 60.614492 160.964292 -216.145586 -30.941248 -54.616817 20.439571 99.275525 155.123291 210.404044 257.726879 229.046736 164.433740 161.913743 -447.908944 -203.486122
Dursley 46.476141 -54.080722 -150.119552 -110.537041 -236.383793 -38.953235 40.261120 -21.514344 -145.972197 65.772829 32.382894 80.182539 49.312018 -107.052415 105.016915 214.856395 65.014587 142.650441 -67.218734 -206.672804 -27.579070 172.867282 58.457671 -95.694115 161.897050 8.857880 -149.151028 101.136846 -45.990929 127.452067 -42.059740 -109.019859 9.579977 -84.142934 37.838565 -35.257519 -78.364429 -74.738271 118.766224 70.496738 -128.788084 36.306229 -96.165309 -39.932076 -60.544999 -5.730221 -94.979140 -14.458718 58.243817 -46.940725
of 622.732957 661.474247 -460.474097 550.228864 -323.145770 -682.304119 2.686412 -1148.578148 -90.077964 975.098073 -611.948189 -649.153896 427.858457 -483.022697 -820.693850 565.935677 382.953494 344.920308 686.726873 -49.052280 -19.263626 -342.430991 -945.988797 -411.830166 189.758940 -326.689504 -187.967899 800.856969 -620.796603 219.984040 -851.741841 111.587706 1154.940728 427.791332 612.011948 556.248663 217.852396 643.224983 685.049208 -344.836239 -249.922226 0.584687 -248.013721 -245.876980 476.985024 202.953972 864.877281 802.025722 -387.980994 48.574253
number -41.317410 -17.337922 18.836424 131.980638 195.217441 40.168373 -10.944322 99.724499 106.530179 -24.518332 -67.967087 47.659678 -88.314711 -154.953360 -380.252930 -474.416007 -481.313777 -32.843175 69.631926 -80.479325 -227.632787 -44.248007 74.509850 136.829122 1.341923 -211.633710 -138.959484 -77.778622 54.887005 -185.020763 -23.402335 -154.519120 -283.817181 67.471952 -108.674515 26.861237 30.861492 84.591656 -139.985525 -12.620411 -141.511803 -32.825610 184.097002 98.645260 -81.290782 -89.898762 128.253926 -335.203612 -495.593685 57.716553
four -596.244297 -135.266548 751.613380 837.070979 709.873091 271.974166 -138.352891 679.757225 1392.569523 -536.881259 -887.849006 246.724067 403.449345 -58.017861 -2373.433449 -2224.418931 -2175.361417 -498.075702 184.922071 -585.976089 -1310.699015 413.834607 1917.256210 1156.879464 -34.352011 -657.171857 111.540043 -415.003365 1187.689912 -752.650451 -108.147565 -825.355163 -2122.713087 370.809804 -1351.080373 -137.724310 1033.330058 890.303848 -1533.475199 -310.928694 -416.298118 228.689262 1371.508252 995.447392 712.431262 -393.071328 -168.704504 -1268.184182 -3181.773214 -136.345833
Privet 171.912202 176.001903 10.029319 92.632886 -17.335799 169.747289 27.578220 -29.727677 118.883260 23.048815 124.130041 132.324070 -37.398506 -42.836005 -32.931392 9.150139 -127.037672 -113.405808 77.678812 -83.033841 -55.414295 -11.745092 100.088308 -19.934328 44.927587 -61.437280 -115.565417 57.965569 130.120725 -21.714475 -44.581633 -19.433105 -81.195766 17.496585 37.326914 -46.053111 16.777170 47.721977 -74.909041 22.073108 -102.835254 145.286418 -105.583033 107.585098 -231.486242 18.594829 71.307582 148.221216 -48.863114 -16.891534
Drive -324.251027 101.708629 469.401193 771.037234 731.836006 142.738903 -132.336898 786.569802 900.923678 -444.609931 -407.784361 262.169981 210.157420 -33.335929 -1627.861146 -1687.176055 -1735.623597 -185.145970 21.549296 -587.224072 -848.182311 512.297201 1500.865254 1008.010281 -217.013316 -585.056878 245.958806 -451.515643 529.247230 -630.034863 -73.630550 -517.269242 -1443.038739 183.350046 -1102.959639 -82.587986 1047.242417 892.876556 -1192.367432 -226.711575 -337.792209 -204.911268 1100.259453 465.828490 430.156606 -396.638818 -70.252274 -1099.613513 -2477.866179 -13.170820
were -747.832428 944.120586 982.104385 93.088152 90.077726 146.701364 -343.377462 479.280143 758.544670 -167.038133 -160.739628 -104.534697 -489.612340 1002.905544 -2114.793354 -1649.435005 -2355.764560 -204.259496 -538.935965 -1288.874597 -1779.938187 14.356768 1043.099034 1173.098116 -235.544430 -338.363778 272.512037 -1028.075204 1241.482028 128.732060 330.388934 -1204.349135 -1862.893698 -190.017597 -1694.663105 -961.199557 424.211491 441.314856 -740.376504 -727.702150 -492.773247 156.724341 898.549544 791.556982 628.410723 -466.265219 568.557973 -422.720088 -1714.983300 -118.788833
proud 134.343791 105.422710 -207.067223 -149.657122 -160.597043 -22.795301 8.787230 24.509376 -265.158516 57.962086 138.637519 -64.747651 -35.200588 108.638203 270.635341 483.613832 459.094034 -53.629482 -80.626479 254.537844 155.379993 -76.466653 -238.981302 -215.567481 159.754649 171.749174 -216.735147 47.041597 -74.143139 6.212932 -80.565324 69.192553 252.520185 -8.675736 218.223365 148.776681 -358.439588 -217.573705 314.100503 85.059809 214.779219 122.105695 -205.843092 -45.251070 -112.354649 175.111183 8.212072 235.452942 543.029348 -16.505115
to 431.735219 -669.547642 932.761515 38.454973 956.571100 370.275171 -1085.044766 -650.690069 1304.096292 -2249.792460 475.502544 -242.761470 366.653561 -419.495140 362.677941 -1752.323100 -1456.905630 178.573823 -866.769585 411.233905 -1054.039525 144.293658 823.545658 679.931625 629.565703 -1152.183206 216.494878 674.004407 636.421267 -434.006721 374.013098 -36.057819 -1402.901333 -693.573281 -1023.450971 -653.632340 808.962151 1784.651849 -580.962775 253.095490 -91.634016 942.441616 434.105899 1068.099377 148.317412 705.667119 -242.516095 -1159.458241 -2969.673973 -327.371112
say -606.014734 529.348479 357.375799 329.109352 -270.571047 -437.075892 27.672741 586.476897 751.235676 -438.738314 136.673856 -262.064018 -226.146389 454.411107 -1174.710652 -754.757990 -1282.953534 -461.401651 33.594489 -620.593344 -464.276606 103.974159 770.282490 836.982784 -64.562783 -146.163504 -142.894510 -287.382993 382.356215 -395.656351 -288.867995 -709.584568 -868.596336 283.347513 -1126.637985 -408.195060 208.170536 311.273429 -733.210914 -305.728000 -37.240332 -52.949306 594.164768 302.015564 614.695460 324.509010 -65.661121 -373.865490 -1725.136904 -309.778297
that -720.697569 51.262518 555.442149 39.262923 951.090538 141.789135 -9.126300 -113.120364 546.969230 67.948061 171.702065 -383.180531 452.280709 -100.540649 -784.949328 -821.050082 -453.652472 357.487588 -552.057224 -279.836087 -669.833082 -22.723449 188.471297 365.122227 941.160061 276.639881 681.346293 -281.097789 725.649848 396.963383 -181.974440 -499.282673 433.050725 188.625535 -77.557570 -1050.522458 -851.954885 355.036212 552.247837 -255.487400 -422.111847 -162.771730 172.896157 -22.779580 -39.013708 -289.134019 -425.844543 -93.478716 -861.875000 -247.189354
they -332.466424 264.234502 269.404933 382.939647 -1025.285035 -226.103508 -232.068433 -55.509400 384.141771 615.809002 -667.622760 -10.657748 86.081735 663.304928 -793.418122 120.519699 640.923465 280.358470 -243.373089 -560.299264 -116.104067 -99.637488 748.313380 74.366505 189.969866 946.722288 903.504569 -76.482187 450.522605 344.510874 561.125649 594.221401 231.386258 -407.145060 368.817405 -318.426306 -31.417068 361.123250 804.985458 -869.056008 183.639343 -332.269726 -658.795754 191.077840 -63.084814 203.691465 31.558589 -636.969994 785.048446 168.100898
perfectly 194.000572 27.671986 -134.809943 -87.617881 -154.282708 -34.364651 22.983100 -7.069436 -164.321592 164.556195 86.741166 -104.538010 -68.084090 62.235093 338.159343 329.806778 362.304864 93.851263 -23.114731 69.899302 250.324572 50.922383 -170.958466 -166.478366 34.530533 139.621951 -78.739957 114.133803 -218.771949 55.081991 -37.806690 38.088633 231.171007 -70.973168 277.212928 84.170877 -208.173925 -154.383460 349.594230 71.156771 133.912790 101.497192 -92.834397 -124.573415 -110.879101 77.437065 28.827663 196.035842 532.712708 -57.293462
normal 48.139522 -281.397595 197.124211 -94.306692 -283.519083 -81.974538 223.286233 -72.785380 15.012404 -18.141631 228.388330 23.840261 20.610112 55.686856 328.009979 -3.007422 203.823474 323.098862 -42.055352 144.982483 51.507437 -78.465714 199.324292 -64.989284 -108.521045 -217.149823 -97.534604 141.043770 -313.564696 73.068659 -45.716951 -229.720067 -80.303948 -86.746870 101.397992 -76.869273 81.832449 63.425127 -1.292464 291.689228 -65.084652 -80.682439 -87.273728 55.162900 10.014273 -31.816471 -159.176431 -145.949951 -171.881259 -52.182534
thank -313.139420 35.544472 373.003051 421.298852 377.093105 75.339623 -54.757369 257.266544 612.380356 -284.592215 -285.620613 34.126460 18.584087 -17.393877 -1014.754658 -878.567160 -1036.347752 -224.393703 123.242524 -404.330963 -526.368506 250.838860 760.739148 543.005733 -87.645712 -382.274417 1.971831 -175.161280 355.897910 -381.759709 74.422775 -459.906523 -804.933481 141.517389 -811.169096 -64.522507 609.214710 462.694802 -705.693385 -140.075495 -170.059544 48.537202 659.985525 296.731463 318.868334 -175.220999 9.524905 -612.043368 -1422.220773 -151.401097
you -514.376552 157.672832 1631.186957 -126.335397 381.027761 -465.690550 3.088527 715.001366 -717.986711 -100.352997 -1152.972103 712.194276 -76.271611 823.343685 931.219412 476.884213 270.509447 -597.214347 -239.394872 -1271.414544 -372.341367 868.352522 262.532255 787.926872 -446.677575 -870.074299 978.743105 -180.734231 198.902569 317.840827 277.835277 -225.849925 -1619.296568 465.940967 -1527.486463 -1546.999060 1901.933218 -493.189397 -76.604022 -167.946082 -96.931148 -194.681442 53.829875 -547.941460 756.433269 -261.294768 -388.715097 -346.523604 1008.539780 203.577424
very -360.522681 607.982090 1027.730213 519.835319 125.328033 -563.898258 -64.838419 389.826409 730.689458 496.697832 148.384518 197.119986 35.706261 336.924610 -993.580448 -621.242125 -1105.386544 682.664974 -81.473896 146.273370 -580.258506 -42.578797 950.774015 846.470978 -441.564368 -384.245882 -31.866706 -322.803501 947.480205 -184.475939 187.076234 -423.659841 -1084.200089 -249.651564 -996.460525 -471.982839 397.257925 564.964862 -751.155175 -499.625889 -937.912040 344.925562 425.304568 -172.343239 400.274439 -277.887588 -143.064005 -636.761139 -1249.213596 274.935965
much -400.907936 151.025315 -59.868826 284.409401 330.593860 -75.987234 -124.682107 474.765574 281.840417 -312.872675 392.749877 -192.654102 45.380826 -159.506441 -271.278850 -215.865295 -796.989046 198.729123 -10.664092 -269.723574 -601.595866 -64.574623 631.186953 322.997688 -415.520737 -299.158930 68.413398 -436.182708 154.801445 279.645551 -95.093420 -528.674459 -254.226896 -81.556631 -775.723942 -569.240914 767.375361 371.639230 -711.110576 -463.328916 -420.924699 -287.404328 478.493110 -4.374831 385.668462 -158.334171 -289.857133 214.186356 -1196.271447 -51.210116
They -586.854944 -19.295762 479.237411 344.324274 197.976268 164.106156 -274.526357 181.666991 922.871030 -159.170666 -559.035853 -491.999223 46.482956 382.740645 -1825.970409 -1473.839518 -1161.368522 -657.144674 -131.365795 -192.230441 -980.444758 -176.836320 577.113406 1170.828260 -807.648475 -152.855612 540.348937 -667.197034 633.744316 -689.487714 -18.907305 -207.527837 -1413.709504 -266.251033 -893.880641 -26.171545 602.225091 381.598556 -769.043385 -108.994144 -264.778258 -177.317029 1127.188858 607.823410 217.859372 123.238946 348.550178 -1163.226311 -1700.728991 76.913680
last -529.971899 269.177556 391.346296 434.133845 289.719866 86.749482 -262.691004 309.341876 1013.833326 -407.205636 -234.905077 138.111606 3.691476 -58.529874 -1375.121994 -1404.842837 -1602.219132 -243.886720 274.512775 -343.350093 -779.604673 -143.280462 880.924596 1154.219425 -323.812559 -592.247442 426.693650 -234.211370 617.637429 -85.099249 111.941616 -182.838321 -1112.066955 -112.381563 -596.997368 -386.050462 752.276993 859.620435 -1158.791136 -244.489642 -416.327750 59.840214 908.947683 478.779485 306.035647 -49.557583 98.881035 -1013.583466 -2000.075721 -289.177648
people 71.574176 -183.077957 -199.643951 -297.377471 -798.210196 320.378196 -56.184904 -107.567078 -291.374011 469.980024 -117.608013 -97.864710 -106.467462 42.795269 340.945467 933.031356 785.655986 325.759573 488.347729 -89.292975 26.680464 -117.611526 -296.842162 -753.718680 -179.265022 24.411770 -160.837858 5.573908 -244.655301 252.108710 304.487296 8.991794 647.314031 -48.306029 -18.941829 -135.761076 -13.876965 -729.068392 713.124303 119.705165 83.697815 -66.716048 -241.024713 141.108778 486.878225 -228.346519 135.005257 272.456260 1296.382809 169.657601
youd -733.871854 254.977515 839.022109 798.709607 667.897417 -3.605278 -80.136640 773.555667 1356.751707 -561.048127 -340.053541 55.878752 166.550025 79.993205 -1828.260268 -1844.940394 -1846.576104 -471.373068 46.208991 -731.739343 -894.498755 593.413104 1583.161310 1225.459894 -324.987702 -729.848964 505.293441 -359.688849 551.167476 -388.016610 -263.703610 -843.400245 -1330.615455 43.761470 -1626.259503 -94.384800 1042.081769 1141.094447 -1368.505291 -388.452014 -443.301721 -302.057305 1136.465337 371.579534 999.378149 -430.768832 -18.427875 -1035.511401 -2807.519164 -34.198629
expect -270.476234 158.320544 246.857794 342.402529 288.310100 40.238072 -55.155349 175.074211 283.299678 -150.434418 -323.887622 236.978256 150.271075 73.506629 -746.211388 -759.992618 -670.905455 -178.070467 -143.835434 -288.476477 -278.059407 256.016999 574.915135 516.093013 -194.089257 -278.824871 43.370532 -189.675849 160.298565 -421.244194 -39.156108 -194.273340 -616.872832 73.667693 -404.896253 3.922688 445.805938 58.401677 -497.100664 -49.892651 -57.423822 20.801234 513.959894 250.618862 337.553316 -178.274995 -25.656039 -662.716379 -945.085562 -155.646877
be -637.256505 -860.024696 240.007494 -244.322879 450.970046 297.228543 258.428166 129.837755 12.661638 499.470264 -98.836871 325.028069 446.185831 212.505173 -546.204385 -1384.701888 -1114.852520 37.026010 -369.677345 -1017.360010 -591.786831 6.681156 59.024821 550.490027 315.963163 -106.737972 261.080750 -681.574964 -22.629916 -341.130522 -297.756321 12.737147 -1056.899961 -590.853658 -356.410102 -1023.327916 465.343564 774.310058 117.529463 -280.866669 364.611718 77.758158 -394.107915 416.402638 67.948341 -1113.522585 249.194560 146.096212 -696.578864 -417.726953
involved -382.435398 17.136199 247.840623 519.815206 332.343568 -62.010084 -88.687110 325.456798 573.262951 -257.984401 -200.585998 42.869359 158.999968 90.972272 -759.877049 -983.629650 -832.353639 -255.350923 16.095503 -508.673657 -535.368131 202.345720 683.501706 729.594117 -51.609383 -247.824872 197.525437 -367.909389 176.409307 -278.304957 -18.323665 -255.137256 -839.396874 -46.092935 -731.531291 -249.467420 410.530775 573.319928 -435.349352 -224.182248 -205.899730 -73.201140 600.790099 92.992294 312.372156 -224.391207 -23.528487 -589.917004 -1121.458480 -151.274602
in -444.236716 -122.542235 -463.102219 619.012844 886.634974 10.688234 -521.658642 493.032662 -50.257696 832.831490 646.759021 -94.180456 163.680852 1468.574083 681.101080 -350.959420 -406.529438 791.259454 -509.567922 -191.016209 -556.392603 939.290106 -361.650910 416.130858 -347.015653 11.806811 660.615788 -363.432235 -35.944292 -417.435394 -338.984380 -178.136966 -512.012592 -464.043972 -437.599188 -414.475677 700.427546 526.952140 412.700471 197.953069 -58.971838 -446.418688 184.299451 38.078317 309.325260 -627.157638 -313.746365 461.878005 -1035.733476 9.044172
anything -341.996739 351.181737 1160.274253 1266.656862 759.352323 -261.858467 256.431512 256.288072 1523.458963 -605.455224 -145.494864 137.387447 519.592507 71.644486 -2144.845883 -1205.993246 -1746.705903 -1291.303276 441.815423 -687.326812 -621.254523 235.773725 1526.433386 843.829251 -246.008212 -85.723603 221.809691 429.887436 540.571264 -1119.050606 -517.046163 -646.362533 -872.428695 615.550224 -1813.479061 189.752458 454.761648 713.442368 -1454.702498 -687.550980 -215.919705 18.660046 1242.125253 677.515437 400.637960 59.742356 -151.476962 -1296.678687 -2951.825432 -17.428042
strange 6.953073 68.589895 -101.167686 201.345089 80.499167 169.074282 -96.250295 3.951878 -133.131435 301.747342 -191.824045 304.429950 95.392064 171.333157 -134.604927 -135.829044 138.267715 402.815729 -232.144885 -119.952039 21.628779 136.131944 10.617765 86.506399 -74.841719 -73.623110 -72.463068 -194.390912 65.334104 -33.510483 -54.513673 40.582884 247.791934 -86.038114 197.870000 -217.044399 -14.949644 -327.717127 86.579426 -65.208903 -88.219251 -276.381500 -8.222212 -164.745653 259.870168 -304.016868 -69.207566 127.364832 -66.332870 -33.749613
or -418.355923 428.009773 314.197183 657.785363 1280.490642 -370.430207 40.897495 313.899418 1229.288804 -470.940648 -174.502251 -213.707906 746.135165 -161.460607 -1367.769494 -1642.808321 -1589.446460 -669.979102 -509.839113 216.989047 -629.701341 16.596999 1140.602146 853.866415 -141.998456 -163.307240 11.992235 -270.313324 958.148651 -681.086067 -583.445153 -687.927648 -797.822128 61.647560 -1729.319298 317.293026 -193.285291 1172.439528 -1375.647046 -871.618123 -1034.045951 34.752640 1422.399841 -353.808295 138.711979 263.553388 45.336022 -932.100203 -2827.616227 183.600457
mysterious -400.805738 49.227041 374.148872 514.323386 513.898779 90.716568 -181.840034 474.538702 790.090283 -498.798586 -266.845715 57.693371 164.470135 -175.132834 -1323.832953 -1343.819982 -1417.026817 -232.928901 115.863231 -554.410009 -688.216617 368.417230 1066.180533 848.985100 -92.789643 -499.057253 190.400623 -328.864084 427.696137 -407.852900 -167.472173 -484.810616 -1107.518995 94.956645 -1085.615256 -193.620633 702.239248 585.761848 -988.013371 -74.599186 -405.708645 -253.893854 885.463721 389.290047 501.786114 -139.999280 21.581364 -748.854832 -1957.269208 88.717921
because -40.599908 40.136476 209.965228 280.582153 -43.006368 116.181932 -263.521876 527.122666 439.418884 -662.787562 450.527584 16.011279 -594.587335 171.860018 -880.457453 -204.407446 -913.161172 -857.163766 422.932160 5.827056 -799.858904 -209.873914 254.682182 214.314550 -275.198686 -332.499864 -201.238903 -632.228280 284.007935 -395.937368 35.828458 -325.388292 -560.905821 108.325705 -1084.357733 279.326250 218.302616 47.178618 -842.458149 -57.615257 341.688277 129.008399 532.317898 300.996338 73.304887 -129.548331 -33.209207 -356.695319 -775.853112 -253.023338
just -525.438126 460.387321 -526.479438 383.807455 223.105407 142.594578 -261.401827 -26.454264 -184.314386 -163.267462 -255.902334 396.441770 -254.478890 -514.147566 -215.837164 618.061591 1.863219 -74.722820 -43.932335 32.253048 -246.338971 -160.456018 9.665485 170.784413 -235.104709 142.779690 608.660351 -145.704782 383.090819 64.900594 595.437383 -16.000332 117.188808 -293.658422 -256.112771 -303.336617 -43.513290 -378.980534 -703.773682 281.857086 123.855182 -222.366448 264.920110 213.107928 164.768552 106.498580 224.671426 -232.226268 481.680785 157.593231
didnt 121.829099 -172.386708 103.051215 -261.691515 276.850734 -649.168749 341.421957 -647.720918 -451.973961 208.617959 220.807262 -420.601547 176.147777 38.005576 -207.610905 -10.561271 -189.623518 359.106487 72.514418 -644.930789 38.264937 -481.835557 -706.336216 232.039395 320.317425 101.619911 -330.893172 -299.676155 -303.866222 221.085847 -140.079056 -187.232057 496.180459 159.077130 191.819125 157.313373 -145.637142 -456.684734 112.276037 -382.365240 97.787726 -97.683154 -48.227107 -421.786528 -624.026911 417.062375 -190.625987 56.032274 228.207358 -67.741060
hold -643.632770 -240.550912 783.712975 653.219208 909.250667 96.255598 -120.675876 610.627701 1315.313295 -601.019367 -447.431241 73.495780 74.731875 -368.197785 -1749.793688 -2118.491246 -1976.368365 -198.037073 280.234036 -571.606478 -1113.722075 395.304380 1356.486624 1048.356914 -82.536621 -475.778192 361.832415 -397.980796 672.677811 -600.558243 174.862154 -454.492470 -1686.259504 106.791713 -1469.172607 -146.941668 934.423682 1058.151572 -1173.397698 -378.202480 -694.428846 -194.790338 1074.717507 496.616500 398.825752 -313.118364 274.201838 -1231.849567 -2488.938353 107.137713
with -667.438432 364.073412 1263.397970 1614.778125 1292.272498 -17.729600 -317.467330 469.283177 1495.243445 -705.515595 -1398.218611 225.498280 -298.960101 105.943920 -2967.797562 -1828.935625 -3031.151989 -305.649848 318.324709 -1447.011864 -1760.744246 889.431853 2149.720674 1406.865001 -282.787821 -420.706068 739.328003 -513.539788 837.655184 -659.857918 474.534806 -1081.216637 -2271.148599 449.846453 -1706.039872 -79.327710 1038.242755 1247.145827 -1465.639599 -726.550932 -180.542310 300.203626 2049.109888 979.935820 158.045186 443.858216 1059.004980 -1266.559263 -3007.393739 -355.161116
such -789.319058 616.466582 557.158317 694.034634 910.415965 -342.698178 -485.515788 891.511540 1017.771594 -639.321721 -317.546933 348.441925 -285.222581 -1.582750 -1860.020883 -1735.504335 -1756.501737 -214.910888 -54.682554 -421.355920 -947.061030 723.153372 1169.188999 1249.717428 22.751035 -384.041727 238.839418 -499.170116 931.283637 -341.445186 -216.019795 -844.122089 -1135.201507 310.659716 -1321.226778 360.274078 761.680481 512.888542 -1546.212436 -179.297199 -495.036392 -259.280821 1010.797187 253.831278 1044.184263 35.703316 36.165587 -892.400094 -2753.943797 427.805116
nonsense -431.581102 18.879444 572.051631 475.335974 522.150772 125.848145 -97.881854 462.569078 781.306818 -432.782269 -294.117034 132.848704 13.555815 0.211248 -1267.473994 -1321.246135 -1375.321982 -288.450747 78.341883 -422.282924 -713.279741 310.905010 951.992266 761.838202 -219.858785 -482.055363 182.033134 -373.160295 410.904300 -434.053912 20.914479 -417.638660 -1176.832105 212.610830 -1033.842435 -251.971401 770.918940 572.857982 -1028.350600 -169.692790 -278.854978 -97.838955 975.751603 335.648945 458.064552 -171.492741 -97.213415 -879.154268 -1923.121450 -141.067063
was -860.664731 266.081208 574.737425 -141.788473 102.440991 154.980445 -285.737411 588.002730 -663.406790 -428.023373 601.115505 433.293007 664.914815 1040.265839 447.821506 -422.916176 318.580169 21.553256 -1091.234809 -526.025722 -1252.750058 -31.668629 585.074618 -179.398211 87.204811 1632.218340 1057.816933 -190.947968 491.885423 -127.331573 496.296726 -22.065982 813.375697 -38.587161 127.286394 -591.643791 -82.604054 132.088466 286.520621 -1502.294338 216.841103 -1028.081081 135.543357 481.286402 600.301284 -312.253169 620.979617 89.968092 24.860119 -1026.809236
director -31.774232 16.012063 21.169795 68.904852 63.143227 -2.320560 14.244754 89.000287 98.923380 -93.050177 -30.833028 53.859527 29.044920 -3.485187 -155.815443 -198.232736 -156.740673 -43.603716 17.372374 -90.020733 -75.467099 53.284293 192.594635 136.240960 -30.503309 -56.762464 -22.132174 -49.404309 55.732354 -71.288488 -49.209703 -63.287942 -164.252174 -22.365118 -94.115415 41.444300 98.969914 80.350152 -100.296281 -13.137839 -22.183793 14.627673 94.357563 31.645881 57.704479 -46.352956 4.377691 -84.989903 -186.691654 -63.690409
a -92.084296 -436.571705 55.115226 1196.288061 629.920721 427.714452 562.226101 1476.140965 2526.716503 392.794422 -415.916060 -279.652251 -474.758580 1315.419055 -2241.594881 -3154.105948 -2313.545234 -1391.131936 410.367339 -785.329875 -397.371279 -241.313425 224.085612 2253.932972 -797.375707 -1389.409070 -92.902824 -88.500290 799.245480 -624.739070 -937.261968 -738.366567 -2032.817039 -206.225640 -2062.474369 -691.240883 554.105069 1491.287755 -1503.998612 367.406776 -718.528085 243.347898 1760.975496 -211.292419 -169.039787 -451.362173 -957.906991 -1900.660155 -3151.943488 -507.373443
firm 155.840129 89.560819 -163.367338 -191.556298 52.452847 45.252073 -83.547514 -94.280672 -205.473968 109.914541 106.686427 6.294783 22.972900 -108.540004 299.641120 269.391378 331.606024 89.167538 -195.006155 174.392357 136.904158 82.038127 -142.446162 -221.083154 61.257255 125.587792 -5.332057 124.156574 -133.951057 179.012488 -54.578252 130.292107 194.770029 -58.196038 260.601620 117.780352 -224.152701 -56.401642 184.738684 61.651224 5.508029 61.750923 -224.438206 -32.172547 -76.003533 81.765383 -40.711960 202.805215 479.255072 141.230068
called 537.119225 88.936095 -659.206864 -512.737725 -328.096455 205.995052 42.815701 -260.129107 -1060.004543 462.202099 188.228620 58.064976 91.072286 230.150184 1216.962558 1117.426698 916.515484 392.119383 -75.170361 214.135803 555.320566 -5.044857 -986.227891 -837.501576 -49.389126 230.959856 -499.767255 215.002513 -474.665141 322.645084 443.438312 535.292969 1036.671644 -53.742352 798.874623 -83.417233 -706.318654 -573.844024 808.231029 -469.810834 253.492979 -1.226356 -438.419477 -417.953474 -587.976522 336.523577 60.465144 725.909741 1781.859771 -309.547404
Grunnings -74.573656 -0.902842 69.842796 133.987064 153.001953 41.357596 3.574368 164.799515 201.771047 -88.056366 -50.926499 56.785321 2.591575 -12.148833 -285.373256 -286.792481 -241.594665 -96.016937 16.328038 -81.987182 -125.038379 78.688959 254.120448 170.509680 -25.245369 -32.418474 -9.437998 -96.619982 89.648820 -156.485667 -61.478924 -105.900765 -224.878522 57.584153 -228.930705 51.524971 116.709260 130.468208 -185.662436 -30.192117 -77.251334 -42.672801 220.730078 43.338265 120.917824 -120.591445 21.444490 -172.364987 -358.946073 -28.839204
which -828.791554 457.296020 1130.897905 860.290007 520.584650 -375.030340 -233.247611 357.595512 1003.486208 -432.782619 -519.022549 -35.427097 96.361662 144.988365 -2124.431870 -1743.734079 -1966.824462 -474.939817 112.612013 -1116.534772 -1157.275060 788.275510 1460.470960 1379.705560 -510.648283 -845.671786 188.795676 -169.909048 976.436609 -806.874334 -349.263685 -793.584988 -2099.815594 135.680823 -1503.676645 -662.668174 1021.125284 1215.159979 -930.973085 -173.452853 -527.685199 796.895638 1143.973432 345.703430 536.540522 -260.591040 -61.573404 -969.156245 -2714.047680 -217.319184
made -125.875091 -420.191416 116.511376 119.902856 -39.972107 -190.385234 94.743583 431.285916 261.223462 -113.711707 -203.745859 60.860927 237.921800 125.003942 -31.383347 -134.591266 -132.188453 -211.004525 397.859988 122.305051 -110.936738 -105.737319 209.503307 21.618727 239.272899 -286.008264 204.519465 -262.259339 316.679555 -217.752890 -105.078074 -96.691708 -684.772094 87.569298 -443.281319 -94.606017 230.028089 -290.277163 -508.837968 133.972182 118.211746 256.452611 -25.773450 -135.022217 -389.284390 -167.838773 171.269970 -539.598541 -780.982731 86.548351
drills -76.936926 14.370285 169.630118 218.737861 248.484505 41.471574 -41.072428 250.000375 367.476102 -202.651944 -74.284752 14.562742 36.199363 -128.759109 -522.997672 -538.169611 -457.284285 -115.611277 34.215931 -129.889477 -234.153494 82.859904 502.016802 283.531965 26.890647 -159.837611 20.680580 -114.084140 123.681744 -284.493262 -9.131985 -138.124638 -419.862019 74.766765 -427.671108 -11.511221 270.625391 271.716394 -351.017350 -72.939221 -170.192345 -81.430211 367.132506 86.220039 194.799796 -138.207270 94.668365 -284.411167 -644.441921 -38.449965
He -246.553554 155.340882 522.055793 49.319042 61.633562 -275.254841 250.925211 -144.840864 441.047226 -142.046122 611.545276 -145.039012 680.696367 211.809420 -764.235787 -1145.686891 -954.608382 -145.391939 -178.153219 -631.410249 -785.173695 228.793310 626.699055 803.302627 -188.520981 20.114126 65.657033 204.762846 -154.948899 530.764713 225.104349 121.250833 -325.803486 -110.556681 -901.327930 -649.865217 455.098713 785.916277 306.993930 -1049.314078 -730.507980 -98.908775 -160.451239 -483.693257 -144.310075 -284.716342 -1408.442363 -860.423047 -970.526055 -702.611306
big -347.830461 -7.373418 515.820454 268.472273 265.284796 -110.519924 265.437110 414.114257 780.158967 -419.874591 -218.043964 41.751090 -46.742649 -166.681097 -986.607480 -924.160286 -1040.597881 -463.433240 379.488509 -286.117615 -389.027834 1.014094 769.348085 525.508709 -17.687844 -340.909961 -174.120523 133.243003 336.990583 -567.005159 -134.873225 -621.152899 -988.174442 248.652179 -1084.238110 -90.387903 507.753119 349.564837 -808.413548 -81.536115 -373.963777 49.694867 677.518574 153.766036 315.917725 -95.748480 297.498983 -733.668932 -1686.924134 -161.699566
beefy -66.784502 23.204487 62.681061 84.206654 135.337949 46.524490 -32.789060 103.612244 162.847887 -65.030665 -48.636577 45.205536 23.226845 -60.240678 -271.384222 -253.464485 -270.314097 -67.494494 40.696498 -59.183590 -146.463521 31.103634 187.574495 150.354702 -21.052640 -115.924960 21.533365 -62.554103 48.547955 -106.796709 -27.801917 -49.411827 -205.076345 19.691376 -179.417197 -8.110522 144.067853 114.685338 -179.280466 -29.696771 -52.872208 -23.305497 152.305727 80.399927 90.887090 -69.390388 57.093364 -161.350416 -333.415659 -4.817821
man -222.841127 104.727067 267.464833 317.435554 370.781945 177.514159 -39.946523 656.500103 774.594332 -399.012659 35.914720 -42.503218 -191.998921 -86.504338 -686.868279 -693.487625 -929.365091 20.395156 -80.748528 -66.727005 -496.385807 266.677760 794.424648 594.092176 -134.446746 -202.244048 61.725337 -264.492918 184.158496 -151.342448 -17.733962 -504.823388 -943.227847 45.277308 -1094.288124 -145.099338 605.787180 714.171150 -609.713303 -300.295583 -574.696961 23.528017 755.820519 253.893384 349.320710 220.078161 38.990389 -706.185884 -1357.816876 138.824189
hardly -60.888527 132.629584 308.006313 78.949126 141.097328 97.149092 210.748265 485.935322 12.484409 -235.713119 55.833238 207.429036 67.991403 56.494335 -142.163288 -454.657804 -241.136728 79.337992 -312.960388 211.006626 188.007596 227.312001 225.778707 512.676888 -207.272002 -424.617313 127.259322 -313.008945 -177.787443 -58.869335 -108.403839 -92.877416 -266.104233 -214.769610 -281.371561 25.903679 134.815136 265.804062 8.203693 131.344774 -124.462265 -102.787978 164.904813 -5.334704 138.950056 99.620588 38.702836 98.862433 -239.810461 363.139228
any 67.889718 167.498230 -110.879084 -54.518123 -12.583932 -499.415490 -358.697564 -288.568308 69.355050 -110.757922 -254.777201 -106.955296 310.558519 191.685248 -122.054640 -1.504843 -101.270451 -31.591568 265.179589 -112.625947 -316.720464 12.658472 -237.724929 205.989016 543.437888 -271.601038 81.826278 -183.257524 434.199956 -103.275931 -189.789742 -26.883167 -510.858100 314.147724 126.090666 23.793468 -154.095861 -129.419111 -198.680760 517.390267 333.405598 427.945143 -10.618147 -55.513435 -62.710314 521.750967 -98.009050 -28.418713 114.556664 -503.293046
neck -33.964488 -57.527810 -137.474531 95.091549 183.027274 -63.628243 93.336407 151.010309 -124.840316 -49.490003 -218.511098 232.156611 173.923658 28.325747 64.211894 -173.148432 -83.184275 -26.308722 -128.366675 -286.334207 -31.176560 190.148998 70.580556 214.859918 -61.809875 -54.612311 97.754173 -217.312030 -23.399654 -33.195703 -268.935396 -129.002216 -52.481458 -36.361386 -171.310272 213.622536 111.222039 161.635241 -100.281323 50.662696 -9.607732 -105.762872 85.928312 25.692785 239.782401 -42.550506 -34.007927 62.096140 -232.170595 312.135921
although -6.390190 -194.707315 265.240251 33.785272 47.177490 155.512346 40.716604 288.675951 499.537263 -36.723489 -336.851262 268.779512 -61.630670 -60.935619 -345.909791 -768.410029 -274.639379 88.078521 -34.785942 0.760604 102.516861 82.647456 460.611121 160.684283 77.205728 30.065241 -145.253161 -65.609330 137.759446 -266.110869 109.672382 -111.491934 -253.426521 38.868551 -207.333912 19.080835 47.940701 64.493763 -380.767169 -202.903051 -89.505687 -14.998557 149.912890 80.110496 284.542136 -219.829331 -24.996704 -439.925301 -639.284892 155.596800
he 98.063233 224.294705 651.313641 176.953690 -185.231440 -446.930024 -14.535132 598.641509 -28.795811 -384.879920 515.961584 -329.204017 453.634391 -570.534525 470.540269 534.583425 394.231249 640.089656 -198.445787 219.337540 687.481838 958.613734 529.348744 -190.785116 -692.658189 -33.653926 1276.254155 -451.884914 -624.031946 802.242030 -204.535870 447.268354 -105.909131 452.724186 -397.742696 207.389272 1303.619918 1426.229393 -785.625301 -385.672065 -936.898482 -574.770192 819.489902 -1203.835459 571.645939 345.023309 -325.711988 169.952400 92.744855 232.492690
did -1041.236710 -17.116902 319.816932 881.710637 1458.138673 374.471212 -119.047658 676.726817 1062.144115 -880.369201 -478.827193 -272.602600 573.160338 -277.827318 -2241.097429 -2200.656354 -2238.650337 -1206.724156 502.525676 -968.199409 -1276.396758 327.538719 1231.692200 1361.782082 -183.653688 -479.052460 533.676301 -769.856710 930.629575 -933.120459 -545.970270 -451.460929 -1580.717540 446.982161 -1809.512143 -454.143718 1355.396111 711.423142 -1354.813386 -680.236138 -249.168850 -94.509379 1412.556126 394.721903 292.365815 -538.973626 395.612612 -1076.977757 -2748.432975 -860.782773
have -307.334682 -606.305575 146.230189 -506.585025 333.047544 882.023148 497.589517 590.114961 357.653937 -283.579795 409.177360 625.658910 -6.284040 -761.670978 -894.564331 -620.927103 -674.275653 -161.413028 116.197255 -761.813276 -956.780586 -68.212006 778.988500 77.578988 268.021835 452.146353 131.836005 -697.908701 798.330772 361.629726 314.296912 -61.035503 -576.608605 -401.485873 -403.861073 233.567978 -51.271270 457.562081 -471.591866 -504.341250 -554.582923 -179.837433 -242.107280 -297.920668 -857.640026 -800.863036 670.683322 453.917207 -102.709520 -1118.524020
large -837.439344 68.085811 422.013925 307.271148 481.590323 40.596378 0.745816 504.124469 677.198041 -449.182279 -204.565695 23.247734 114.667489 225.741247 -872.697024 -1511.925138 -994.068909 -662.743622 307.996712 -962.372647 -726.753860 286.795639 1041.143784 843.587993 -145.747634 -384.099594 -115.216065 -117.799989 764.554636 -414.447021 -377.696772 -727.537183 -814.111094 -35.812088 -1104.884676 -629.192733 588.398678 196.058050 -750.042624 -414.526585 -31.964356 -187.180456 302.072439 374.453703 547.662000 -505.873940 183.565985 -743.687462 -1406.296354 -132.402638
mustache 64.281100 25.525895 -34.036372 -34.292047 -24.146069 -38.229639 -27.548162 -60.929787 -69.849053 40.571954 80.737797 -70.815368 -54.033229 25.357789 181.917718 171.635738 183.843772 74.986008 -48.486444 90.696889 94.213670 -27.755995 -157.890760 -53.419630 12.437091 65.716545 -22.512358 27.234155 -87.173517 42.189381 33.990509 52.487530 135.795513 -21.090637 168.059616 51.027010 -104.496065 -62.684952 109.261460 49.704890 52.872317 23.544238 -68.894683 -96.160133 -93.391231 19.944417 17.436764 47.501686 245.444492 -21.459558
thin -411.727656 -42.579891 689.814821 517.467397 569.764282 -71.129743 67.692926 572.725767 863.868239 -353.858123 -320.318342 109.609894 23.266074 278.375365 -1336.766632 -1236.977727 -1179.794492 -363.287448 174.316209 -560.699924 -778.492606 244.957891 1098.114382 895.823979 -131.510901 -295.787674 151.356933 -189.011168 705.836477 -587.312746 -60.038915 -765.578238 -1121.029897 49.785913 -1307.707090 -62.587586 685.979711 551.300271 -911.526725 -297.763519 -212.249615 -9.886016 842.439418 261.292782 534.711335 -418.409231 -182.243826 -781.487455 -1835.188293 -171.726479
blonde -221.852786 39.169094 406.180173 338.210321 329.497923 -4.321520 -36.709796 280.008522 552.813787 -316.868523 -161.788907 130.854237 68.170978 -20.028966 -843.531040 -797.445436 -779.447909 -223.308810 140.719237 -256.915387 -424.718710 156.061512 726.627656 491.518959 -80.913329 -282.447669 25.253398 -145.536522 272.373912 -357.669211 -75.154698 -287.976938 -665.233787 115.153412 -594.144707 18.818376 430.320653 402.082777 -540.032928 -99.122653 -163.078080 31.559705 506.108298 169.822486 373.471997 -262.322838 -26.376694 -470.300307 -1121.564351 -156.088321
had 134.846376 -1192.945968 -467.178590 -205.893122 -345.760254 444.884179 -354.450375 -270.037144 356.069085 822.979250 -463.644559 -639.478332 -524.565793 678.272092 1072.586532 -872.551748 678.783056 1243.622518 -354.802427 -691.530734 -266.911794 712.519306 223.248412 -485.053897 106.209378 -474.942780 -442.003562 -118.078539 255.695944 591.867424 473.474469 -344.195174 -1086.513784 -792.820441 -442.091700 5.607995 -418.435040 511.886828 565.757955 1130.191981 -959.608046 -57.828219 -230.541974 30.400679 -282.636823 -483.474282 99.971618 -892.094164 495.552820 733.074688
nearly -167.319615 -307.325571 87.639064 51.371024 171.950384 292.399692 -156.205528 173.113360 549.728322 -104.858285 -328.708893 108.493955 125.092472 -38.239604 -963.912873 -878.882977 -1018.518570 -218.688244 363.730973 -387.839932 -756.014095 245.059653 469.661821 330.249573 99.899251 -287.018701 217.475427 -404.066466 269.672402 -27.796915 274.498437 -344.183427 -947.310258 120.646242 -650.724749 190.390349 447.597514 770.390808 -642.087770 91.580638 -225.738978 -75.384938 595.672585 128.149047 331.410036 -348.268256 -362.122430 -237.723472 -996.457530 -57.730131
twice -161.444560 98.229682 259.820881 303.733544 365.795338 69.871045 20.033466 382.903468 461.830128 -148.206059 -50.461593 76.577722 5.447671 12.732120 -701.196573 -608.726056 -605.703116 -306.231380 -13.180733 -284.466964 -360.102523 184.980564 669.171990 460.005683 -73.651669 -234.256299 119.767635 -69.857161 182.522511 -339.188179 -106.968862 -348.614170 -523.470745 -69.574800 -658.744550 49.996010 342.470595 340.185244 -466.328883 -169.283599 -98.721523 28.038659 465.136098 126.252854 318.054388 -183.078919 26.919983 -383.235476 -837.604637 -12.579092
usual -13.355169 -226.841469 -176.103950 -182.388230 45.278270 81.121132 99.333192 -21.541857 -78.766072 63.650908 -162.915998 -81.738639 112.618364 144.603504 118.638329 125.551635 193.062745 -113.122547 -65.513786 -156.033307 -140.195752 -6.373699 1.728101 -24.957529 -108.277482 -114.472920 -104.120623 220.633285 23.249034 10.290922 -3.818200 -340.806904 68.235443 -238.567875 -391.399263 -163.295747 -40.878900 -1.312440 164.738822 14.469750 31.190971 32.361852 -13.798571 98.980325 180.705456 -72.658715 -28.204178 141.897234 44.805190 74.875063
amount 29.615564 -8.189415 -88.871788 -28.060580 -101.801355 -13.837822 29.277749 -34.166324 -92.075927 20.516635 12.700015 -4.806853 -8.447899 61.344999 172.669718 143.958610 190.066649 61.140206 -5.549669 56.326558 94.430701 -25.293785 -94.055176 -78.961377 8.083168 64.175905 -48.049843 19.616610 -13.740213 60.065526 17.928428 23.330254 115.821477 -18.328522 115.583854 -1.769961 -102.380974 -77.483873 133.061891 47.105571 28.316198 -11.675693 -94.251934 -48.059100 -64.664061 53.161204 -20.758324 106.058731 228.452395 -19.873845
came 119.700788 90.227911 325.025896 219.745356 206.960659 185.125511 201.220390 102.555456 61.052442 213.234986 6.247308 481.021916 221.459742 -148.488334 -618.922460 -159.864970 -324.573738 -417.104782 -123.790911 114.466174 -322.060684 82.565957 192.612613 53.320553 -336.314626 39.638140 152.914812 73.493662 -224.986713 -195.937844 -106.792912 86.624273 -31.924700 -28.055520 -387.676355 -29.594360 -22.275692 -68.261781 -245.242904 -860.739533 -30.696832 -254.069208 276.317572 103.791095 382.857251 -151.579065 -268.587459 -158.898429 -557.317970 53.514385
useful -428.988139 69.762211 493.562822 669.764929 620.973634 98.090098 -177.196400 520.185335 995.032765 -446.301627 -449.350295 107.827832 11.285237 75.589116 -1622.498587 -1588.981534 -1529.775854 -325.730810 138.190455 -636.822745 -918.406708 269.791311 1164.852674 866.598625 -132.004412 -481.049194 96.985610 -369.680064 732.506807 -590.791671 105.417565 -659.674453 -1134.318860 236.305660 -1254.657409 -48.328570 843.125743 760.987007 -1202.625522 -132.215844 -333.932000 -181.627228 1055.706314 314.019261 634.266340 -411.326769 -66.651857 -921.709240 -2293.355352 -179.070973
as 471.574902 339.082389 1541.033509 -240.800813 -268.086607 260.080686 -77.987651 -195.263663 -80.383443 340.676630 -141.351876 -139.180921 -292.466918 1208.776968 319.978958 963.713969 664.302288 94.475128 -422.421845 488.020359 -32.434869 -42.459947 -122.080687 702.792256 -557.756982 -105.287546 451.462882 405.200194 849.623677 661.705150 366.556167 -425.582688 -100.258780 -1015.110555 -163.326962 86.139332 143.272273 -187.078968 431.658637 -84.674798 -240.233239 630.748421 -473.300830 -93.881079 -332.775154 -94.005898 188.590287 142.507378 595.652084 166.705537
she 147.097140 221.049640 -150.739368 266.256657 73.648135 116.906373 -615.499024 -5.764828 360.675383 -544.144840 -367.342013 78.687712 -614.675329 -155.725706 -293.592982 6.021058 -238.138256 461.846964 -402.047956 -83.318460 860.232570 901.511352 -116.769401 -167.306512 274.769149 297.282960 -57.015485 -240.089801 -1024.460198 -32.055967 398.370649 405.833854 -121.047050 216.851440 -71.847008 420.179708 245.151539 776.177873 22.945223 440.014886 332.452471 134.753622 130.055368 111.194317 303.260212 701.109162 -203.633818 -291.893624 -502.059190 595.413905
spent -43.880255 -45.078065 123.072727 69.127657 89.510454 43.520383 145.624702 -45.758059 -59.318877 146.332812 -43.531628 -36.212564 271.640115 9.570260 -74.379147 16.672327 -51.156175 -174.900847 -85.243742 227.368497 1.844996 -50.392184 102.664661 -76.383875 54.800536 -56.638466 91.941920 224.889632 -2.351587 -218.421023 -7.572576 41.556905 -141.234782 63.360918 20.334263 -20.282397 53.812332 -124.986771 -96.744479 -139.242265 142.435651 48.865252 69.645482 261.451288 -161.451228 99.559181 -9.178873 -172.610161 -148.242053 -61.741728
so 661.496830 18.290580 27.780079 -478.447261 -796.151634 214.497744 -278.283446 -472.011458 -74.302549 -137.855729 167.270380 268.642609 -385.704136 614.761182 615.786919 720.705089 429.123063 614.300059 -177.020695 192.247227 200.207355 -908.843211 -22.576090 66.277875 -1027.619588 -40.073522 -312.515494 -522.316581 -227.410323 310.480628 -70.170609 431.831705 564.706792 -251.815410 1132.326120 -269.316036 -397.528481 -1152.958845 240.264810 212.401874 -130.498946 -69.951718 146.684411 155.937314 -731.330381 841.288772 -67.470388 229.916318 893.971141 163.677924
her -363.648403 398.543594 368.205318 219.331211 1629.688478 171.279328 -649.256360 1183.034475 1111.131467 -157.772103 -209.527559 402.805519 -229.292228 -153.995550 -1185.968113 -1743.697801 -1219.827169 39.790997 -364.599428 -793.600974 -763.746552 1073.576671 1365.433821 832.024206 843.873032 126.712717 301.399292 -316.686162 493.091958 -187.093812 -629.611589 -556.744438 -973.419924 -43.767348 -889.017128 407.176048 731.971698 588.794988 -766.255920 -504.201773 -493.542965 -123.506103 301.432892 213.707429 740.478460 -393.003833 434.154842 -1553.788315 -1646.712631 307.397273
time -310.156303 329.288611 470.094076 14.409691 -87.716777 -165.324178 70.512262 149.837018 575.843991 401.249776 -256.326479 201.933310 -460.513302 471.565289 21.882610 -399.852490 -65.053714 24.512456 198.104135 233.825467 112.180862 139.165144 -20.080413 526.328883 -413.885030 -147.781304 63.782698 353.830932 460.277786 -10.135024 -251.255269 -466.944223 -473.318325 -573.213585 -215.760702 444.688983 -174.280325 139.004527 -22.493382 201.584733 -824.050900 574.422478 151.616203 61.724024 299.970873 164.493935 -159.173102 -825.878731 -788.206358 285.550784
craning -173.056164 9.419377 209.933805 187.933280 361.718512 55.505781 -49.633334 255.825337 314.200632 -147.821256 -103.404090 103.392458 81.747313 -139.817357 -626.968950 -581.933117 -582.092443 -178.084822 -22.711474 -130.187644 -338.601339 113.813684 493.334971 319.496365 -75.776058 -220.515450 80.127299 -185.301360 134.863931 -313.916196 -76.299891 -146.275771 -482.108209 93.703709 -465.945609 39.671371 317.996183 255.635736 -441.998831 -114.553247 -132.517835 -38.891238 434.310136 178.482280 292.468308 -166.696045 79.154887 -383.678648 -779.826576 27.152287
over 80.740284 -299.312448 -274.904370 -555.656256 -2.159116 123.274954 -25.249070 -365.073522 46.786645 687.311247 -418.456714 49.843663 -9.010374 -239.740835 161.386341 -532.757035 442.408192 331.934872 -815.510345 -231.764873 243.395913 -200.320875 -444.430846 -57.407693 251.194123 245.477017 -167.921021 461.957272 -459.698667 -116.638753 279.009629 277.014459 354.577089 -732.232042 769.518228 140.802761 -799.467181 38.603082 -11.047399 109.078583 231.921252 230.702812 -183.750262 -90.744549 273.736594 -77.768830 -19.855250 -5.990644 382.786088 36.451567
garden 166.606570 -50.922485 -32.869348 -63.988810 1.536587 15.278170 -11.850381 -52.302211 -77.246342 87.291657 56.350248 96.928211 135.062501 1.223674 110.842151 102.986604 98.680066 32.493633 85.868143 101.980493 -24.014359 -87.375722 8.338593 -112.362460 27.278030 -1.063568 7.266698 51.330541 -127.849600 23.286589 92.304073 151.002929 149.579339 64.198714 167.545069 39.759410 -7.191479 -33.361372 69.280320 -42.768847 0.023085 -91.482343 -115.703296 -30.210694 22.867082 -128.258546 -11.977821 48.417034 216.001283 7.312602
fences 26.220328 18.306390 -87.602661 -19.302370 -45.706045 -6.269620 3.964570 -38.394558 -54.206586 4.344747 16.569989 9.325697 3.225191 50.942199 127.901178 92.070579 108.374795 45.030362 0.684436 25.811985 57.194518 0.115121 -49.247666 -37.700758 -0.859406 35.632439 -50.772976 25.853591 2.904762 63.080186 -15.109311 3.738403 72.334552 -28.633318 109.671875 14.063317 -79.262062 -60.965809 89.164256 36.933482 21.610415 6.063875 -68.124591 -10.732676 -55.638424 49.774495 -10.688097 83.434821 132.890692 -32.338992
spying 226.695329 -58.491736 -73.251565 -222.450057 -322.920972 -155.794391 59.791053 -264.610694 -340.182601 202.358244 85.519832 -109.952525 18.315746 119.367914 376.863750 591.478420 468.910329 91.663719 30.482946 32.948279 162.775924 -182.636196 -372.422299 -222.960356 -83.447381 105.641158 -84.782214 149.838615 -160.058286 165.672017 27.497142 102.284229 318.998423 -37.421398 290.789202 -46.494295 -244.842127 -194.920488 339.900559 100.872087 127.642213 47.834056 -236.483390 -170.068985 -212.469685 128.735289 -192.737469 345.192917 656.835118 -20.450080
on -301.411160 283.134586 1432.693673 675.968835 3.390523 150.588801 368.337324 -721.967463 -26.886608 517.016086 -574.976394 195.642089 175.638888 496.637771 -1185.639135 831.937789 -231.779141 296.183173 10.353230 -486.783213 -266.905612 8.279663 405.201449 -199.837730 -333.749260 441.757907 586.911368 383.236734 866.969546 -899.981996 307.518457 -320.725810 -373.574477 396.232136 -1140.839367 -792.380261 452.855728 287.305415 -244.460975 -173.682603 -528.824241 -201.841592 756.351577 826.835255 99.696681 1006.023037 -120.141267 302.096729 -210.886116 236.442995
neighbors -12.026270 -30.657387 16.841941 51.292311 23.609529 24.758800 20.319595 18.639046 63.520698 9.623552 -57.281829 10.745672 18.434242 12.097221 14.854303 -42.225155 4.210068 -16.010774 -21.856539 -18.091479 -5.129152 6.140919 36.449901 1.951538 -10.830405 6.580685 26.927822 -12.719869 4.136838 -29.146230 -12.959191 15.680215 -46.496931 -29.195479 -29.461793 -19.148172 32.174918 23.094752 -6.588456 -38.483853 1.853359 -17.294596 27.011699 8.132256 -10.771839 14.192955 48.099438 -38.655448 -31.941006 -12.016087
The -645.427056 825.949361 68.873226 119.902828 214.479923 419.121412 -14.022978 462.352387 125.074299 205.992653 230.721167 238.112343 -119.071571 361.102524 44.172493 283.466144 307.563897 -678.281270 -212.930066 -52.888545 372.102607 421.597765 -123.906630 74.146233 503.242066 723.132332 197.576311 62.472587 -359.959221 175.456236 -269.733508 -142.531942 660.256685 241.335946 78.747655 -145.123922 -328.821126 -37.293107 60.039400 -552.209685 762.683504 24.742252 -628.345540 312.775691 268.784322 -34.862312 -212.197183 474.682970 940.007147 -271.759198
Dursleys -1051.321017 196.922983 856.814081 1089.928854 944.603616 -70.250328 -265.537475 897.743492 1691.085253 -578.006123 -526.400539 35.800795 184.898422 66.850870 -2427.897236 -2507.600713 -2439.190770 -621.842237 131.907524 -898.053685 -1355.527763 723.601023 2085.973409 1433.241641 -133.365097 -901.801274 195.978071 -351.164307 973.005976 -1046.315071 -186.833234 -1058.832808 -2184.858004 143.532281 -2127.742023 -292.257902 1105.292516 1314.174456 -1771.761931 -313.428469 -543.744584 154.394398 1615.222432 615.547059 756.754134 -525.267083 218.945613 -2039.313942 -3696.951344 -138.646474
small -799.923112 -0.859064 781.942650 1151.952870 736.030048 -23.392610 18.521420 825.093578 1399.360574 -590.321446 -643.869564 67.662430 64.280905 -226.113799 -2317.264561 -1878.578222 -1999.570008 -440.775317 501.238647 -610.188271 -1097.025389 464.143581 1748.040019 1087.082704 -150.317230 -602.252539 120.386816 -716.828959 798.344416 -709.926489 13.304919 -852.460409 -1749.749604 422.417973 -1984.796454 -149.501096 1152.268278 1387.801773 -1620.777846 -346.612882 -581.326402 -218.287985 1529.468174 173.182368 688.445244 -533.012627 34.558679 -1232.309122 -2948.206530 -26.668442
son -58.426793 -22.087603 -42.707863 110.852327 44.583116 68.424831 5.725350 109.419553 114.171408 -38.917207 -85.472944 -0.881787 54.802556 -19.681407 -284.871325 -192.322072 -157.235662 -74.956024 27.893860 -105.875184 -55.703463 66.285058 145.509241 118.495359 -18.780261 -2.424986 -31.425076 -87.953146 90.988829 -113.882473 -115.362727 -59.059911 -169.627835 31.418641 -176.791061 5.725458 115.013222 93.155947 -161.837350 -46.785163 -92.947436 -170.192017 153.896477 84.469040 75.145538 4.327856 -5.503907 -150.196671 -372.464207 62.206288
Dudley -203.653985 -248.625715 525.340190 164.732757 212.375295 225.005293 -30.351299 87.154852 487.062202 -26.127753 -333.834725 132.981765 110.634647 -188.748377 -602.611252 -441.465082 -900.213061 -106.857302 308.146632 -387.119422 -657.295122 37.981932 546.048273 150.539129 245.510088 -396.254922 351.739631 -175.812489 208.248957 -20.498186 185.170215 -354.309017 -584.448311 3.811593 -734.636656 -48.913731 355.844751 497.939357 -750.572133 -179.810198 -167.118231 -119.725845 634.978371 169.788738 418.284069 -248.147454 13.547167 -272.595503 -854.661656 -122.648508
their -339.159506 656.542597 1244.990009 111.944475 630.102957 -589.220740 11.310824 630.912226 698.200381 -1449.101992 683.561535 296.137297 43.474782 -483.437813 -738.646298 -681.372304 -1187.849493 -691.063266 -678.596025 569.371755 -477.299618 46.928630 1127.980525 922.599281 -290.926165 85.937942 554.220391 -358.262922 421.158120 -364.778503 -309.355900 -508.313291 -610.629455 39.896527 -900.952554 636.605092 645.826131 458.442314 -1929.333898 -345.230612 -109.315396 63.341846 1090.074660 -224.778179 494.963290 423.658102 -445.727838 -777.118668 -2428.846278 3.919194
opinion -870.257937 47.057925 699.337625 979.076234 851.791204 -11.991574 -3.318562 771.325831 1283.918833 -700.465469 -580.600253 -37.458882 4.225148 8.629349 -1872.718873 -2054.534150 -1993.192079 -515.081269 285.366219 -890.382290 -978.740365 496.498736 1379.155335 1149.142976 -178.153231 -505.215933 285.309896 -646.915239 743.738057 -741.196288 -183.381461 -848.184549 -1539.554252 298.254561 -1705.808986 -274.137508 1007.251473 930.119269 -1284.642974 -439.671746 -419.059266 -236.479166 1283.602191 352.249107 626.333149 -384.531375 305.170394 -1092.936758 -2812.487934 -97.442338
there -116.385400 441.611925 -584.274045 -742.677332 -335.324697 -289.441690 -397.585674 -38.346394 -251.161427 378.936474 -34.800658 -57.317994 -459.608677 -84.229227 8.314887 688.592944 554.274858 723.295391 -527.828220 -899.972917 -314.246971 -647.609179 -374.678077 -535.206088 18.528267 -57.392088 310.406995 -273.133438 -179.541648 773.162119 832.226128 -226.237418 1167.288960 -210.252454 700.126850 -169.442982 -850.021473 -146.354751 324.381962 87.906061 -215.393640 110.089216 -36.996954 -655.016386 -63.190000 31.334389 452.409592 259.640122 1487.710841 -514.818926
no 18.431740 -959.022693 1348.929543 767.057533 573.520160 -377.915431 -407.339799 -15.810471 1469.965367 -159.160947 -984.841831 -306.496193 -654.758236 -18.938406 -1519.288123 -2220.641496 -2237.779367 -130.605691 616.791681 -1149.711629 -960.342529 469.613232 1193.822198 1053.008731 200.162141 -296.705086 874.786212 227.189913 -17.399853 -690.371666 940.980332 -719.952065 -2324.882686 160.301190 -1405.351551 -489.022614 1075.574509 784.730249 -1670.886063 117.510972 208.717061 113.194673 1582.436611 563.685927 558.505055 -513.520504 -332.074480 -1945.731010 -2577.217744 -39.921734
finer -249.095254 40.369675 282.443053 272.508183 286.924677 87.324427 28.684605 262.564426 418.821626 -220.388819 -202.989211 141.197290 -16.998248 -45.082722 -738.625856 -679.773105 -710.000320 -219.678466 90.323160 -291.167611 -337.861642 185.575321 483.251247 388.688829 -109.220467 -198.788113 -30.906797 -194.643955 249.404502 -300.165172 -146.164688 -260.981947 -573.331049 146.351924 -504.223982 -13.324454 376.098542 254.854049 -504.226767 -43.874599 -169.955646 -38.479445 466.818416 175.690588 280.265680 -173.751546 -3.994288 -359.575451 -986.225672 -80.029664
boy 33.548016 -116.815883 56.626463 900.386539 573.895880 683.902380 -10.349340 685.192730 693.947910 -409.778859 -357.073372 390.360028 274.218279 -241.466241 -1321.836569 -1287.451249 -999.439471 -413.111289 532.454057 -383.333668 -649.869548 431.066034 1146.135139 600.641729 -209.603774 -343.761440 26.355498 -182.966394 419.254533 -674.828023 -212.295000 -370.278249 -1161.691593 241.275450 -921.346244 -84.052997 1197.657581 252.959673 -790.131088 28.288502 -79.009381 -62.934633 901.146810 460.485189 418.445617 -657.092252 138.113029 -584.751171 -1619.736284 -215.404835
anywhere 185.581831 -233.986410 -393.723433 -92.044746 -49.142311 159.601872 -26.243481 -226.313168 -395.146368 214.331333 -124.616990 45.559298 67.314322 76.280384 489.636300 418.058271 604.395117 215.216761 -1.925688 -32.468759 54.538012 -106.336693 -351.725073 -252.336885 151.903869 231.503812 -13.405090 -149.492091 -134.538378 106.553878 233.764210 95.427591 291.907713 -46.513872 622.980375 139.096528 -330.036409 -296.964314 402.889286 237.844165 229.469777 -88.584898 -259.097115 -112.603846 -283.607362 -107.274782 53.324876 372.586697 973.635909 -131.550139
everything -432.468079 -234.743228 681.163430 621.654233 796.482429 181.766789 -159.430071 693.340945 954.192915 -385.445629 -552.363528 151.920376 53.844486 -295.644686 -1453.418715 -1447.047783 -1296.366933 -193.706032 -92.737953 -409.946162 -846.517756 247.520066 1032.952851 797.042146 -186.722090 -257.056632 502.847521 -996.637301 563.426220 -413.779248 -26.129750 -154.875400 -1313.939636 178.528446 -1209.855522 147.717513 885.130069 1139.073314 -1260.479626 -218.033055 -709.723093 -272.988789 1124.065895 111.887262 791.064507 -496.490657 50.285779 -695.284891 -2063.115042 465.497021
wanted 521.691671 -27.334963 -288.260633 -235.781205 -318.701043 -18.153121 2.000569 126.824848 -119.022337 220.433297 126.417417 195.652044 193.558125 106.367687 560.738951 641.392922 402.996508 259.112339 -149.702227 127.134427 334.376374 -1.118820 -139.220101 -315.600129 -9.339152 -157.169006 50.443278 -10.497303 -386.521280 214.824833 -282.677467 355.856771 276.055177 -204.109585 44.630455 65.887708 -311.130380 79.217570 370.922138 87.832177 -34.289802 -129.540197 -193.126850 22.481438 -11.046091 405.590811 45.649967 404.926767 617.104902 387.832048
but -662.368239 396.434648 -306.923436 1328.001618 118.043574 17.270265 -39.046938 100.282956 247.837735 570.317074 195.355150 468.959146 331.403113 -371.946004 -580.004672 226.692726 76.920534 -709.192790 482.802652 -1076.242529 -87.160940 1513.681242 805.944226 -217.868889 357.917809 139.170502 723.330517 527.510585 334.964970 71.098175 -531.636312 -190.102228 -565.970891 -438.016179 -329.766977 330.166590 71.674426 489.096151 66.509139 370.795032 -392.608885 361.188626 -259.261772 141.922680 -85.633172 -551.315251 -623.750421 -184.776706 71.554906 93.383563
also -372.157602 36.234488 228.557270 395.888242 320.080736 -11.223426 -72.269830 404.909150 556.602676 -462.721935 -276.970443 189.117933 -23.992943 -103.010486 -1063.405112 -988.902354 -996.101482 -521.305133 -20.729848 -385.058745 -611.937168 227.483368 714.400939 518.666088 40.257649 -366.779508 23.994417 -343.864246 525.505669 -453.707939 -196.834048 -281.608178 -915.333009 207.301839 -908.721369 -70.186550 374.327463 464.425344 -821.398707 -47.799832 -211.867895 -15.736272 724.455677 250.909956 411.850066 -34.496583 -31.723930 -691.509762 -1643.484645 84.003725
secret -465.959799 -93.196017 603.012871 473.279150 537.819352 123.495308 284.593315 800.683822 588.326045 -572.547340 -56.595604 247.575046 186.540172 -129.863646 -1334.217684 -885.648688 -1183.887587 -453.898598 287.285702 -334.158976 -798.948767 97.136634 936.345747 728.131592 -187.772605 -296.249821 149.616233 -471.357028 460.400514 -386.914118 -273.371042 -609.582895 -928.220877 146.242119 -1007.017693 50.719522 713.074975 526.464095 -855.944863 -309.816953 -324.321089 -232.409095 764.391650 111.337430 246.169535 -417.631346 27.622396 -318.947394 -1676.469328 -217.331649
greatest 174.110001 47.373851 -180.226541 -124.694663 -37.298333 72.829701 98.391270 -24.734079 -243.167269 184.393155 62.784123 84.007809 87.631050 -89.813680 219.108150 400.293118 255.046196 59.617843 -50.538338 170.287870 137.084363 -144.747525 -174.928281 -189.159978 34.426624 51.704226 -50.239555 73.122450 -171.098734 98.237716 -66.213352 104.939762 264.392889 14.855581 279.173828 100.929141 -179.339334 -168.473751 196.923076 -34.638083 11.036093 1.958432 -135.903583 -36.436432 -98.247075 73.370687 102.577483 359.066468 515.378998 -54.652258
fear -352.412375 67.844378 596.322340 469.451382 501.800318 75.494343 -54.243028 466.136707 846.960111 -575.908240 -266.926987 182.101152 -25.066898 -107.772639 -1000.487423 -1285.354272 -1286.219986 -164.057658 63.104854 -243.164786 -667.891173 335.462501 1147.578209 598.254135 -108.676076 -576.735843 -31.118798 -88.991205 393.024115 -304.910064 -36.816406 -662.639198 -982.500287 113.507152 -978.242845 -151.150503 884.533828 823.717978 -1017.951303 -269.896692 -117.652625 62.841948 594.064805 380.900904 768.015720 -433.242577 -106.007592 -726.183990 -2188.907053 -12.725307
somebody 94.166492 -27.747629 1.117073 -1.656170 11.790756 67.828214 8.559543 -70.705641 17.074589 136.997385 -29.687800 108.801343 41.648192 -23.069390 -47.239478 65.036777 -9.881329 3.752466 10.385899 -55.313387 -58.748123 -99.769876 1.371256 -5.594086 -65.688731 40.515215 -13.764623 20.833640 -33.116232 15.507341 -19.045090 51.260057 17.087783 -34.949905 11.019662 2.659983 -32.129844 134.123565 -3.386404 -27.599774 -87.704421 6.145725 22.539715 74.540009 -9.908341 -8.055860 -55.732807 39.578523 105.520844 63.031180
would -658.489741 273.504779 140.708058 54.981090 -168.506021 6.451576 284.722078 612.733908 10.775327 -639.442159 80.402011 271.399187 -207.879688 -174.552084 -626.210582 -192.934223 -354.450614 -547.717296 -39.619134 95.733530 -221.628336 -60.580260 561.867395 413.377682 -387.335863 247.449366 -547.295638 -144.175574 635.297307 -725.013199 -594.949297 -116.052439 -765.690712 -205.434295 -490.897802 -389.694205 381.119271 -235.812477 -227.038023 -510.347044 5.445545 66.871863 162.879131 328.679251 27.775672 -39.613654 -32.539790 -576.336146 -1091.860438 4.380965
discover -34.449505 20.688304 -13.184745 10.054772 26.922819 13.494349 -3.100917 22.571816 52.964090 -24.027030 9.825419 25.755381 3.806528 -13.560223 -73.667791 -55.057936 -86.376640 -9.544796 40.963301 1.321361 -42.066566 -11.408942 52.464329 51.124455 -15.104597 -24.671000 -37.100629 1.782860 8.682073 10.220389 -30.040321 -20.605974 -75.356740 -21.853796 -5.165206 -18.259475 -0.845927 11.412288 -21.920379 -14.970676 -31.639648 -5.248541 22.062385 26.955521 -0.530739 -14.951090 21.834535 -23.096749 -96.676082 -39.749633
it 765.739222 442.839545 380.285160 -472.331426 94.981332 261.883731 -354.825026 174.822562 -60.954380 -981.577394 -248.875136 -197.033865 354.376395 -76.990769 703.670731 1873.098622 637.925868 454.376264 -115.424464 412.461715 100.393164 350.378111 -214.965434 -503.293298 167.511205 -519.621016 -180.942505 114.998992 18.638452 834.808449 59.937453 399.536162 -26.430087 335.494975 385.435982 297.291806 887.924750 800.375873 463.660485 -128.714794 172.956504 1004.905926 -259.143799 509.101784 239.709175 719.124523 157.811283 963.564601 -224.095563 227.320450
think -767.230402 488.366483 911.306865 515.614352 567.247652 -648.242823 -62.953602 1059.481407 992.969902 -911.077958 -7.305448 246.820057 220.528499 76.683125 -1731.464229 -1398.767027 -1759.066015 -357.476376 125.323406 -458.539652 -1316.896856 233.834944 1631.138571 1304.616813 -745.565122 -732.554139 515.708134 -628.139230 1192.879580 -524.761217 -166.920658 -509.800981 -1714.183730 -102.151901 -1622.725143 -48.983584 843.795551 1003.364736 -1409.524762 -188.698435 -449.701140 -124.953652 881.360761 -46.992601 148.679473 -91.887667 -110.182683 -1205.432920 -2547.236869 60.923822
could -102.449289 213.837592 -712.475063 23.064770 -229.630762 -141.982907 -41.196842 -763.211199 -182.719339 1212.465286 239.052163 -415.275506 -35.945378 413.962019 345.881659 -220.767888 313.172848 208.754041 -388.875608 -451.028978 134.755549 -197.317267 -1152.027824 -51.732830 -46.255348 581.718372 308.610186 -273.593850 -272.410270 283.685740 596.932989 898.171864 874.375501 -666.338259 904.691925 433.572147 -372.558754 -523.350940 255.780317 267.505944 345.860316 -425.525613 -768.136912 -386.163928 -847.578313 109.893018 273.798301 48.491990 1431.311051 -64.649187
bear 495.719916 -109.708188 -364.836228 -542.673966 -532.712077 -96.466604 144.658832 -363.377955 -808.651535 315.349195 264.841091 76.756911 -131.203306 -53.390910 1181.589970 1300.850110 1139.961281 221.778734 -42.466156 476.396565 684.986647 -283.044419 -875.933250 -728.418576 40.003019 299.478696 -204.644446 277.134587 -478.920709 472.938874 84.474739 515.802831 966.893559 -200.737132 988.937091 282.686846 -555.711344 -553.931816 721.582150 -3.481093 297.985294 97.189246 -784.334282 -335.815385 -499.122948 246.409561 -40.872830 688.729026 1562.699784 200.304557
if -1323.587056 382.573277 787.210281 736.310989 880.931239 -397.980678 86.637307 -101.280251 746.155243 -160.876667 -670.817547 -643.179077 -332.427936 284.995255 -1287.424499 -1501.407823 -1587.768972 -729.236314 -435.430772 -1101.143050 -350.939951 953.613902 449.974766 607.509590 -132.238794 -686.683960 975.293158 -839.317683 573.666614 -333.121461 -103.420455 -1019.282731 -1392.316319 483.103284 -1406.608286 416.504340 510.606400 376.721275 -1318.448466 408.156689 28.817550 -28.437188 1081.728841 562.195596 135.382791 383.851344 343.793814 -903.805436 -1847.666698 830.620307
anyone -113.000536 -169.549231 -453.147233 -474.290772 -343.870529 64.139302 21.612487 -21.455223 -646.904056 207.041605 432.013073 -119.311581 -209.002063 -311.126477 724.933230 575.110933 517.255377 388.012909 -324.071445 52.674580 158.382718 56.268221 -292.265038 -309.694573 20.944229 208.656848 -24.845260 -54.931101 -347.890291 347.200789 -48.972295 120.248488 234.743862 -477.660506 425.702714 -53.318877 84.039686 -390.064725 459.690142 259.959556 -60.360280 -479.645799 -436.569324 -148.740549 -180.535390 -123.034891 195.481149 61.553961 865.846462 116.193481
found -162.691963 607.765199 946.136484 481.013448 -71.659585 -271.971300 379.170252 417.121935 437.588431 -200.032961 -157.900069 328.723784 58.409000 -84.407226 -1348.852840 -274.906284 -885.000601 -326.948120 445.988302 -308.532016 -128.376039 258.973637 566.435415 234.823308 -374.991055 -394.454393 68.937948 -34.927621 48.501484 -48.075489 -268.496428 -16.561303 -360.827482 432.064776 -310.442890 558.665071 854.622383 -462.189723 -605.095698 -7.126488 -254.778522 -226.910240 278.540879 -124.211517 91.388335 14.853760 -133.824108 -55.810581 -1122.999929 -268.435158
out -62.182948 -28.177207 1733.370204 1321.596681 407.989605 -153.563814 -71.819953 -407.796254 1406.339381 -1449.062889 -751.197842 656.319672 -787.848444 -204.197270 -1907.622930 -2100.442606 -1765.985437 -550.219419 239.502071 -53.244405 -799.452113 134.142936 1273.458352 1380.799480 -249.656867 -150.348908 69.548789 -466.374933 282.873806 -522.695296 1154.495900 120.447628 -1900.202201 343.929121 -279.565773 751.905883 1071.553230 1091.522398 -1768.711723 -236.919948 280.811778 682.368127 1316.754016 299.766571 305.591456 -6.813693 -279.403402 -1153.103367 -2875.757704 -201.783870
about 15.993346 928.453575 1440.904122 396.733968 -93.040179 76.296984 -266.606550 959.035986 1653.631267 -236.843183 524.015752 -136.038175 98.460035 276.336892 -1170.925975 -156.235761 -1250.122637 -129.671351 -617.859557 -435.520668 -747.324240 326.912569 2011.689746 809.766046 -1163.079145 -216.904681 1104.186350 172.299262 283.803405 271.035112 -528.566140 -686.146814 -514.569530 -202.292928 -1205.495395 -462.270914 893.156108 1899.390976 -774.358408 -682.649523 -906.851383 768.802778 980.158220 484.758833 615.957418 -116.361245 258.173086 -1027.175558 -2175.005765 142.939000
Potters 17.271743 73.375552 -118.266855 -32.169234 -36.438627 35.083288 36.026747 90.105082 23.141111 164.980415 98.485270 20.855081 -45.605672 -84.016110 -52.222576 194.569654 -33.381188 -70.894472 97.026906 37.466170 105.470463 -20.655648 -87.037081 -215.342570 45.651173 61.600063 -112.845423 151.244579 -227.256833 -9.119756 34.777745 19.133337 109.797020 6.405654 -51.283019 -24.595285 1.132315 -38.947128 -7.268021 -112.040863 84.640632 74.053663 -119.434820 -48.124859 -5.344025 -112.031217 43.552292 47.006978 -1.822680 -40.105028
sister 399.961776 38.682976 -449.968234 -183.182983 -266.303253 13.405433 -107.261108 -266.728380 -528.983818 300.614914 136.026807 35.020111 -29.497128 -104.758268 730.288652 793.080924 748.228009 301.968710 26.242269 284.087581 475.007989 49.972444 -460.215427 -586.873392 94.840670 348.086913 -111.664601 259.794988 -386.655862 253.836944 29.647177 310.389341 807.935684 -54.762572 790.075100 278.955189 -381.717470 -341.622196 569.378601 128.287974 235.651791 -40.845071 -455.666439 -135.504450 -66.692018 48.831610 24.818457 486.426160 1081.927975 77.595008
hadnt -344.210864 -372.865415 654.668115 283.047269 169.377471 -12.213843 168.529562 106.349352 538.754781 -649.853510 63.196386 -196.746966 383.797491 19.223671 -931.099976 -1233.529555 -635.830480 -386.150645 68.934137 176.915741 -658.248719 -56.028703 1125.038914 347.158749 83.754527 -51.324783 18.057339 -163.971879 591.442173 -493.579374 -202.021483 -346.024580 -677.606699 290.549231 -518.833553 -163.965957 -16.848481 403.346691 -733.442027 -412.956766 -234.630189 -237.674065 767.835531 276.128260 189.624250 -203.838133 -187.206196 -842.385024 -1636.441973 -265.466229
met -128.542474 -56.968346 502.869206 402.058966 636.000612 459.394814 185.100881 235.906476 497.674683 -224.981776 -347.516443 346.075495 399.898789 36.917713 -1191.608098 -753.623750 -768.207001 -377.524444 36.768855 -386.424096 -527.488550 216.081862 855.075381 692.350965 -223.911245 -240.853182 189.484626 -28.711548 347.886557 -524.023797 -162.002397 -366.808956 -740.846449 -53.876327 -1059.980843 -145.875804 798.565638 297.697189 -425.593273 -340.683484 -358.841983 -133.227762 694.595556 352.458842 370.158137 -237.552193 -10.945577 -248.203522 -1080.250076 -132.298910
for -1036.192588 -90.757929 1482.784155 926.270039 1106.601201 152.177679 301.540609 852.686877 2185.942592 -412.162434 -908.873301 -118.508956 402.420845 -314.270256 -2769.410552 -2461.093399 -1722.692807 -893.222534 -286.794506 -1135.158343 -1173.851645 896.899942 1068.923718 1046.361828 270.994577 -199.410987 611.356030 -390.978523 1750.830529 -633.609141 -73.740389 420.787662 -1713.319554 196.980272 -2508.657133 286.584333 944.945428 1611.144776 -1321.255854 -410.371820 -1742.792052 -41.065473 1158.863854 -243.741188 360.536465 12.243724 38.672671 -1496.648161 -3126.779474 -160.228415
several 275.436265 138.464212 -362.637175 -129.774496 -123.706139 237.977308 -31.442575 -36.883883 -294.966688 -7.593310 -80.919543 -14.202263 67.494981 -121.458938 198.906745 332.254179 234.572010 32.629061 -64.960154 333.856418 208.980521 117.757920 -147.794424 -289.251322 205.139921 -23.420942 -172.802438 179.562376 -213.663725 29.547937 -53.409505 115.628686 -24.482701 25.405205 348.740520 126.805200 -20.811057 25.182452 196.300759 220.803899 372.385397 95.992886 -154.395498 170.750895 -47.943756 205.272092 264.239683 354.450111 435.883078 -23.614904
years -43.632684 144.733897 158.532447 -121.606252 -32.614158 -15.759760 275.835788 -24.128650 -449.584410 87.955591 211.878864 120.335333 326.611100 -30.234884 102.964774 98.902792 217.481552 -156.539010 -415.347481 531.180294 116.952843 31.673487 -208.290458 -137.451117 212.652048 326.129284 203.195315 12.420335 137.616176 51.152899 -381.465531 -70.856814 293.212857 182.522740 -65.211912 75.001097 -393.463582 153.041258 19.900554 -158.455271 -6.871027 -288.758671 -296.952383 61.113748 109.302791 310.298060 -296.933738 415.692154 136.075522 374.017701
fact 467.015982 12.078731 -47.482319 -475.202252 -399.749022 148.547612 131.163780 -75.041609 -528.877979 158.379636 427.060372 149.093125 -202.498757 83.276517 613.973127 912.943988 780.660792 215.953869 -57.462889 539.573418 360.940317 -318.053807 -476.779437 -477.165492 13.312777 132.186065 -172.534146 343.428804 -248.920487 233.606303 32.180280 81.616779 749.633669 -62.208369 430.808023 -19.185162 -210.307925 -401.793702 624.167596 102.047567 173.724657 70.149713 -648.600239 -40.417006 -2.753854 -56.991810 -121.550573 778.512653 1006.720136 179.366233
pretended -82.203548 29.089362 78.630227 50.569130 133.352046 -0.809992 -32.170860 49.346914 106.387478 -55.353872 -34.378289 -7.610484 2.516562 -23.336744 -198.273763 -178.659794 -190.255464 -44.035250 7.121268 -50.308214 -88.865227 26.413199 136.802748 126.612492 -19.002899 -43.532743 32.542816 -34.992298 20.836509 -26.228634 -50.315482 -68.381774 -145.403285 -9.039851 -76.662867 0.441411 115.552462 51.347431 -111.009999 -57.292918 -0.331158 7.553555 106.242658 58.943264 60.035778 -44.587581 21.903009 -97.454786 -257.080188 -34.370211
goodfornothing -128.744239 44.720872 173.807164 185.189541 243.813823 48.258492 -36.550357 197.329434 270.635126 -143.117592 -107.159688 37.434921 56.734060 -105.366853 -512.768113 -436.702568 -473.391081 -142.185141 31.138720 -123.708734 -239.943331 113.167963 394.706822 255.561197 -42.415629 -174.269368 63.538048 -139.788669 95.616850 -205.124385 -43.295144 -137.541277 -384.971503 73.914555 -372.306413 20.791606 265.655936 218.964028 -326.141805 -73.603008 -89.783467 -22.143047 340.671116 122.514125 215.484798 -121.057978 70.458781 -255.298679 -623.532118 -2.679913
husband -153.991275 3.757659 233.319857 201.182010 280.544250 71.642980 -28.067639 260.013375 349.526511 -168.853015 -107.328906 60.273837 62.992126 -124.919058 -632.538092 -560.217302 -595.375803 -182.557253 15.042226 -190.301038 -309.598514 138.355320 479.730862 306.389319 -45.503741 -201.341228 76.064641 -180.369583 116.408304 -281.200875 -57.617529 -170.577373 -500.035172 127.061491 -499.182599 -10.868321 349.912695 269.586357 -454.085870 -81.822207 -147.450562 -57.561944 446.838537 129.656562 254.747972 -159.077208 70.059774 -343.250824 -809.087210 -9.409326
unDursleyish -0.667095 2.764604 -21.208779 -70.445962 -39.010095 -16.570653 11.375339 -38.372361 -47.256393 23.581435 47.966438 -6.112008 -10.668688 -1.219068 86.066274 87.047843 55.700865 25.596919 -5.586524 28.686252 44.749399 -30.278678 -68.451293 -52.094521 2.399494 24.443831 -20.852545 41.071887 -61.532606 64.820773 -5.741850 35.612209 56.374079 -23.194915 92.233549 -13.365893 -42.006505 -36.095871 78.420029 -5.779396 11.298269 31.697172 -79.336561 -18.690478 -58.762602 16.084421 7.923506 53.812487 100.428157 -23.292320
possible -153.612402 -152.375296 362.228266 332.103544 341.854894 102.563935 -18.573873 343.335760 487.956734 -320.271795 -150.704189 -73.865006 78.895458 -175.371990 -780.489829 -809.662957 -862.984772 -101.887907 79.399674 -305.320681 -430.295099 225.630976 710.321908 378.912468 -67.990179 -220.660317 274.612517 -150.569119 258.924689 -231.480314 39.416372 -284.264417 -733.621157 154.410511 -659.702598 -104.057906 544.698655 375.189495 -687.345434 4.921581 -239.688974 -174.364694 602.690596 145.549575 132.002460 -177.362002 32.203312 -456.920047 -1232.445430 29.161627
shuddered 170.194562 10.814574 -120.999877 -96.496641 -86.966017 -47.413559 34.734917 -97.599952 -220.037493 47.742848 125.110433 45.492325 -54.209803 3.948705 321.510380 318.265724 255.484729 8.378790 6.943718 136.890165 184.752206 -103.720129 -266.773382 -116.069861 24.368881 76.029107 -67.307119 29.478946 -118.599407 69.954067 -29.248962 153.214877 237.923856 -26.610723 263.271983 155.474746 -116.865565 -175.998420 196.761883 54.638571 35.258756 24.378833 -186.705841 -105.380804 -124.523789 33.698623 18.380284 171.384106 439.589687 111.182435
what -272.342579 405.420616 -1107.425667 847.806345 -268.196525 452.513996 -117.580622 792.696595 431.560448 34.133135 -106.949756 -7.453412 250.437180 -166.651599 -1645.969986 -650.975722 -562.171248 -564.484150 813.288433 -1283.730058 -550.886626 378.038763 488.309559 140.754668 178.334513 398.226809 297.857980 65.565578 341.434029 -314.932837 -510.546266 -126.697569 574.687277 -85.840643 -138.396190 63.102038 453.955344 -307.941230 -64.248011 214.604983 609.121007 -968.121658 -534.846053 288.790343 49.606747 -748.087779 135.210062 160.059155 -645.496382 -588.751010
arrived -430.396752 -161.196742 401.990450 164.560523 299.923079 -17.198720 95.687389 550.644558 705.193779 -519.683139 -251.687957 213.457439 -132.240201 -220.908943 -987.753996 -1184.965178 -1260.996091 -186.029685 108.054421 -490.298597 -416.713894 43.487686 922.493503 591.032040 -131.769196 -470.086487 -19.082020 -240.374068 205.405713 -409.494813 0.913057 -496.729683 -762.670869 69.414438 -831.402636 -162.582297 487.823118 569.823756 -844.058733 -287.323206 -234.846094 -142.323998 701.777026 293.063688 365.333392 -278.568528 101.826412 -875.053850 -1759.094960 -50.143749
street -121.926039 55.929217 69.326824 124.007455 119.354780 -16.712115 -72.015822 37.108635 111.148561 -67.765267 -48.926539 12.213469 -1.482577 -80.673543 -287.894617 -245.949011 -236.828770 -107.766546 -20.054935 -156.484195 -205.404284 96.118986 131.291526 157.747043 48.821605 -9.475761 70.092589 -163.661115 93.653898 -103.150640 -87.312765 -23.148791 -189.852207 72.448551 -139.997998 44.646791 24.254621 3.745833 -179.916765 98.332237 -68.123451 -27.929657 243.991005 60.163172 53.872064 23.884672 69.058735 -232.034225 -228.924382 120.191443
knew -88.565824 209.195096 690.375745 343.339337 270.553561 -223.281270 -217.397593 -573.430966 568.386928 -12.732031 -58.545033 1.085463 393.061648 -122.583252 -256.715435 -314.084885 -69.384312 148.123692 -30.809216 -24.867281 35.840720 2.868970 580.924755 76.461869 -41.447151 165.855796 521.566236 285.825554 -445.616009 -130.526305 329.954648 241.046005 157.916059 360.416429 154.312669 147.271434 338.044807 746.518459 -508.368674 48.417412 -310.662819 -130.797054 515.511355 -62.065794 604.719247 -21.415646 -66.647390 -254.753746 -84.069040 -212.233956
too 94.644971 52.157630 -114.152924 191.488737 -40.272397 109.191073 -103.552472 181.083299 64.657542 -102.453744 -323.904097 230.556899 278.650330 407.846066 -66.634695 164.459239 298.399672 560.256247 -320.972932 458.012536 -79.121751 -150.731311 577.431337 269.542698 -198.571099 -561.235108 110.007466 -397.998184 416.319002 333.404832 173.741384 -7.861013 -88.504055 -184.001181 128.430474 -159.184691 62.595233 438.562271 191.199485 187.786713 -339.833875 535.615623 135.237678 80.363638 46.522671 259.582264 -100.038918 161.633405 -18.930057 -99.236888
never 25.878234 -2.972612 -536.984471 -22.201588 -719.997493 -242.939239 -442.382723 -403.943838 -368.502630 -62.624949 -33.779192 -69.227262 -261.167421 -349.826571 1088.781131 935.893938 466.586804 711.083567 437.170930 297.352567 537.722556 201.048072 -381.242722 -483.123650 -651.850815 16.709837 156.685898 344.106169 -987.985443 759.260616 352.335113 667.718288 778.660728 -136.638531 952.119771 -684.414513 -112.710536 -191.048521 294.235974 -111.665649 429.094147 -423.330224 -404.184323 76.859024 194.788951 479.333843 -371.712157 -83.980982 590.048281 463.045477
even -1449.186932 339.882398 1263.894333 1481.962645 928.385191 274.675216 76.203055 1521.310788 1612.584992 -991.310097 -336.736353 161.158242 -546.679620 -82.471397 -3011.380243 -2138.737241 -2756.383868 -1047.116148 369.550630 -681.624103 -1587.990403 557.617978 1609.113398 1819.289050 -678.654641 -646.688391 349.535568 -1278.406758 1524.731502 -962.850791 -234.543425 -1156.992066 -2015.674786 30.434052 -2441.337325 -47.461727 1438.632852 1025.477578 -2031.919564 -420.387499 -707.482437 -523.155388 1785.539185 381.181720 691.358852 -709.645922 308.680029 -1916.571961 -4045.944151 216.794953
seen -934.715213 146.480606 1207.153673 770.560436 870.916077 -39.381163 94.570411 915.232502 1516.810368 -1260.042594 -340.678929 -79.208327 -200.580570 122.973770 -2428.817502 -2421.487354 -2399.490210 -784.861086 188.584957 -834.792175 -1568.954450 271.028821 1888.279798 1265.989740 -729.551517 -899.810791 105.652956 -775.217941 1285.517003 -1132.677603 66.394439 -909.663495 -2503.781215 433.370481 -2480.129784 -738.718911 1302.146730 1085.573788 -1707.428010 -446.759236 -511.701513 162.519786 1841.351262 508.164649 577.146524 -243.599315 20.004253 -1333.740712 -3238.911760 -626.671723
him -1031.137231 -129.474418 249.888036 890.122494 898.936100 -357.506498 107.260594 264.249986 1495.333531 -523.800892 -1109.929002 73.321553 -83.643813 18.599937 -2021.057005 -1981.168036 -1567.356618 -374.189115 569.667222 -609.760826 -1024.898005 233.328536 1558.838605 1281.053111 -435.576707 -720.062165 -604.603832 -101.657320 942.321064 -983.696603 -204.136956 -703.742793 -2284.055202 -80.745674 -1860.114240 -255.640251 666.915658 2148.022245 -1734.616749 -183.071815 -726.869586 120.476082 1807.497772 488.206681 613.496250 250.691451 -367.761273 -1751.966208 -2727.877157 124.053183
This -218.793944 -59.243739 217.519342 -21.457240 -14.649099 -77.371023 123.202763 206.363820 101.585213 34.603290 179.644512 148.861828 -12.780564 -31.507731 19.297503 -487.981216 -243.801830 84.713646 -411.822607 -423.102289 17.517081 141.985094 47.091700 96.043886 70.992298 289.032525 29.564346 -243.114077 68.840522 -183.571499 -136.215446 -69.541303 -20.244932 -265.807646 -385.784243 25.004642 -255.324999 39.617336 -153.395717 -237.064759 -429.993387 -179.913677 17.011908 -69.260492 49.457392 -295.500178 -42.941869 -318.103758 -395.151967 287.571066
another -502.038961 -74.764675 97.241079 322.312259 414.187245 -37.650671 -224.915140 -20.712112 494.363634 -481.588482 -492.298487 -271.491508 139.983234 -442.144515 -661.627094 -882.590646 -752.693971 60.042105 -56.894985 -115.199125 -443.686690 696.913956 797.124439 227.912067 -186.816035 -465.864798 223.110767 137.331849 374.608225 -326.690347 27.903501 -254.745399 -1097.190313 56.145939 -978.236181 -350.328568 329.589593 822.118151 -890.123685 182.585788 -83.563633 129.332643 920.189586 438.180784 272.726334 392.532094 159.334785 -828.518538 -1329.027979 19.099826
good -780.020857 348.467894 587.378100 980.073623 941.121371 151.230224 -398.161998 714.644860 1791.145179 -391.481518 -32.541060 187.964320 -431.824553 196.319045 -2069.801083 -1963.044502 -2355.418564 -714.128076 329.618353 -923.093354 -1369.417150 494.667208 1624.792324 1576.192660 -139.385572 -967.552505 83.422456 -482.113867 919.558008 -404.262918 -111.816130 -752.196441 -1793.133529 -126.375656 -1507.698195 -316.592726 1087.535471 1212.982930 -1212.901795 -329.999807 -616.105412 491.099680 1105.394780 333.379843 227.263031 -511.760448 183.323693 -1557.941844 -2683.151954 -726.285571
reason -42.990371 -227.536574 25.054441 -242.235339 -209.092347 -56.410053 356.854781 -211.076015 -471.485589 -121.114293 139.118865 68.562496 159.878997 -110.125966 177.935629 69.006444 64.942118 42.360563 102.308297 297.053855 214.268874 -205.658312 -148.299281 56.280269 -8.135249 -143.570211 -242.007129 335.000406 -188.351314 -37.102595 -196.261591 53.658064 9.586091 -40.973757 296.363934 -302.310086 204.991147 -241.864249 258.374034 -175.170324 97.467640 59.783950 -189.891021 85.757483 45.252273 28.800975 -91.300918 95.322078 -175.311000 -95.403473
keeping -47.072221 -201.692453 345.012244 253.378556 437.581227 39.898187 -269.549213 384.002373 570.601465 -284.028845 -177.216477 107.754267 268.250887 -96.015955 -1006.285501 -996.647536 -1006.475735 -137.745829 226.711307 -542.631842 -656.307464 158.352637 832.676286 583.514340 -72.061206 -420.068516 390.122270 -393.583638 170.574319 -395.238303 32.597662 27.491780 -813.254348 117.282513 -564.187760 -4.878587 529.271232 429.557472 -672.663658 -13.602571 -156.337460 -181.143421 743.015277 190.607689 221.295738 -315.821021 18.297176 -731.125758 -1030.385903 -157.931609
away -997.275358 -72.116755 1045.840394 1037.112268 735.435654 -541.281264 -37.380275 473.765732 1107.445229 -364.679998 -775.966452 131.796803 -102.445553 434.523214 -1616.976913 -1885.768186 -1378.084012 -344.989029 42.229736 -844.582374 -688.319763 695.594452 1150.077716 1140.282223 75.696554 -117.809634 381.251749 -350.812000 897.520751 -649.770362 -222.170730 -848.231974 -1514.990647 83.434461 -1389.233456 143.050278 430.485414 679.473154 -1262.351215 -44.232656 -433.176493 -293.013624 1116.154778 285.106587 420.018095 91.536557 -303.494588 -1341.180566 -3011.354056 605.318926
want -176.799060 310.760303 583.094909 516.603247 283.503917 -208.717755 127.951290 361.118014 867.839669 -229.215678 78.730035 102.130202 -386.200130 254.691472 -569.438611 -287.780687 -524.678029 -327.724069 149.662748 213.409337 -129.369411 69.256041 35.318126 711.610067 -286.890924 -195.934954 -451.706228 200.998876 244.677409 -618.458031 -110.334514 -296.475146 -471.904524 -16.979410 -654.308637 -164.178414 273.236698 -464.550218 -152.455701 98.792514 -136.748322 547.164345 266.762917 18.575396 -28.379378 -25.776985 183.723963 -751.081116 -1148.579187 6.433462
mixing -5.081827 -7.211207 -55.878516 -94.607024 -31.976506 1.928562 6.523452 -44.276643 -33.888594 11.629545 57.331701 15.508976 -17.951370 -82.630169 102.078732 75.081663 65.152857 23.080916 -1.098064 -17.634608 35.230250 -11.993095 -69.782181 -75.118695 53.774164 29.333960 -23.265345 1.424549 -47.888243 49.718749 -35.981441 59.025453 5.706979 -44.567895 55.953019 -1.214509 -4.060062 -54.456593 67.814645 41.388980 -55.426712 46.316847 -61.501550 -37.084389 -38.421280 -24.961686 31.189755 35.759373 148.412685 -34.176700
child -124.901630 -10.863379 205.744182 155.356427 193.645980 48.839943 -20.770450 184.653325 309.680727 -140.839115 -85.462601 104.200065 41.377283 -81.436876 -432.658526 -397.773138 -430.316283 -128.189310 7.337759 -178.167224 -222.502366 99.745454 411.519964 226.107871 24.795104 -87.082257 86.838069 -137.565550 89.188461 -160.286202 -29.484551 -120.786768 -380.660942 71.369949 -363.291503 -1.947409 225.225056 185.894178 -335.330892 -47.160531 -141.588399 -12.415236 336.081438 98.193346 150.767619 -95.801945 56.336168 -268.666239 -578.502009 -32.397521
like -178.994411 -71.182035 -312.857467 387.854485 -144.409980 501.513519 80.725172 -55.643411 805.420590 791.836190 -205.227325 -587.327322 -757.187072 -228.315440 -823.118518 -785.170572 -572.072699 284.880461 -52.741802 -19.228374 -262.310092 -372.566593 372.354040 -265.786155 498.746639 229.255194 -69.258324 126.502899 -203.827218 -118.104809 739.664432 -139.006145 -396.789731 75.866862 179.009851 -27.003998 218.517685 522.543041 547.511005 102.641958 -112.169911 204.801483 16.378846 551.704579 -60.468473 -509.193015 1154.317426 -796.664248 147.276573 -358.621099
When -220.611514 329.405293 536.020956 467.536726 438.194396 181.075098 -200.091920 485.007517 764.967478 -256.583460 -146.099042 265.693833 -156.715799 -114.588903 -701.062393 -746.136839 -758.441982 223.036968 -193.841365 -363.523571 -264.223708 534.456294 734.933574 304.399805 -44.017075 -235.279716 19.258626 -17.140928 501.432507 -314.711626 215.843152 -351.448698 -467.202416 -23.637550 -773.857238 -118.181396 482.880660 160.520748 -703.768454 177.169727 -274.691968 -11.070975 161.550709 163.059664 443.507126 -394.467213 -65.101021 -585.418971 -1388.752120 152.523355
woke -234.643693 84.134645 215.200618 317.356569 344.065440 94.043239 -105.190315 163.901841 340.857730 -152.472494 -135.878500 162.579274 8.267848 1.705008 -696.457527 -628.353182 -757.358684 -180.415023 221.544456 -289.303682 -412.190419 157.014309 511.355584 426.383151 -129.375054 -195.897646 -61.594943 -298.031211 182.791270 -282.900624 -88.660731 -253.200111 -571.857398 144.376424 -283.080300 61.129280 369.408270 258.994068 -312.350281 -17.191015 -77.134109 111.683964 393.789919 202.017724 154.767463 -297.705751 101.206539 -338.954181 -752.362945 -217.102673
up -534.950169 509.448183 1087.660366 445.774338 -533.049406 16.149184 285.147762 -578.365094 -136.851601 624.431526 211.897090 435.918502 -379.604742 585.580469 -340.212110 104.313490 261.519519 323.161601 -145.755793 -59.612776 -86.342157 215.246649 141.760158 -386.925488 -76.457226 242.309851 45.888268 267.212761 538.351301 -535.221283 361.368418 -322.641145 -78.409540 545.917320 -95.590838 -941.731862 242.475599 19.254207 454.350077 568.731800 -469.291915 460.434229 208.540176 193.245398 287.074590 -73.362932 -618.996813 -460.220163 -111.426498 -422.135138
dull 177.996317 22.890421 -195.135522 -78.456809 -41.040396 27.654449 -41.697587 -72.272944 -188.371680 224.164447 31.292588 43.083604 -38.671122 -20.925707 209.117281 339.949848 252.113317 95.144267 -5.291724 106.074425 140.455481 -58.627990 -241.826084 -207.498285 87.951550 122.200341 -38.961689 70.421062 -107.816286 49.813201 -18.684848 177.124586 278.117408 -56.202082 309.593032 90.427411 -160.822268 -138.751983 300.568524 20.019384 104.277261 58.564533 -184.601073 -48.622733 -134.959189 5.918039 55.036442 207.568354 460.828459 -7.593148
gray 27.209630 72.828366 0.912520 107.654290 -16.627887 -65.726698 34.277746 57.516692 91.069676 -6.607933 135.701792 32.055557 20.374134 -55.504687 -141.216118 -54.580216 -114.987807 20.626503 153.894631 -24.411453 -1.146993 -17.775906 133.615656 -33.970186 -29.426684 -15.942608 -122.150636 -53.907071 2.597554 -40.676096 -20.526329 32.096007 59.070223 38.122881 26.411711 74.624375 93.410101 147.805860 -40.227185 -52.516556 -0.543961 6.838449 -67.687581 -109.932448 -15.408133 -141.936982 15.283362 140.755437 -63.296579 -114.186418
Tuesday -1.248691 15.037312 14.041398 -13.938186 -5.521023 -82.205219 -16.696624 21.660964 -3.520896 -19.296389 16.739389 -41.821721 -11.607223 -0.974813 -86.773982 -40.507740 -57.357308 36.070567 16.879649 -21.375844 2.870799 39.581200 61.526240 29.052552 11.964847 -8.582314 -81.610355 24.185271 -20.965535 -54.618292 -34.698453 -31.564855 -62.922570 37.347382 -3.122622 -9.265428 45.801187 9.421802 29.046141 1.521487 -5.334737 18.554739 29.340009 -10.734885 22.273361 -19.620387 -5.867308 -46.659964 -67.213097 -37.503521
our 796.627461 -102.067804 -346.239621 -23.157372 -294.925795 -107.712785 -217.006792 -352.388524 -76.128635 -88.478035 311.390044 -318.597394 -448.293963 -744.283813 371.269320 414.291850 -82.878790 591.955975 258.419310 321.005566 340.443252 -125.208366 -276.183898 -338.850722 159.432674 -55.797979 -908.871731 20.985157 -495.398753 188.992657 -55.618319 312.262359 79.230780 42.754746 1035.481343 245.022892 -186.499070 -161.121493 299.210630 164.339638 0.217463 606.596125 -93.503156 -348.223781 -377.520715 -232.829758 -140.264681 74.399246 96.716618 -286.087952
story -595.059205 -79.092123 789.605869 635.702834 717.869367 -96.484665 -51.090898 610.101781 1120.109625 -543.672151 -404.912450 -3.591200 225.025925 -189.852708 -1882.985892 -1514.029816 -1752.612525 -393.988450 210.265427 -564.105584 -1087.752727 268.019088 1342.887123 849.125536 -25.208379 -242.218032 588.467214 -496.308944 771.529027 -690.676987 33.258478 -632.499249 -1270.997677 371.810579 -1589.215728 90.499274 816.551652 992.363467 -1299.838218 -327.668888 -543.431676 -224.501678 1290.718664 357.994764 652.146351 -239.854908 45.131499 -842.952311 -2433.918840 -1.514317
starts -642.955178 59.038858 536.601261 536.301116 527.635646 -84.869138 -64.048623 483.277161 920.758733 -445.374833 -353.092633 -97.071076 -7.257855 132.562930 -1294.045318 -1400.964133 -1308.637136 -360.758539 38.327404 -651.763655 -722.524445 322.425883 913.442361 942.700119 -191.364545 -384.179833 205.176716 -443.675576 571.861347 -385.705197 -124.710004 -573.441155 -1262.954978 90.434279 -1149.349524 -176.084332 704.796610 768.508493 -869.817245 -198.038490 -390.108632 -21.754876 877.951760 192.552392 373.093304 -135.214892 82.972242 -773.159854 -1932.174252 -65.554413
nothing -430.144957 336.852973 323.906368 268.324870 652.970820 -317.556134 -162.987012 481.865769 361.829839 -218.639672 -39.050864 -95.167259 -134.915721 -50.284273 -999.621975 -579.754990 -772.914272 -341.143013 97.066489 -37.265142 -535.608115 122.364326 486.633377 350.141486 122.583975 -120.565106 -209.917700 -245.198762 463.873331 -385.552311 -51.248367 -310.568886 -692.125641 463.394064 -900.777288 -231.344346 404.433078 424.175179 -573.171532 -581.298119 -155.886859 289.205853 465.742394 -211.807789 292.043649 -117.027312 -93.829911 -274.004317 -939.460174 -423.546064
cloudy -116.608688 45.185043 -122.757005 93.435060 108.253204 136.976767 -57.285754 188.255985 194.839928 -110.519690 -23.078383 -16.164061 -7.628187 -22.451356 -185.911249 -258.753455 -178.022320 -102.099519 8.080387 -198.922866 -62.548907 89.696826 165.340401 164.790797 -26.058971 -71.862906 -48.565007 -200.243772 -19.894872 -139.414153 -137.277689 -127.576919 -223.358626 -30.652133 -235.680416 0.546428 157.551181 179.431712 -113.221630 35.948212 -54.355240 -58.387186 146.709119 30.332161 109.006037 -57.819511 167.966882 -27.173139 -188.707227 -68.618300
sky -581.379290 -0.211628 719.998931 737.232027 619.093352 145.606762 -51.861930 519.175574 1136.044947 -387.920018 -457.798941 134.330109 109.810164 131.731152 -1683.164582 -1596.404568 -1699.299333 -413.484299 193.408507 -489.278162 -876.367366 470.751870 1168.878311 960.352478 -110.734567 -720.877795 145.290453 -411.411970 595.967340 -607.208051 -52.992996 -729.041741 -1601.347066 209.881145 -1438.088985 -25.577137 996.672151 842.439391 -1176.959671 -117.534256 -369.212081 -70.302616 1033.956242 521.224369 682.104533 -418.418242 90.467175 -1069.172354 -2512.546766 -74.240552
outside -9.551177 213.595404 -37.774618 98.662052 119.862372 9.423173 -71.967623 -32.509390 -104.516514 276.446921 161.070077 -108.106421 68.942825 -88.734021 1.521323 -200.795667 108.547208 54.011856 -340.182518 -128.846491 19.822424 53.987822 -62.970868 -181.153392 171.296752 111.092977 109.924095 -82.266398 -153.840176 94.927522 -222.329745 117.555947 286.587167 96.711038 481.401841 94.248545 -76.762057 -149.408548 29.633837 2.712303 13.336153 -260.432240 -289.571053 -113.689276 91.144948 -334.494290 137.616770 -2.938250 90.528591 83.187240
suggest -604.081146 -22.692583 575.633997 674.903841 696.530790 78.356842 -129.638683 730.119788 1036.343914 -562.402377 -381.373215 7.663087 205.016921 -16.884316 -1802.845435 -1713.010059 -1761.421125 -410.191939 65.684279 -606.977386 -1026.718008 351.647898 1392.111141 1136.695944 -187.597701 -652.728748 301.498560 -594.929048 559.249880 -680.246567 -102.620862 -727.946238 -1639.126491 229.914482 -1468.135098 -226.205165 1008.673519 1075.613549 -1254.518152 -159.853245 -436.831413 -68.053660 1363.516632 429.520604 679.206177 -317.089066 126.371664 -960.583742 -2481.007378 -118.397904
things 98.110841 352.266101 620.867855 386.156040 48.772154 14.445564 146.872257 -318.850917 256.848549 500.385391 143.447996 289.579857 -211.219116 254.551043 -34.627693 149.127592 71.329219 -247.531660 -125.955985 246.321390 273.417629 142.280978 -293.757882 160.655248 -248.899995 24.232950 182.756187 203.141653 68.803338 -263.411045 -137.557034 282.788452 -81.351603 -178.339681 295.939066 374.945427 -87.641581 -38.747304 170.007465 227.048738 -174.581038 645.289972 -62.647833 10.527764 -280.558569 -261.370926 9.107534 -559.745661 40.092847 321.593074
soon 45.052290 -72.931356 268.733375 207.568901 269.910811 123.312562 -26.747852 251.258350 335.260075 -212.407379 -80.666445 185.816897 5.836280 -252.033937 -502.042979 -404.305680 -378.415889 -27.200278 210.138641 -37.139082 -101.567266 190.923439 531.285877 190.037836 -125.661914 -137.538827 79.311772 -2.611857 -54.270764 -247.237930 -18.899887 102.864329 -259.202007 209.649992 -169.941619 131.835272 392.260637 126.855671 -244.058768 -35.812057 -104.951249 -47.463677 231.759146 110.484582 294.865529 -313.287344 16.650560 -298.581471 -402.540126 -2.211666
happening 6.483804 26.012688 -149.111495 64.688395 109.446067 71.151024 -62.347014 69.150027 7.464658 61.155187 -102.848798 -55.641453 133.159903 70.159532 -82.829631 -103.225159 -38.207141 -32.478106 -199.155271 -65.783617 -13.381479 78.839231 88.150016 80.934209 -12.893828 -33.457875 107.674520 -80.223320 12.516625 -103.567373 -37.271843 -17.891956 -109.501360 -51.891360 -108.752414 -68.955364 -46.871241 73.846643 -26.052935 52.329065 71.384292 -65.447363 104.779304 98.882370 -27.720754 90.165862 78.527544 -28.158039 -2.734875 96.313018
