6913 50
0 1622.034883 2086.866565 2255.089745 1818.051119 1665.707768 -4285.971165 3015.493963 1623.625870 1370.394570 -2328.317492 3392.959466 -884.063149 -3290.595085 -2945.814436 513.811793 6157.661254 807.603216 -5145.543340 -4098.949425 -1515.797506 3946.860290 -5378.807407 508.372566 2709.834285 -835.197508 -3681.353876 1291.417625 1987.818286 598.739358 6224.192039 5443.082602 3309.403288 -1110.500220 -2122.348597 1045.550619 2143.550398 -5883.290221 -596.359535 -2927.473271 4523.988929 -2765.435980 -2881.032138 1066.258737 2300.227653 485.629097 -2062.655987 -4963.463060 995.100894 -3714.960954 662.002502
1 -1611.345798 914.245913 227.379274 2413.573212 628.119773 3405.746279 -2692.378503 690.503387 -3307.201391 318.427118 -3531.048121 -563.804454 7405.550135 2904.279070 -1817.080207 -3116.427890 1347.772171 4447.507715 5673.159146 -4186.040816 -5161.632269 288.266230 -650.155412 -4746.022253 -264.681850 4554.023066 5372.978590 -3496.941472 0.576186 -12543.938456 -3605.094962 -6561.356118 1757.268286 7271.395710 -100.839275 -3779.295833 6461.311933 -5003.210985 -1711.913180 -2235.514550 2867.691965 713.700825 -49.930068 841.497793 -721.061961 -2820.209063 4035.096999 2020.212442 15.267147 -2713.932614
2 -2450.906075 3766.721400 835.825033 801.694617 3162.313235 1578.401946 -2856.667429 3160.194626 -1310.358018 -2863.648079 -4018.536217 -4392.613778 3876.452346 6591.498621 -5121.972290 1432.582365 -2276.569880 631.949537 3199.265308 -3200.213919 -5777.536821 3441.112458 -1776.569908 -2785.868959 -861.599367 3718.391423 9795.509080 -2058.530323 3608.507722 -14223.620044 -2279.229377 -4785.745514 2342.485870 8025.823453 -287.735113 -3371.392474 964.088806 -8688.589108 -7763.439787 -1604.110002 1986.291086 -2779.142025 5529.608565 1823.350028 -1330.620502 -4019.555492 -681.673903 -1256.706587 364.455621 -4286.632308
3 294.244692 -881.207354 1046.243681 618.934869 1996.000197 67.698223 1802.064682 -976.369500 1207.740764 -1534.232095 651.515452 2091.963248 -1403.200253 -3098.368767 682.991617 3139.530034 -1469.448857 -2718.908228 -4186.516668 821.041247 4335.258534 1638.378113 -1905.649963 4567.378757 -2622.945057 -4393.571277 -5540.499947 -914.732865 2063.643950 4669.928748 3682.661120 1560.228983 1856.405139 -4455.720424 -233.508901 2496.409249 -3531.528671 4616.313077 -1037.230028 1944.973424 -3001.171430 1691.617028 -656.826760 2848.509768 3542.652480 -770.599867 -2239.853656 1965.415039 -675.714751 -1088.127788
4 -4462.465970 2956.773238 466.868426 866.630598 1094.546493 9852.349043 -6213.951329 61.068748 -5315.464690 -77.725096 -7745.049868 -1137.831003 13076.232409 4804.406148 -2953.364745 -4780.944691 261.861073 10186.912656 7346.564680 -4818.866523 -9333.865312 -36.280463 -1082.294418 -10547.608645 814.054705 14457.537119 12590.000248 -5953.193052 226.594377 -27192.477957 -9779.378625 -12794.083340 4840.912402 14159.451530 -466.023187 -8276.752636 14822.108469 -13100.035226 -2294.833693 -4860.743094 4494.875738 1279.262603 -1773.996559 1025.896132 -4842.327970 -4560.605454 5774.901695 3358.660540 -1525.435064 -1929.560009
5 -4984.179128 963.318001 596.754378 -1061.650513 -418.225988 6932.635384 -4557.687010 -294.878989 -2198.365332 47.676057 -5618.801253 -561.944590 6614.464410 2856.481579 -160.190114 -2248.625528 -1705.900258 5793.807026 2529.415724 -2630.237324 -4995.458417 1921.109368 -2186.251911 -6277.654059 232.946203 11748.141201 7132.539482 -3420.818624 290.264557 -18322.529429 -7196.148952 -8331.487438 2530.557973 8593.261835 184.581437 -4479.798354 10079.846791 -9652.995673 -565.941956 -3185.676222 3310.373266 1413.347474 -1291.124521 135.705883 -3168.616284 -2817.586680 2613.907958 1865.066012 -826.489114 -711.232260
6 -222.873194 182.230984 -90.793182 -57.147360 55.788423 386.202991 -386.732448 58.075577 -188.060997 57.578247 -186.819922 -62.518839 531.316564 185.124705 -141.745081 -220.733073 -107.859590 310.591089 227.626054 -158.849894 -377.064246 140.877614 -26.244937 -260.842136 -83.198517 543.752483 348.206989 -246.493796 -38.003786 -1062.177121 -386.877226 -436.276429 214.797586 348.602788 -253.350599 -207.106002 419.786329 -467.292162 -130.955496 -269.396550 166.388830 87.365178 -169.659721 -106.394163 -49.395335 -190.214040 253.123969 6.499985 118.481656 -148.557784
7 4.670550 11.780397 -14.472401 3.722606 -1.747430 -34.688064 -2.984280 -7.392397 -17.484743 20.401058 -2.691242 16.419909 1.758140 2.970494 -5.442679 -14.133782 13.772684 -36.412052 20.553318 -33.158959 -18.828798 -3.331559 -14.002240 -0.322856 -22.296803 -18.248484 1.457483 12.907821 -0.353803 -5.237377 -13.444086 -8.490918 3.918608 -13.111564 -4.326651 1.117232 19.368611 -24.529215 6.838787 7.494333 18.209481 26.550549 -2.124649 9.640641 4.091432 7.737520 18.022373 -19.919511 1.888059 -19.088416
8 -1039.309567 718.183602 -19.286432 471.646099 134.698936 2105.642382 -1491.595739 377.251079 -1327.820660 51.147985 -1448.806965 -126.985033 3259.630966 1045.454909 -733.496779 -1549.299992 212.133789 2071.733392 2118.485504 -1298.265895 -2055.371800 -90.497732 -448.773944 -2547.131165 169.358655 2887.993911 2509.098302 -1400.809337 -59.138333 -5888.597027 -2244.543831 -2913.758843 920.106188 3073.479946 -138.713774 -1778.665299 3250.006694 -2630.148831 -483.296486 -1149.686931 1054.454440 295.714982 -563.073451 -11.242840 -915.412807 -979.419592 1337.549076 727.995656 36.243573 -599.880654
9 0.795530 -1.045041 2.219998 -0.786509 -2.491731 -0.793807 -0.713101 0.422680 1.804162 -1.219703 0.600337 -2.564345 -1.187766 -1.725832 -0.874470 1.242302 -0.475823 -2.260014 -3.061203 1.723108 -1.340288 2.930015 -0.002160 4.515977 2.058990 -4.475587 -3.239335 -0.631267 1.369615 2.103848 0.241436 2.556680 -1.023288 -2.543470 -0.437777 1.058794 -1.344566 1.965438 0.859124 1.033206 0.238252 -1.157463 1.325260 1.343439 1.683776 -0.024514 -2.236782 1.572078 3.057254 0.258813
10 1.124790 -1.327061 0.679812 -0.540916 0.571281 1.249829 -0.365140 0.174560 0.102739 0.811527 0.431608 -0.644280 -0.405026 0.726515 1.998117 1.518049 0.580302 -1.655057 0.413028 0.404952 -1.130317 0.872887 -0.388929 1.330359 -0.359440 0.024176 0.204694 -0.422723 -0.411395 -0.010356 -0.562829 0.111551 -0.467495 -0.987738 0.198741 1.275194 0.036026 0.680530 1.204850 -0.520309 0.037938 1.088024 -0.705099 0.859213 -1.149533 -0.059827 1.329787 -0.635626 -0.028020 -0.602263
11 2.806597 0.748845 -0.831720 -1.219183 2.047785 0.109699 -0.118648 -0.457204 -2.264177 -2.002823 2.654489 0.114191 -0.670842 -0.078615 2.396262 -0.452982 -0.531715 0.404492 0.720113 -0.929812 -0.678628 0.000010 -0.059228 1.343204 -4.787315 0.439275 0.293507 0.654835 0.932653 2.517051 -0.878729 -1.550417 0.936478 1.954688 -2.848866 -0.432052 1.081158 2.893970 -0.194486 -0.848895 2.964638 3.029318 -2.281473 -0.632987 -1.578000 1.810467 3.270026 0.149646 3.682204 -0.316327
12 -974.810486 423.330459 500.361471 -163.736583 -174.029713 1006.519657 -917.653384 -341.525959 -847.541289 632.825761 -1635.241359 -286.927617 2240.258868 1689.944765 -379.677716 -198.366184 740.073641 1639.937657 1075.777612 -1627.524805 -2784.666420 456.482250 -597.441415 -2324.124832 588.767143 3786.969149 3365.145636 -745.494549 630.066613 -7077.323938 -2524.070284 -3438.325153 914.665616 3268.560262 -431.475815 -1922.046016 4429.322153 -4480.771771 -465.442070 -1018.868100 1626.942727 973.921283 723.072786 1119.952395 -508.087439 -960.438886 1453.932125 720.247497 242.294453 -1067.032203
13 -2103.574402 1643.922316 735.335442 1020.216119 -949.643604 3172.989711 -3093.548736 881.237938 -3558.172294 -134.904826 -2754.372750 -124.149950 6540.544093 2032.307920 -816.392326 -3628.655757 176.450060 3843.091967 4123.689499 -3990.030609 -4559.061471 331.883152 -1149.989209 -5673.474135 462.777066 4894.997838 5518.927327 -1891.334684 -208.472372 -12042.303734 -4786.237859 -6147.220687 1809.806843 6230.832503 -400.447893 -3319.190682 7266.045658 -5628.535160 -1018.362874 -2336.579411 1666.258153 539.159456 -1402.422358 -417.402285 -1784.986235 -2594.832790 2118.898205 2119.435893 322.310170 -1355.493534
14 -197.756066 403.692746 381.866662 101.213375 -389.682066 -121.200810 -473.321631 -82.766944 -400.551353 -10.669095 -115.530804 219.792995 661.328068 -219.936893 -62.624690 -229.540999 -131.366302 -175.657933 -155.430087 -611.417287 -703.927850 387.743009 -291.743331 -727.651949 -15.748435 160.837066 780.488828 292.766373 -20.948576 -1391.218483 -795.220389 -685.350549 518.684905 266.763843 -359.777803 -565.745164 962.316958 -775.085046 143.875141 -322.040196 -15.855804 251.259840 -565.766740 224.796740 -65.882766 -429.109309 -114.246977 124.156049 39.833319 -26.622016
15 -1358.713765 -1725.854935 2101.820970 1129.767111 -2480.775680 -3998.321010 1369.030818 -1882.212458 -1356.017699 1651.490799 1078.011400 1543.684750 -2798.466797 -2084.347241 3857.843345 -874.691161 -1805.640344 -1765.805641 -2754.193752 -267.474278 3031.183136 255.447351 -646.520514 191.985163 -534.217988 -2510.579591 -2260.296660 3286.640420 -211.450618 5514.199330 3308.788748 -286.716738 -1501.997725 -2489.499704 1272.070326 18.846217 -2230.982149 -745.491942 2072.060705 2502.122652 -3083.819204 -818.444046 -390.427555 -551.563527 2250.598931 -2172.319934 -2600.276167 -42.813421 -4095.897278 2950.166511
16 -4739.427673 2671.435998 281.556148 1090.802981 293.431593 9161.892159 -6650.393599 386.624314 -5444.102534 229.153571 -7645.127131 -1162.798249 12435.746780 5081.126803 -2533.939680 -5606.661849 -193.646646 9734.202157 7098.508803 -4390.626782 -8851.244999 1230.159497 -1051.199237 -10199.465631 679.779049 13311.823853 12185.336116 -5484.893863 149.358381 -25894.836056 -9854.471856 -12359.863132 4728.389692 13470.866435 -976.936790 -8249.864317 13862.931955 -11643.174657 -1673.838353 -5531.123423 4322.692255 1057.628377 -1441.545948 200.466539 -4031.408325 -4342.522525 4683.693132 3137.729954 -853.882641 -1802.145256
17 1336.318682 382.922429 -425.424639 1622.495646 1390.371512 -3115.837343 1072.764101 433.145461 1253.049069 -38.113096 1769.533893 -33.342080 -2826.015823 -1337.444012 -0.785978 988.736616 -205.067745 -2337.350916 -742.298766 894.852573 2143.815709 -219.015961 212.440951 1992.280941 -715.891233 -5101.958419 -2814.771722 656.975211 216.834372 6388.093684 3003.585239 3607.979026 -573.624713 -4648.940119 -970.550337 1073.531280 -5274.520923 3728.246652 154.136651 1121.613848 -1521.325185 -105.377359 -286.810918 -217.199137 1051.765270 989.627012 -1702.097769 -1944.681472 368.468970 -312.604624
18 57.240771 348.503914 217.776346 161.322971 98.740728 -392.221002 61.435881 35.949755 -71.308247 -36.945757 41.582208 -15.292662 62.251191 -364.902347 -80.678244 315.013195 39.798563 -350.660951 -171.310563 -309.895746 234.684089 -257.505239 -48.682865 -14.028320 -210.796468 -368.026593 -100.513525 246.895779 -82.746791 124.867477 195.726951 215.722649 338.778469 -511.905218 -69.692134 165.823185 -250.648122 -133.789359 -223.115611 265.920092 -450.309397 -3.564373 -260.457053 -8.961751 -96.591086 -128.375411 -419.312534 -65.471383 -411.195281 41.542309
19 -684.238747 656.154192 78.239690 512.188005 227.835132 895.615987 -852.600319 203.429362 -1135.920803 7.275612 -864.327206 5.847136 2086.366825 456.832164 -429.975537 -1055.556671 -185.629571 1203.332956 1306.469274 -1086.835352 -1130.747644 -107.218108 -396.658974 -1499.125189 -92.612737 1624.912171 1150.452293 -772.329905 -61.030391 -3612.431143 -1197.356051 -1647.116349 774.776064 1333.218110 -205.256951 -919.338996 1633.448544 -1640.993165 -463.038274 -511.045841 165.636714 364.365292 -697.304033 -143.334912 -656.414885 -959.461165 461.812551 340.061361 -199.075658 -386.097203
20 -4263.577456 -291.157802 -781.078485 -1499.720868 1194.915031 10395.672371 -5252.038653 -684.147077 -5577.334607 1190.129834 -5250.893577 220.792933 12264.317604 3274.297167 -1605.803160 -4458.392855 -1256.733511 10124.963015 3475.279506 -2073.631496 -6884.519906 1335.018325 -1694.924072 -7412.060093 324.143218 12982.574523 6776.997807 -5216.296178 1235.726355 -21438.472486 -8097.886189 -10160.218276 5680.178635 9673.430106 -1391.201711 -7450.669827 13047.780061 -10454.084483 -545.702938 -4801.353542 3509.105833 3865.598137 -3979.987359 1251.846343 -2978.682268 -2944.638364 6278.066614 2496.485077 -2493.720336 416.993178
21 -2035.298607 1133.203731 384.983639 687.874192 -211.371173 3617.102076 -2747.813829 436.109659 -2345.803839 83.346876 -2985.014671 -220.837605 5699.252446 1770.733166 -952.429575 -2412.855756 460.039081 3583.072210 3279.698054 -2172.193304 -3686.320124 96.696729 -591.962784 -4740.012396 527.347852 5139.124151 5127.915170 -2419.874486 -277.741825 -10563.483509 -4050.920420 -5166.180250 2086.046642 5656.670156 -313.387037 -3318.693211 6051.634345 -4919.215471 -916.281029 -2203.512605 1442.798784 454.232605 -936.469783 -310.460651 -1536.581136 -2072.984521 1832.950088 1569.819819 -577.077931 -736.031023
22 2853.483968 2605.033837 -1930.792357 436.474776 3747.916566 -155.407518 -439.323264 -1512.165400 629.125106 1231.535473 -30.289457 -274.653316 -579.527159 3096.641866 -618.539957 -650.592322 1920.239217 758.046253 3721.012247 728.876637 -1361.182112 2706.937108 1971.059579 -2468.452074 -1040.182025 -2119.934597 3679.945040 1778.866020 -526.126271 490.353056 -1337.935748 989.054539 -1716.421218 -571.843253 -594.055886 472.944319 -3272.696087 2315.774485 227.049206 -3762.857535 228.935753 -27.425917 -28.979535 -2083.448113 -372.835920 552.067382 3130.051959 -3703.576101 3305.917304 -3226.136733
23 -2630.129746 -352.383149 -37.005205 -1184.694020 -293.350163 5950.306169 -3295.114458 1071.033059 -1975.438142 -282.378678 -2593.623477 -1063.440434 7458.650304 2825.323484 -865.493688 -2037.103944 1257.454693 4778.560415 3741.486879 -2155.973859 -5760.540546 796.147867 -1050.104234 -5171.875732 1872.311840 8193.245581 6171.489366 -3021.914221 -516.962616 -13489.404932 -5768.758468 -6295.723494 1563.768718 8227.906001 94.011869 -3609.134653 8612.094978 -6485.459317 -1300.952823 -3530.664009 3162.767162 879.106130 -614.477048 -53.433159 -1871.604439 -1868.409951 4836.357114 1533.568709 746.052791 -734.094015
24 -2336.325420 3013.873969 1132.368143 -1646.019801 -2073.441845 -365.289951 -1503.745436 510.420146 1858.207281 -169.477429 0.270922 29.746239 -711.598589 240.820526 -244.193659 -1465.188859 -4116.222337 -2646.622701 -185.724436 1034.293256 1571.292137 1579.908312 -1518.546650 806.714226 -504.197918 292.583840 -117.621812 1864.943098 -301.749191 -90.208482 -1507.350393 -1234.271032 -642.629922 -466.066888 739.150647 1590.694934 -3310.645812 279.898366 -1323.732279 97.104495 -585.247842 -1682.034473 447.331391 -1755.214424 -3.328191 -1663.495452 -721.506480 -1327.047355 1931.182186 929.371439
25 -111.581524 -1643.360744 1555.814580 -702.284234 -2722.704014 -2829.700912 838.722054 813.750553 987.269078 -1280.797888 2247.428574 452.264388 -3297.778851 -2508.755592 2587.342006 2284.101909 759.278230 -965.301448 -4081.672452 1560.081640 2354.074534 -1387.938581 1117.405649 1870.665509 1170.102365 -2992.712465 -800.063358 1909.921189 -31.421115 7064.093141 3392.931999 1991.919708 -675.389131 -1050.840294 78.423676 474.273612 -1656.597712 1658.911571 351.984115 1150.187541 -2153.971525 -2086.451291 48.996776 207.462278 3034.025423 -335.003997 -1619.768411 1291.867291 -1076.830535 2968.572437
26 1003.294205 -565.212959 -298.538338 -306.042363 239.549764 -1622.487438 1325.403232 -281.196467 958.239982 157.516133 1548.023739 402.355328 -2513.281124 -965.292087 458.248348 1071.246086 -61.798423 -1720.882550 -1490.689022 1084.893484 1657.100366 -85.393130 290.950935 2387.758692 -344.473036 -2482.350978 -2449.606660 968.194710 -30.798722 5086.883632 1830.330131 2546.057642 -1029.414398 -2639.726864 88.910985 1564.779557 -2847.990903 2475.166993 441.642968 889.624940 -508.632015 41.842461 213.679541 44.160992 794.878351 703.537096 -682.222628 -721.305388 85.269606 342.093942
27 256.432056 54.422781 -575.509811 323.222574 -126.262850 24.374617 -114.847591 -437.893396 -827.783077 175.218622 15.735993 407.682838 310.644826 -82.149775 573.738192 -1897.628659 207.152869 1296.632542 1417.048615 -289.402368 110.028549 -540.019638 465.581101 -363.686807 -425.682137 -3.900824 -9.624264 199.027035 -81.681517 393.156588 129.222462 -249.203118 -916.939360 146.615730 295.260682 65.741034 282.987079 794.542842 903.860242 -534.647786 -77.212030 -37.480543 -675.378003 -741.263011 237.675986 -329.224571 1011.959746 -213.020484 92.650116 -54.892445
28 444.593424 -246.672210 -164.707351 -98.307439 50.807308 -805.269158 498.727312 0.552337 630.336874 -34.688450 732.416978 76.668882 -1195.361571 -408.615283 167.619880 640.291352 7.192963 -969.455205 -677.709562 513.296051 765.454430 69.974784 132.288882 1128.498900 -172.149131 -1317.355484 -1174.013485 419.166141 26.519419 2510.369914 889.600575 1223.797194 -446.942817 -1231.486252 -58.053309 806.005176 -1445.487633 1261.404983 192.981314 438.321046 -285.785052 -117.480031 199.006728 5.349655 636.160294 414.988667 -301.178173 -344.740867 239.156479 164.209285
29 -798.977756 2378.562529 849.499615 179.862878 1822.665308 1951.321357 -615.094752 550.403599 -969.880574 -1190.221015 -1467.177922 -2606.559566 132.855402 743.033950 216.197102 680.999171 -336.746862 3603.192412 -1459.164346 -1773.451013 -2229.325129 -3158.132547 709.337653 -507.761180 25.011543 3891.680094 7490.721269 -185.716082 999.424212 -7306.651960 -1428.017227 -2057.229950 1574.952269 4563.767036 381.122566 -2644.780367 3130.848991 -4154.734601 -1390.097884 -870.278560 715.503713 -870.837122 120.079827 1406.779073 -3696.681735 -815.800374 -1869.924479 1089.525316 -2627.199646 803.925446
30 -1617.477523 -1242.395231 749.520611 -198.969614 -518.024175 3651.893689 -1301.822819 683.498098 -2062.624876 -1020.432677 -174.471477 -174.289256 2371.479186 -1164.512634 707.045044 -2256.291074 -1097.537496 4731.849242 -1294.771203 -763.943590 -1457.193486 -1388.145997 20.794133 -933.295375 820.543286 3952.276411 622.045041 -1636.792710 224.667482 -5426.751017 -1503.146081 -2727.012701 731.412476 1841.239885 -55.108057 -2454.912570 4394.911421 -1904.579190 -32.890944 -562.967573 1068.478029 -54.377071 -1724.292162 1945.791442 -1343.396719 -1059.508816 1055.466887 2180.802178 -16.532476 936.569471
31 -3947.166576 1810.164287 -642.653248 840.504416 799.749285 7867.591048 -5208.290042 33.481835 -2879.263746 -734.731978 -6468.419715 -566.976611 8841.520599 3454.865256 -2587.856250 -3607.096586 -930.988229 6521.738276 4520.548023 -2840.665182 -6771.512434 1524.653294 -1524.624762 -7395.683501 746.420645 10616.830484 8439.421579 -5589.779932 604.124507 -20133.344268 -7775.653915 -8719.355518 4165.679677 9773.352426 -1141.964938 -5965.327417 10799.328429 -9177.241005 -1563.137144 -3845.414891 4223.655563 954.880106 -889.250692 1332.345286 -3555.167269 -3116.521395 3397.914677 2620.333339 -241.056627 -1503.268503
32 -3519.014532 2213.522993 1000.395634 -37.109408 549.455202 7157.692659 -3600.394247 1237.196361 -3931.979716 -1155.531255 -4850.130856 -1251.657779 8630.735989 3944.741617 -1562.492572 -2690.863567 782.966129 6892.045019 4997.000080 -3406.240440 -6143.038612 -89.923184 -1016.384441 -7860.107124 1477.138763 10087.513269 10019.407904 -3523.032829 369.860328 -18687.247468 -5684.598815 -8905.816785 2549.420504 11519.912718 886.673644 -4844.558954 9821.612015 -10471.266194 -3581.767337 -3597.742257 1910.648739 -1208.366503 196.425208 153.353534 -3092.286874 -3999.851740 3645.470667 2413.135044 -1063.297799 -1637.973294
33 -1040.107316 876.129149 85.787494 -783.666299 -102.835545 3057.646355 -1937.904900 483.221429 26.767286 -755.762196 -1683.116290 -1303.732854 2429.123332 -560.644078 -183.093421 -794.860526 -1313.469494 2901.825688 -498.387887 922.115369 -716.237737 -1498.001543 -222.790315 -2027.486021 1068.085369 3590.120505 2873.303721 -1123.688368 553.440963 -5212.123581 -1718.521249 -1005.511567 2312.138244 1198.488557 -552.847074 -2367.387227 2802.195625 -2432.546153 564.709042 -992.816795 -524.285280 341.174395 -1955.491668 -452.099547 -2566.190089 616.856278 -1057.136651 -154.597427 -1712.059646 1469.094776
34 -2492.617347 1965.972826 -920.391936 -221.528722 2280.461303 8726.588434 -5860.557848 1067.030411 -3126.259205 -586.254277 -3820.899934 -1802.224166 11706.032793 4580.724753 -2830.236346 -2876.592584 843.219735 6931.250326 6584.939261 -2157.282005 -7296.795973 428.402335 -860.373132 -7299.630923 396.575800 10229.373192 10296.846453 -5107.262473 299.481381 -19754.615823 -7029.311105 -8428.796173 3604.343704 10629.844884 -2061.575192 -6075.587460 9979.438033 -8234.183815 -2192.199370 -5571.324876 3604.319496 1173.816217 -1786.101055 -345.553450 -2914.334897 -2716.309767 5562.942513 1270.243050 970.618358 -2894.455547
35 -2787.246231 1823.840215 416.555453 762.213052 -635.601621 5688.054933 -3993.804872 -272.748994 -3374.669019 31.896425 -4965.814335 -282.787395 8250.260289 2832.082820 -1187.143121 -3768.440254 153.418082 5970.576882 4717.328683 -2747.544422 -5377.865600 150.334864 -428.157680 -6651.867353 874.620405 8275.298420 8246.811436 -3590.711381 135.568980 -15995.570725 -6270.044456 -8088.840557 2957.618143 8878.071513 -416.910857 -5158.913663 9529.171580 -7387.352207 -753.918929 -3278.189238 2586.179062 620.515007 -1098.134582 77.895808 -2212.215747 -3080.459402 2987.544209 3083.365582 -1027.660379 -764.739809
36 -1388.528830 1023.332139 3.367866 403.178068 309.667251 2609.782572 -1511.666912 393.198335 -1475.103102 131.579004 -1749.442711 -428.378087 3785.453498 1317.895193 -926.784711 -1342.982924 363.674671 2494.789090 2273.279817 -1190.364497 -2569.220585 -277.392998 -189.025990 -2774.738038 351.656747 3761.419922 3195.015116 -1666.328348 -436.808295 -6892.809150 -2582.677207 -3094.487368 1224.374874 3875.988596 206.814113 -2017.991877 3621.044509 -3533.624291 -1071.363232 -1175.784088 1093.047318 -79.177505 -413.044858 -265.366273 -1281.675768 -1277.408630 1535.960975 657.664379 -518.426729 -376.085190
37 3722.685593 -2769.078564 750.854879 745.218544 -71.974527 -4415.859250 2967.401053 -769.945331 2584.689128 -940.710190 3432.571247 -607.074969 -4935.928834 -2044.076330 950.902530 2870.208121 372.509040 -2571.234901 -3272.762838 4666.879023 3495.136058 -846.956943 1121.493287 2580.328790 1763.179299 -7245.285973 -3403.900554 1592.571170 1332.817993 12562.727910 6545.205335 6250.276435 -921.135709 -5046.605717 292.160236 915.517250 -5026.642314 4748.254497 1686.330579 2370.092730 -2187.124188 -2072.242227 1146.920591 1597.565665 1912.318727 2929.812609 -3782.678584 -683.927178 -1259.040826 1471.204010
38 -526.662226 224.708288 -78.286528 -285.937360 221.211542 2022.880419 -976.740929 -166.583728 -867.179499 -135.152416 -1306.736340 -261.789754 2035.127888 1227.453242 -405.865731 -981.213050 -123.746919 1980.100860 1138.783908 -327.193648 -1575.108087 434.008566 -145.782588 -1658.416817 440.795456 2733.447949 2241.504042 -971.670217 109.151865 -4408.648658 -1846.751992 -2115.034112 566.939558 2707.128424 137.495679 -1137.248363 2543.200862 -1977.985290 -318.753226 -1147.115966 646.960248 62.781810 178.406022 88.982622 -767.567200 -835.710236 1039.534490 752.025333 -37.822980 -394.624864
39 -5268.443295 2945.221546 1676.499495 -610.501385 -2256.978075 6847.135816 -5876.973241 790.930104 -3716.279119 -1283.020536 -7257.448223 1375.368106 8408.834456 1600.776864 -2489.728493 -8154.562199 -2783.795811 6194.691564 4799.281261 -4511.651129 -6302.226984 883.953901 -3118.370606 -8920.170580 -1505.152040 10372.014505 10093.661874 -3636.092497 -2021.333309 -19652.651528 -10721.455541 -12920.637404 2308.141159 14034.506372 2526.971480 -6618.143264 13771.628874 -7295.984974 -1539.679557 -3328.454090 4712.125180 -319.064466 -8.283118 441.669908 -4206.559488 -3840.581003 921.741145 4669.874714 -2310.181202 25.565726
40 -2794.988489 543.107289 441.058269 204.127233 -1176.772514 5902.304738 -5333.701634 1170.546484 -3056.821933 -1651.159419 -3622.694547 -1290.828561 7779.601258 3058.084905 -731.969824 -4170.423370 397.655967 5469.573616 4944.264578 -2317.697238 -6137.994652 1656.566622 -712.051557 -7454.358516 1410.010211 7205.557833 9132.684097 -3112.896211 -210.849973 -14527.102043 -5791.064489 -6674.109012 2172.821415 9030.713616 -1284.766274 -5244.472302 9600.325404 -6134.551063 -582.380505 -4804.603816 2193.320786 -706.888070 -1427.943215 -1151.131354 -2147.772532 -2232.070145 2725.444656 2272.399024 1159.353876 -1530.010635
41 548.859746 -28.387739 55.991590 542.655844 136.802770 -1614.842133 709.865345 388.951412 211.311795 -460.174330 1382.445780 458.552637 -1156.048396 -1042.255777 -327.813932 600.767992 -172.104257 -2009.644244 -960.782281 557.364417 991.024577 -434.522038 -376.123275 1008.438220 -236.864831 -2942.017547 -1838.965165 461.822554 45.907156 3580.290556 1573.591213 1768.126169 -20.846304 -2008.027684 -215.364111 572.424602 -2035.153239 983.468046 -603.554190 1225.389346 -644.099690 -443.709408 -250.339039 250.530752 367.756732 377.844648 -1596.726172 -512.846872 -187.320043 78.659171
42 433.977019 -51.736182 1447.482305 702.334160 -247.524962 -57.912062 -270.371588 2124.650931 -2017.283515 -662.664947 891.112613 -724.912615 2174.476950 -418.319569 -245.122173 -3411.947268 451.994607 2471.718871 1620.104912 -2485.411179 -1131.965117 -88.789305 374.469740 -1868.142569 -284.442357 -580.618222 1620.716000 691.620466 -989.551248 -1407.915902 -83.926435 -2002.608058 -1231.299228 1754.621794 1365.657293 -1107.697398 254.796052 2016.886692 -963.976791 -1080.291209 -1095.204188 -1131.521618 -314.493006 -703.651250 -317.279887 -1323.452457 225.393727 544.526846 319.762387 -829.955966
43 6.723093 -299.438547 21.529268 -169.670652 -261.319987 -158.518308 -45.500069 46.655559 365.612924 -83.318824 204.179297 -127.729589 -331.728950 -279.053405 79.443504 230.080149 -170.707643 -352.613744 -581.495634 316.175397 215.647594 252.835510 112.959618 341.632356 218.043495 -403.065614 -374.414743 127.277314 -54.966976 754.487774 242.772777 633.134627 168.465392 -718.882076 -217.442686 163.149125 -416.206280 390.719180 85.781051 10.567992 -192.154170 -17.226837 -176.062409 -114.433899 21.278058 278.790663 -363.913961 -138.300136 56.720387 193.035190
44 -4048.935875 2750.815350 736.758482 2578.211595 1150.139454 5838.389921 -5222.174727 203.306811 -6289.802805 995.175384 -6826.023203 -1174.866796 9599.328565 3691.327433 -724.709431 -4299.904259 64.218743 8816.472758 6096.727401 -6047.664148 -7099.518857 174.208649 -272.189817 -8147.292923 -928.169519 10188.960052 10314.384536 -3645.955753 -611.450008 -21579.367437 -7386.241583 -10114.878597 3604.867406 10502.774177 -511.771076 -6403.771890 10224.434210 -9988.718071 -1374.459130 -3801.945356 2290.420682 1129.425611 -1410.822004 -571.543839 -3022.316967 -5470.806070 3615.012655 2104.330480 -2631.001487 -1624.622838
45 -1827.149863 1491.895388 374.197871 477.873024 -854.371912 3023.494652 -3437.091939 365.536480 -1872.361336 304.995710 -3615.466140 -423.848217 4821.428352 1481.617973 -809.611404 -3875.223451 -378.008575 4338.597750 3295.834841 -1490.230150 -3030.030497 628.636893 196.457267 -6225.790049 111.060146 4979.983141 5927.319455 -1625.838189 -583.889492 -9974.480148 -4200.236810 -5886.749345 1577.882859 5486.227384 -654.991035 -4203.344840 5659.256713 -4007.063948 -49.319145 -2424.886270 997.382120 -756.285654 -426.833231 -1457.240217 -1864.642656 -1491.968587 502.766719 950.727284 -629.797951 -72.919568
46 1009.577716 -2279.172938 -1878.590855 208.868041 -674.336468 161.635002 -635.841711 -114.801889 -1301.816051 404.075774 -248.477279 -1318.324073 131.130054 1936.890107 1408.523126 -1680.543496 1670.292462 4117.103165 1939.986785 141.036838 -1945.413740 -34.917041 1707.295220 -1674.918808 2150.533449 1846.777241 1856.343956 -27.548383 439.149934 -491.052863 -1081.929344 -628.288716 -1841.237782 2311.832295 -538.879662 -1235.458387 2486.329721 -41.757818 2925.720227 -2176.115311 1291.261793 -130.883356 322.885178 -544.085630 552.319581 -497.352988 2239.176564 280.838049 865.453517 922.339634
47 -1084.153541 595.949738 712.312517 593.389443 -120.721790 1718.704136 -1550.679042 943.662876 -2231.378504 -91.437383 -1359.040467 -741.412861 3638.707519 1703.477707 -975.173282 -1598.212871 157.825023 2317.546352 2067.799778 -2334.692242 -2522.436980 601.208759 -186.322504 -2987.297248 33.682888 2924.548008 3249.696927 -663.859611 26.015604 -6975.265320 -1975.764799 -3725.459958 939.399362 3626.982776 -76.265383 -1990.761910 3035.388153 -2958.531551 -1217.899097 -1343.756154 427.207802 -180.906172 101.691499 -10.359613 -765.361855 -1525.166433 1038.284662 922.372110 238.172320 -1115.011601
48 1654.265460 -797.396171 -1464.146349 622.168366 1468.336114 -3808.413367 2301.635087 1977.279528 2123.783450 155.409721 2439.611980 -763.221231 -5005.641126 1428.840904 18.264135 3767.449659 2411.360636 -5169.481543 -695.141550 -695.063875 1228.030049 1787.043368 8.805604 3291.832303 -217.293933 -3784.503554 -3321.421939 958.923465 -119.704165 6804.045631 1913.311265 4270.490410 -3729.710294 -3550.114068 973.120840 4035.529305 -6334.619778 3135.790553 -1240.623842 758.899439 705.503146 -890.918332 3572.202940 -387.681583 1642.080785 848.604946 -1261.732332 -2086.871149 3150.664996 -2602.053826
49 -3140.349877 1115.343412 -91.422846 493.888957 -578.962846 6068.991119 -4117.278015 25.954313 -3197.690720 215.434765 -4238.931632 -502.240037 6897.342562 2707.855561 -108.921096 -3855.352345 489.015211 5733.488639 4338.183696 -2929.961680 -3995.037670 343.838707 29.260971 -5954.904379 -180.860362 8215.436231 6774.034483 -2872.427796 -246.217810 -13864.071567 -5353.657250 -7319.452399 1839.818585 7503.084181 -207.680948 -4125.295493 8138.042426 -5683.100888 318.104132 -3676.487223 2104.761757 206.821331 -1143.041514 -994.337539 -1669.106402 -2340.904375 3229.807699 2486.253755 -195.450988 -717.082841
50 922.143735 -580.101746 -177.971813 -108.975781 0.510991 -1706.156909 1307.120932 -188.671270 1299.733394 -34.419843 1300.934568 216.496909 -2415.202763 -997.516710 359.660360 1073.505363 -282.204109 -1747.482695 -1483.956193 1290.740581 2002.397076 -146.135407 231.475964 2532.181098 -57.628346 -2846.750559 -2845.724772 761.428655 302.267150 5200.552720 2120.449524 2782.462542 -505.523114 -3124.566413 -58.935589 1616.183631 -3008.058021 2597.425410 335.244847 1112.985432 -726.194635 78.184670 169.837547 104.336108 862.764178 1083.295537 -989.012025 -679.747560 272.036857 309.305260
51 4193.414176 -3369.785311 1293.294943 -1542.588611 -2293.199910 -1937.557963 1772.126893 -37.063325 2182.811241 -339.887964 1643.821318 -677.213361 1527.362097 -530.438296 -2231.856412 -932.581987 479.945888 -1340.029226 -438.075019 3690.555896 -397.773931 292.576281 244.741996 -559.830260 3159.077043 -3254.811482 -485.571292 8.376305 -1364.977714 5120.469541 1238.980977 1864.125174 229.709030 164.932919 394.958711 -1228.585339 -61.265785 3662.395065 -767.313752 47.699406 854.604910 -522.378488 1972.884924 909.090393 -1444.847649 2208.383566 -1801.551435 648.779727 -907.342555 1.849277
52 -543.337594 270.751901 -63.897904 134.493492 -50.440402 761.226378 -676.048146 45.967495 -471.324787 154.329542 -685.535091 -50.870527 1260.093281 440.151495 -226.590054 -638.049369 12.996232 700.663621 798.646676 -446.930824 -854.759624 42.206438 -207.913629 -907.205444 66.912275 1161.724761 993.604793 -569.278409 -73.285040 -2334.122969 -996.876123 -1069.539946 500.690861 1156.802052 -134.604095 -702.697397 1376.273620 -1124.233673 -107.867802 -470.534831 504.604604 240.147437 -255.957789 -102.770707 -326.671320 -275.646929 528.467406 203.310792 -20.878618 -207.805559
53 -2166.023508 -610.778902 1247.297322 -822.442907 -3890.395565 -4742.219007 265.121088 -145.830506 5187.242748 1993.639115 -563.094203 -2633.077526 -9469.387599 -219.437139 1662.089230 3328.902751 -1195.546976 -4281.218972 -5351.542765 2984.096956 2027.044391 -1764.638715 1527.701840 1726.719807 1992.144523 3188.681936 287.785311 2922.774510 1351.908601 5001.642741 1519.093896 381.569350 -1939.979101 -1887.599125 490.734717 -969.198200 -2200.164034 -2190.568489 5493.137932 4683.949076 149.847434 -3864.823863 5800.930835 1742.844552 1918.614756 3422.423595 -4830.554680 -1218.819478 -782.119060 5938.520705
54 -2602.025421 1537.885269 -72.966596 590.452270 104.816495 4890.990268 -3652.067069 299.202118 -2724.288452 112.183019 -3955.005968 -690.242155 6584.879209 2680.297109 -1111.454157 -3436.326115 29.267559 5071.039010 4359.360504 -2380.157112 -4517.388473 473.810516 -522.415643 -5435.586775 309.787085 7025.903674 6279.300685 -2793.071782 -126.530934 -13240.438483 -5322.593434 -6507.108171 2038.081226 6962.033111 -302.143553 -4041.455275 7099.717702 -5688.611705 -665.469664 -3016.829847 2205.820827 445.755055 -812.864201 -370.212896 -2022.340769 -2140.649028 2976.906367 1408.148880 46.941569 -1031.986292
55 2371.972204 -1686.770109 -151.747388 61.484808 -1128.204109 -5394.820519 3716.637106 229.579382 2301.697434 -132.688530 3626.656515 633.410674 -6848.881954 -2313.222417 2121.730966 2749.405375 666.825622 -4578.543440 -3417.921494 1371.235965 4838.777580 -548.112576 1095.961795 5488.758032 123.813210 -7405.673435 -6850.710393 2726.274417 -394.842691 13777.923288 5376.583634 6147.792179 -2812.174104 -6099.130280 787.796728 5159.514892 -7385.413609 6171.502500 717.595338 2902.877691 -2355.163266 -1112.958366 1169.156174 -1070.562041 2529.675016 1446.009758 -2615.755003 -806.887010 357.043797 975.150093
56 -430.893093 109.089230 -13.025289 78.759349 -99.582498 662.434116 -569.306464 89.146559 -303.008031 37.369317 -552.411776 -116.949980 1116.396905 314.539958 -228.737627 -446.416252 29.923343 570.701580 524.889399 -297.815417 -752.918590 157.030700 -141.485710 -832.006205 234.087654 984.607243 847.053272 -515.466781 -145.865223 -1958.173628 -840.860879 -791.108848 498.395153 858.681805 -133.792991 -622.504503 1099.297523 -964.406525 -205.930569 -452.921872 338.388568 190.250883 -263.354711 -100.472229 -408.701731 -247.608118 312.487713 160.700433 -54.207328 -175.041833
57 -3109.296768 1151.407159 164.262012 -180.100880 -231.877244 4457.635484 -2764.811896 -875.793156 -1723.753032 1070.521664 -3304.810655 427.586181 5444.786335 2186.601974 585.741854 -2298.219607 257.779620 2996.274994 3600.480168 -1685.265269 -3089.797311 1593.229847 -1089.753400 -4457.897135 -299.106053 5973.284014 5664.787829 -1685.963725 -445.175621 -10468.266935 -4233.212852 -5302.665391 1250.940916 6003.149514 889.636119 -2121.619601 6079.488912 -4790.300115 -107.389363 -3042.736827 1115.666230 684.880772 -1270.723331 -1594.084196 -691.930125 -2477.412379 2863.961730 1185.228171 -711.508000 -763.210334
58 566.151161 -294.751882 -662.436164 661.578564 679.281214 1658.587596 633.219123 657.647621 -988.919968 -274.189618 -136.581581 -638.601851 -1.814219 821.187638 -711.543702 -1750.036463 19.779729 1941.954353 1428.830695 175.489730 654.529664 -343.726068 1539.952077 746.117528 185.382917 296.418021 -2290.458351 -807.379828 -523.069587 859.702782 374.042296 589.532618 -698.856251 -687.470885 382.099568 861.339723 -2327.101496 2351.365175 -709.384619 -163.792214 -189.837581 -750.241190 558.242934 -927.743672 -1114.562036 751.171508 934.282101 -222.077867 1419.745080 -605.321606
59 255.444842 -108.779187 22.223104 -105.515880 72.614945 -370.953407 354.904249 -32.581351 205.495784 -72.033598 289.335921 43.399959 -654.458115 -182.476109 115.281750 325.614325 44.742496 -412.548534 -275.352856 216.237802 388.112023 -113.025817 59.146110 514.132111 -88.306959 -580.259345 -426.132662 229.060566 62.925643 1168.624266 480.030830 524.559762 -297.565443 -476.581368 111.690463 338.488304 -649.133997 550.727739 47.535568 216.960004 -136.905790 -85.172853 228.791774 62.959530 178.475061 210.487191 -131.739584 -153.027922 28.399639 57.840465
60 -1646.048738 3356.340667 870.605735 -999.467512 -148.857584 -2230.547479 -91.233538 -409.584255 2618.221386 175.876670 -1320.388225 -1598.050565 -3516.955066 -165.672466 -306.891623 1289.689924 -2163.861587 -3227.969416 -602.007956 994.097001 1150.477690 -137.648787 -761.722111 119.642372 -399.353768 814.132426 1968.717412 2089.468098 -473.795664 565.023694 -793.178804 1259.125186 -212.865973 -1684.858163 1243.835607 736.552716 -2995.001401 -2332.443019 -798.193733 934.381293 -891.407961 -1593.137710 1294.710268 -1163.806480 -1981.978936 718.731162 -2990.725702 -3431.458662 -1241.249523 613.167045
61 -1270.395213 1453.762488 172.890633 1500.361130 798.733920 2545.445951 -2955.218675 842.941318 -2658.441988 119.465193 -2724.113321 -1124.973306 5607.428181 1570.718570 -1995.014597 -1690.217080 3.145716 3392.487875 2499.685888 -3399.571049 -3956.442597 -61.280697 -334.748808 -3987.918025 -473.047878 4463.744917 4383.865361 -2000.897422 100.031345 -10895.937350 -3651.220094 -4817.647585 2568.182169 4057.384672 -1173.554010 -3493.024132 5086.995771 -4615.440480 -991.697180 -1524.430582 1345.999202 895.564804 -875.696642 1018.371641 -1714.552952 -1745.501932 1205.696519 1102.697477 -324.809169 -1374.048918
62 -839.885253 481.107857 112.092804 248.337606 13.104589 1550.968874 -1164.946474 205.181549 -941.604039 25.768551 -1262.632863 -182.666276 2321.532575 785.159592 -433.781796 -982.465517 58.852273 1673.965331 1327.260990 -867.802730 -1487.962989 125.059278 -142.055470 -1787.620709 138.937705 2203.100614 2022.771650 -1019.966014 -7.346562 -4479.468730 -1593.805616 -2120.344657 829.036595 2196.871686 -191.950225 -1339.437555 2354.112499 -1908.580152 -386.811645 -933.626547 597.890749 201.322037 -346.979544 -107.239471 -556.879782 -846.699643 855.500802 640.456007 -95.745267 -373.650843
63 28.928713 1153.653614 603.012713 1190.714773 -22.613066 -183.281533 -54.899099 -683.524491 364.411838 737.364419 -1661.635209 231.911304 22.898093 -140.508526 16.158099 -195.690294 432.810577 481.506137 589.929254 -544.583925 406.875105 -803.765664 343.689839 -661.719510 -353.972035 -357.136138 1359.023268 -246.960833 112.115529 -1324.034973 -402.662870 -932.196102 1035.629918 250.763754 290.103905 -510.478938 416.177126 103.024590 494.362886 107.785298 -206.727024 295.674240 105.084791 141.923293 -444.180667 114.583053 -582.089146 585.008221 -1028.109785 170.473696
64 -3031.512833 1496.824645 -34.662533 334.679864 -897.629296 5085.937573 -4008.931767 386.522969 -2344.400721 -69.793430 -4427.636894 -832.597458 6808.249014 2585.787676 -1236.237685 -3793.169678 37.264667 5305.699246 4278.101907 -1969.188121 -4897.327044 -15.917621 -530.146270 -6138.887744 1156.589431 7892.124446 7034.942474 -3122.307719 -119.553864 -14029.272717 -5800.494700 -6784.035114 2464.281976 7575.830517 -623.639105 -4825.535259 8527.145486 -6625.667811 -301.127740 -3227.375056 2685.590816 370.895094 -981.364155 -306.182711 -2446.773586 -1796.182921 2673.443258 1626.613018 -32.488191 -295.659298
65 290.083906 1079.588877 30.508609 1043.917759 1597.974191 -1859.784694 143.527507 819.030349 -703.302489 312.027723 1054.027949 -372.283355 -1243.450702 18.825411 -620.134343 297.757240 -145.170588 87.289183 79.997326 -1179.342380 -730.965188 337.997474 167.481441 -292.703391 -1285.163845 -1817.635988 342.868005 1270.527536 478.921748 528.866828 741.556870 251.771898 -1028.551087 -1050.016014 -268.835407 -430.271154 -2202.420342 180.219089 -302.402357 221.710913 -673.554110 -638.126487 88.846551 684.900291 982.642136 -527.049429 19.857219 -1673.248856 380.812144 -252.512107
66 -692.789906 136.469287 165.797923 332.565024 -438.298317 741.159447 -590.222953 136.417768 -941.060878 241.571143 -742.988380 304.995012 1933.823987 725.635967 -137.931105 -828.521272 734.317728 776.380681 1348.486226 -908.124864 -1564.803959 324.584004 -607.083929 -1538.929760 517.804697 907.112766 1713.443956 -845.201008 111.177907 -3441.426168 -1223.566075 -1494.797471 648.696547 1933.876683 -180.420605 -937.976421 2450.499034 -2194.516832 -613.604287 -939.888702 851.451378 378.198860 -339.180582 -131.494669 -212.590210 -756.830997 630.843117 463.872502 -87.274997 -735.022503
67 211.016066 65.603592 -304.979645 899.665031 378.672170 394.676334 68.699028 -85.533309 -989.553211 334.088728 274.242515 169.062730 529.651627 218.385960 651.382230 -245.377251 849.753068 1021.426935 486.505600 -575.890704 225.038130 -678.315637 556.319143 149.491321 -74.909294 -85.133443 -6.272008 -266.467487 377.808608 -502.071830 329.101579 -132.835023 73.531910 -427.777380 -505.477184 -49.117771 153.725740 413.531041 552.199656 -495.988060 -425.921122 532.363531 -664.351260 -119.218590 504.047735 -372.017510 361.445875 587.393186 241.991636 -360.388513
68 -1054.460260 3166.055686 1664.171437 164.450012 -179.422118 -1743.881407 408.038099 2232.242541 307.851827 -2946.525056 3023.295453 -608.534939 -5350.046340 -3738.949848 1232.342265 3575.899418 -974.825336 -5379.585472 -5635.575240 -3272.554014 1418.547703 -615.131533 -499.152994 3274.230450 -2776.680695 -3726.036728 -388.501217 3372.503664 -1547.970062 3670.527876 876.350897 3503.714466 -548.808115 -3455.487130 222.077419 3456.436275 -3927.651961 1078.525742 -2281.930590 1779.795470 -1706.695045 -2487.407227 -1406.606728 440.079859 -1326.687094 -232.931668 -4931.068044 -209.596004 855.982699 611.815902
69 -360.090138 77.076901 1191.858002 -80.259978 -1277.057102 -790.671359 -703.942760 -42.557840 1206.179448 12.767148 -1080.127693 -1403.248943 -548.953067 63.976073 -131.313479 2248.698413 104.488689 -1344.893216 -1381.292599 149.281953 389.645289 1117.196575 1049.253075 -240.296309 464.808260 -189.237988 900.505591 862.904182 -778.831104 -37.795431 150.521595 845.609942 1264.051117 -1333.106008 -518.150854 367.589721 -838.819931 -353.377559 -583.594322 15.933065 -1574.410051 -811.107095 481.949854 -800.662773 238.844964 63.335809 -1729.336852 169.904367 -434.385931 -121.770177
70 1940.823617 704.137432 638.406350 1334.131364 1420.625957 -2593.682595 2368.053930 -697.630600 -251.263175 -87.346001 607.615492 1009.573052 -2871.974377 263.395443 -424.771266 1445.448988 443.884614 -260.432738 -631.143925 -81.151206 1073.509079 -1411.345367 839.530599 309.509409 151.433672 -2609.333980 194.017596 724.687806 609.945845 3029.495002 2055.764713 1388.590871 -1212.462412 -1141.092076 923.690489 -160.196064 -1845.868366 268.503496 -1112.364275 2284.785572 -634.887834 -831.190412 2672.454189 1814.562051 -500.150309 214.058365 -911.686713 510.458107 -1009.955555 -317.976219
71 -1762.437328 982.811454 175.190387 780.171971 616.425180 2883.144928 -2538.636980 1273.278660 -2775.245050 73.491495 -1320.409080 236.994724 6265.406660 1785.009628 -1187.357524 -2495.718211 1081.502313 3090.480949 3683.744957 -2969.151472 -5014.989791 648.083414 -1651.132175 -4920.136723 730.834709 4431.529833 4820.117652 -2152.784450 -683.446121 -10625.416290 -4586.054260 -5274.076978 1086.639081 5676.702182 -385.384583 -3402.818822 6167.171727 -5030.155979 -2015.142868 -2422.921675 2330.058182 826.927966 -1171.140721 577.859186 -1089.381340 -2752.022713 3599.102763 851.633005 930.190688 -1869.146728
72 90.332601 -176.496125 -214.706072 -253.621039 47.748580 -111.015732 195.148711 19.854367 473.230496 -135.559145 316.952174 49.052079 -467.226233 -232.758590 -15.792775 246.773435 -82.273452 -548.635057 -271.602773 596.037814 491.359252 -34.038702 -26.278230 411.076380 66.748368 -367.211769 -621.274040 -23.052725 -62.647228 1259.702148 449.576617 754.770495 -170.122257 -651.460886 20.096971 379.353032 -678.238625 486.001196 -32.764094 134.221389 -179.905083 -69.676948 45.532599 -206.898404 99.683582 341.161843 -263.210292 -300.682964 27.991395 123.919374
73 -91.157682 294.731559 -49.074779 -690.303605 166.461079 346.734081 -309.141276 75.667627 741.235417 -321.605100 -117.663140 -461.039421 -105.603511 -71.786011 -533.405041 362.622548 -679.826792 -116.850011 -527.171831 492.079217 -222.029368 -234.767509 -164.336504 267.245931 -30.171874 963.682144 421.003868 -114.733384 36.117282 -509.279553 -584.058191 -100.762402 189.448591 193.778276 -109.795193 -234.761015 100.659685 -303.763087 -71.084107 210.719773 51.373681 41.363993 275.546207 470.175887 -261.841957 319.540531 -132.773697 -141.483952 41.247768 430.551052
74 -1543.374240 1236.776683 63.441065 679.348344 263.751123 2947.389015 -2237.279419 261.365407 -2192.468367 211.586913 -2481.253978 -208.235045 4828.876650 1798.214713 -1037.758454 -2063.358849 321.465928 3372.510722 3074.884266 -1860.134247 -3320.138810 -12.662157 -421.823132 -3753.803922 282.830011 4533.821891 4249.599747 -2139.597292 -152.561717 -9340.745450 -3462.168564 -4423.245548 1542.834839 4795.434888 -405.403811 -2802.676680 5061.974682 -4375.972884 -893.950020 -1805.050190 1477.060517 508.396626 -712.409279 -98.910009 -1326.694787 -1889.850411 1914.332748 1214.621762 -261.780705 -1054.224117
75 -3211.189644 -33.040282 1459.607164 -1618.397448 -1526.859214 7926.942538 -2423.950662 847.782474 -2423.718247 -2498.080286 -2959.994667 -1042.999926 6268.594290 1445.600555 -360.746043 -2563.400993 819.431392 6022.109637 1715.063469 -378.263602 -3170.932130 -1371.072359 -169.363490 -5448.799122 2485.011907 7841.202977 6826.118709 -2489.870952 1132.744061 -11150.364962 -2938.154632 -6066.071469 2550.041604 8622.569814 1475.884444 -4420.509421 8901.490004 -6768.923804 -1689.531535 -3108.119407 864.197419 -1837.748779 -942.985901 1224.479950 -2578.655984 -397.781937 2977.597250 3054.536497 -648.491253 810.332864
76 -3087.007272 1512.387932 161.726347 257.385309 82.709559 7776.616715 -4673.032977 1211.852449 -4160.161236 -1146.680182 -4612.136354 -1093.091352 8833.492966 3411.142363 -1671.338645 -4016.819722 374.465499 7458.863218 4746.489497 -3522.209831 -7107.906749 660.261103 -678.297617 -7574.688170 1226.933410 9640.877914 8879.126826 -4147.832257 167.239640 -18454.612908 -7128.525827 -8627.473264 2628.200586 10559.905207 -405.402147 -5382.755822 10859.159116 -8468.064084 -1563.268854 -4041.980323 2935.621817 -188.214134 -1141.271615 355.591460 -2811.974936 -3014.292687 3813.243612 3295.221227 194.758878 -1229.466309
77 -1249.459010 603.006195 -87.360578 536.104225 464.802343 2884.355713 -1995.627769 522.012402 -1497.566351 31.561589 -2148.568996 -672.081092 3835.623756 1675.551562 -1026.719221 -1971.923965 78.521386 3477.108845 2568.974036 -1368.702641 -2719.328649 64.251360 -57.846987 -2858.854996 315.074049 4162.957607 3652.168001 -1878.230999 106.510457 -7676.039239 -2832.709447 -3630.600313 805.772238 4009.310428 -214.732699 -2598.257680 3717.433555 -2762.950544 -433.631552 -1861.954801 1464.381723 284.639139 -194.996281 252.838350 -1027.485832 -1352.945526 2038.186210 908.062564 162.066829 -759.684552
78 -441.803361 1061.651530 168.554656 277.191339 789.608364 1925.374544 -997.450612 -457.761890 -955.348444 288.301353 -1253.615776 158.368854 2180.201145 338.964597 -485.394144 -928.759316 -391.629688 2492.410019 813.296627 -148.107735 -1295.727944 -687.779916 -56.882430 -1937.351141 -79.635605 2739.504810 2574.037970 -1191.946031 -44.821007 -4904.922856 -1646.010176 -2280.587511 888.292247 2335.810372 -314.210538 -2004.367319 2533.847138 -2207.248470 -30.649405 -598.521168 638.171943 240.438636 -793.229205 483.942581 -1185.893504 -1046.133453 591.252049 720.393848 -1126.388408 31.716278
79 -1300.844537 699.899954 98.096798 326.818898 -123.209331 2156.366723 -1755.196120 218.115776 -1251.467728 12.289741 -1774.402236 -189.221013 3424.867802 1059.051224 -605.346280 -1375.106968 88.032463 2043.021189 1879.505825 -1214.451196 -2269.175249 256.099247 -427.812225 -2739.160023 357.612182 3237.313926 2889.764499 -1513.635916 -111.573806 -6512.292414 -2483.297304 -2924.857596 1317.561595 3055.821943 -409.457241 -1951.253078 3619.545027 -3070.570308 -531.663628 -1357.078149 948.481393 423.909873 -725.815677 -183.618386 -981.433619 -1124.402567 1130.343117 783.760578 -69.448406 -574.229225
80 -649.064374 1089.970411 508.163817 813.712648 -466.841833 522.861875 -1866.492065 188.134008 -1626.080230 -406.263318 -2488.495805 146.038298 2901.454913 712.612448 -760.606095 -1957.200022 -351.900488 2118.150044 1462.816254 -1104.008736 -3104.040116 744.250598 -758.849681 -3727.479578 732.196945 1668.460087 4127.826391 -1362.224581 -370.008872 -6579.481060 -3410.622700 -2603.774731 1978.919016 2895.739532 -743.307991 -3467.932031 3972.668588 -3226.587966 -478.887822 -1440.843676 991.549979 736.447517 -745.855594 17.772145 -1911.982807 -845.367031 -445.434712 339.230778 -1220.757341 -365.225613
81 -2886.695141 1153.862153 201.261113 179.603025 23.611494 5985.700848 -3486.059007 351.772701 -3087.279208 147.005834 -4048.427372 -566.863429 7590.874511 2850.588707 -1108.436122 -3413.616242 275.291650 5711.212907 4362.015937 -2513.233744 -4801.811057 213.434921 -563.601335 -5548.189024 472.443788 8433.115678 6579.037638 -3406.505054 -263.167296 -14718.701247 -5441.526398 -7380.573268 2233.351250 8223.689325 73.209723 -4176.133398 8102.099633 -6523.510506 -1233.148486 -3099.040551 2475.710859 468.699206 -720.236487 -223.484961 -2158.784193 -2720.373095 3552.945143 2074.064017 -402.889891 -1116.937096
82 -4466.154825 -1284.752347 -1419.320830 1310.265880 -991.511953 6931.794909 -5254.669267 2712.386054 -977.803564 -2455.355230 -4417.631683 -4618.677139 5104.692897 2742.492605 -1841.983475 -1438.144190 2494.350029 5452.166985 3672.268020 -1483.902034 -6700.145718 -1736.705071 1698.652095 -5258.118911 4163.958882 9944.182513 10486.097601 -4948.822389 895.881393 -12618.496429 -4991.042566 -2490.052497 2089.026675 8065.717079 -243.535813 -6904.632257 8606.602344 -7830.490060 332.209778 -4779.225285 4990.421952 -2451.951911 117.121501 1762.254238 -4105.765483 67.935925 3105.341574 452.787591 204.629516 1263.641055
83 -1844.251367 32.709033 93.562180 1576.437757 -339.645150 4875.102385 -3148.113318 172.824978 -3789.010221 1224.796591 -3447.713392 -49.006651 6936.047504 2602.584607 -634.136004 -3698.925369 1665.937279 6228.812003 4350.168559 -2777.672644 -4289.380764 332.842298 759.393923 -5763.194559 333.729554 5562.680830 5918.417845 -3054.826686 -313.780034 -11520.706595 -3952.734388 -6847.946876 1899.874710 6839.300753 -824.043917 -4548.206418 7440.486242 -3945.976678 -4.079319 -3467.864402 2137.971836 539.179202 -972.545531 -153.255023 -860.549247 -2318.704604 3781.705637 3219.239965 -453.554299 -451.051956
84 -1560.640062 1426.401910 6.810542 1231.834741 225.113912 2989.114749 -2548.494415 158.365687 -2704.990999 323.630142 -2857.453463 -241.199808 5437.385541 1896.242994 -662.014577 -2562.160626 401.922411 3987.886682 3652.242213 -2565.568206 -3213.930391 -173.239566 -284.773951 -3926.534128 -52.739846 4524.931177 4419.781873 -2234.130406 59.285669 -9920.076800 -3390.485764 -4832.877467 1873.322747 4843.748719 -842.465777 -2813.559608 5386.616448 -4081.995155 -477.953543 -2003.501465 1348.342762 929.808592 -1154.153113 -353.819288 -1004.639122 -2103.602629 2268.232974 1520.967781 -105.655077 -1276.839543
85 -43.962330 2506.952333 -567.542245 1681.519659 -246.810948 -1839.328503 -1122.474934 -1364.821253 1194.990032 1594.894922 -1491.246738 188.627298 -145.191991 -328.316315 784.451968 -1190.652058 407.530927 -593.766429 2176.843668 -1227.842988 2601.150381 -2662.370109 1195.343537 -1026.337883 -2396.829158 -217.708781 2450.682523 927.432526 881.533861 332.798293 1555.814106 -1126.370313 -112.524781 -1102.351475 -1303.862056 -10.439611 -222.555754 1146.061328 3185.485495 57.492299 -1620.533490 61.949167 124.104221 -863.126762 2348.293128 1084.905954 34.353443 266.552653 -811.682694 -261.188041
86 -2486.376384 1642.238604 363.321708 1284.529492 -899.998678 3481.642246 -1933.728686 151.218134 -2225.094108 31.702447 -3510.632745 36.260215 1943.971136 849.406029 -30.579791 -2314.750381 -374.921373 3350.949225 1067.918990 -1915.404176 -1262.384324 -385.700226 864.139121 -2809.465878 -19.802060 3973.089992 3796.945046 -1654.423003 473.735253 -7124.614937 -2971.732078 -4021.207922 1429.300839 3308.283807 350.208025 -2523.648617 3608.107312 -3052.702886 338.616356 -1069.775609 107.005390 -570.143973 -349.026319 -315.330229 -1338.766801 -1205.041067 -569.768362 2454.875062 -1044.105151 1253.869961
87 -340.431893 -1118.091372 520.497453 -919.274706 -406.385332 198.015553 769.604669 -775.935916 -183.643146 935.270518 -1087.866135 -400.108838 -2495.750921 847.932789 1567.331491 -37.745181 -3.017971 1637.207890 -1691.407946 168.782284 -255.891493 920.490293 356.604674 1262.650205 25.164774 1615.969178 1433.737292 612.183104 607.048453 -1311.583708 -227.299092 -984.160937 -846.382749 1469.436085 836.617376 -548.285553 1105.942290 -237.939504 978.024541 -747.482824 1421.979859 220.798125 2281.129473 1067.801980 -19.794980 769.666743 -354.438115 208.756826 -262.990057 213.976944
88 300.870350 -22.724497 -110.086720 -23.988886 82.177887 -448.444956 288.271203 -88.880194 271.587155 72.215056 176.080370 52.347656 -536.765472 -111.380866 28.904528 329.166391 8.154943 -501.504099 -352.332972 166.526086 424.966456 -71.524417 80.592942 475.939018 -146.190796 -600.220463 -388.660506 207.649169 107.888440 969.524318 404.714906 467.431871 -77.965526 -530.013130 -41.774329 384.467424 -612.305223 441.335193 34.075671 269.005041 -132.712398 -2.437450 214.410181 42.620275 200.217319 156.757028 -352.926236 -80.007377 -101.623987 -5.286288
89 -2903.367825 721.927464 2492.951480 -390.314646 -1585.995822 2920.659970 -1831.684336 -50.025866 -2957.694804 390.362116 -4772.970973 -210.547366 5538.247939 1950.299209 -604.491127 5.470851 76.630770 4919.565050 790.800381 -3496.367844 -4571.181880 1058.559248 -1521.604712 -5861.012838 1031.901683 7242.825734 5811.552018 -1978.949351 -11.457023 -14067.284718 -4597.677012 -7379.904009 3688.522554 8000.706316 679.816522 -3714.795691 10077.518979 -8799.795429 -1804.135721 -481.435861 1207.138869 876.490673 340.354298 1152.327282 -1407.717828 -2656.238974 966.580282 3873.488019 -2916.716069 5.012216
90 -4526.528807 2067.550728 660.555869 939.466229 -811.171259 8110.189296 -5788.060468 705.684570 -4709.254226 319.472821 -6326.510041 -976.799214 12138.818066 4383.595296 -1669.260372 -5096.912844 934.157908 7694.351044 7068.170433 -4557.554961 -7798.008645 677.899620 -1084.852143 -9545.034307 1043.543895 11662.283009 10931.297339 -4749.147801 -554.864205 -22601.871192 -8595.183137 -11194.067452 4025.219507 12468.976370 -364.643597 -6688.621831 12934.690957 -10410.269352 -1697.302881 -4963.067199 3421.032056 810.037664 -1506.211507 -806.707116 -3094.943078 -3982.798382 4697.535071 3331.308113 -648.689336 -1734.775049
91 362.707241 -111.338263 -62.653378 -18.419523 42.559703 -608.044887 397.592300 -40.501245 208.208371 42.300093 391.672864 64.937054 -704.787782 -160.173499 58.265899 312.364230 49.720114 -595.100493 -377.136563 167.074437 416.911602 -54.725761 63.634607 599.965663 -94.314100 -817.461242 -581.111273 322.433964 53.582320 1354.032003 534.989495 633.562779 -225.826241 -680.465749 -2.026091 425.020758 -756.369991 564.535547 57.268047 329.769968 -173.824530 -27.354407 195.647668 74.217765 225.631817 217.649963 -343.695924 -174.777851 27.359827 -4.592124
92 1575.144688 -530.672920 -337.935930 -250.412610 283.856778 -3397.987104 1889.250404 -345.957695 1931.237371 -69.353890 2310.431202 363.097752 -4988.239181 -1815.894728 871.125058 2007.635598 -529.877202 -3176.556141 -2868.188893 1824.936356 3136.034118 -527.224889 427.931708 3702.788351 -435.787683 -4533.103071 -3821.229603 1842.297067 353.754735 8716.033912 3280.759370 4605.500585 -1377.643062 -5230.950847 -389.885150 2391.036143 -5010.227822 3856.588945 1068.283231 1816.742793 -1455.976006 -120.969482 257.710046 107.020176 1170.413060 1608.952616 -2317.685183 -1435.710502 118.296299 775.206875
93 -2145.733671 1237.742264 -1263.347296 -97.071688 -135.538690 5376.360799 -5984.090452 716.376454 -3093.926541 -781.018811 -2974.199509 -1709.238464 6689.466036 2735.545025 -249.838681 -5194.677196 -181.623547 6489.318565 4622.725361 -1269.983090 -5314.068097 -67.572020 689.630539 -5771.551091 1273.268331 7819.292067 8066.674068 -2805.697797 -1173.473316 -12402.061566 -7367.852038 -4879.463653 1714.238154 5717.117206 -2948.715633 -5028.617512 7950.771649 -2903.006740 1727.467688 -5651.646248 2061.534306 1076.161270 -2581.041950 -2145.299685 -2742.395469 -1226.013960 2931.083251 1003.509645 2302.858645 -944.939835
94 -98.859444 53.437254 -63.511362 185.833050 57.084478 23.095145 -122.278459 98.219252 -191.369705 110.017649 -146.974268 -35.904515 334.587655 236.052553 -122.605761 -143.084368 132.441313 72.721216 296.408032 -295.439176 -364.487164 117.398510 -67.090656 -236.248154 -23.412825 155.525884 285.090341 -167.324848 -53.736064 -631.035516 -232.060421 -322.902822 80.165015 369.852588 -53.179493 -183.633761 278.095329 -303.543653 -143.830961 -110.277981 165.020623 35.649343 132.245136 39.604197 69.784262 -184.952721 160.622736 59.481838 43.656809 -204.529378
95 -2489.921412 2416.605334 292.919250 1321.835248 351.181378 4283.702081 -3122.254197 489.806727 -2400.099071 -138.277432 -4700.778099 -105.980363 6955.579810 1965.649635 -1680.614111 -3542.551113 108.227503 4652.941060 5355.341841 -3291.820480 -3723.675350 -453.550237 -1856.851533 -6499.737987 -646.157787 5920.510459 6696.391165 -3401.964167 864.550196 -13752.282232 -4313.168754 -6154.657739 2725.965534 6625.557889 -208.300222 -4245.197332 7862.662058 -5982.558336 -801.789738 -2334.584261 1754.068340 975.341280 -1368.452980 -417.828465 -2592.463764 -1075.871717 1581.071792 1606.347629 -1252.399715 -1588.410976
96 249.304202 596.039401 829.225697 245.745403 -314.025874 -1792.617228 640.213243 217.710829 -24.881029 -57.433348 471.648228 127.716762 -1293.755746 -890.825516 2.312707 1294.030832 -145.560652 -1484.474628 -1275.741988 -362.442438 600.125017 -179.705556 -132.293196 -72.286322 -271.280207 -1605.479019 -632.817711 1323.657098 -560.725549 1789.699547 481.514340 1095.222084 49.846810 -1579.184465 505.129706 490.757499 -1107.633677 -282.016849 -575.167437 1490.944195 -1203.376169 -674.454405 98.696343 -21.009181 -278.201142 -250.048900 -1903.155000 -93.517931 -1011.086814 513.951151
97 384.758984 17.668675 -441.130253 192.111688 98.869490 313.995728 -237.377131 487.033206 -948.291800 -563.063767 213.531393 311.030110 -617.284349 185.293395 838.570358 -492.631180 430.273867 885.148078 382.483719 -894.609592 -402.300269 765.261973 147.667234 -506.042405 12.194558 -335.734229 -326.640777 -13.690708 -35.769622 -211.460890 -649.376607 84.214350 -1025.844073 -176.975143 -220.327085 627.753195 150.532521 637.517887 358.806674 -651.564815 -170.413464 -145.904726 -483.153393 -892.075199 82.146214 -838.696716 166.436263 239.480793 1407.316748 -574.983657
98 -487.582229 164.975204 7.456566 162.368752 -161.824020 644.296605 -618.455689 150.664564 -399.530526 1.219135 -612.716822 -93.388718 1243.513330 422.359422 -224.961990 -484.436284 138.758397 529.046571 732.814664 -548.281636 -826.842011 209.696234 -206.738317 -930.342355 147.540837 993.601980 995.543692 -513.759813 -68.024520 -2201.802549 -814.389559 -993.815303 435.509078 1078.179458 -104.979409 -610.362854 1249.552097 -1081.168434 -221.353648 -513.100178 385.348978 120.290244 -174.345067 -77.602355 -276.420449 -380.052187 381.812151 249.552779 46.983236 -304.063037
99 -3784.966002 1739.173569 -431.746253 1753.945974 883.981991 7260.249050 -5208.483435 752.766802 -5225.929803 -504.377950 -5500.827337 -1363.090518 10739.554094 4761.486957 -2107.293979 -5024.173284 338.323570 7558.354524 6935.209540 -4290.521879 -7519.838044 698.369601 -939.273180 -7947.896306 570.465258 10385.740082 9932.075116 -4876.970095 446.237191 -20730.974352 -7032.609141 -9724.388335 3402.574357 11318.741053 -1252.490737 -6604.074714 10670.056344 -9504.337324 -2166.388053 -4943.094315 3655.399574 675.017948 -1132.150886 350.943520 -2948.132972 -3938.876578 4449.628938 2252.254981 -96.752790 -2747.286319
100 -687.415932 -305.085771 -160.860547 -826.036990 1097.297379 1952.583924 127.066926 -379.170572 900.101113 848.086624 563.611197 -518.299888 830.349118 1032.238227 226.477972 -500.259282 -729.109986 -350.511905 680.476593 1923.724369 1729.237694 2.629576 -191.236135 1318.312600 -1022.892855 626.023993 -255.692852 -117.737281 712.748087 443.448911 2084.082535 766.234059 211.430169 -400.650610 572.345272 173.842512 -1730.131103 1280.378393 419.422227 -1032.567967 -400.679487 202.587716 -365.180225 -1215.400338 -624.382330 2336.488978 -169.650031 -1745.608083 502.291359 -776.150416
101 -4024.857784 2277.729396 703.609314 976.506805 -12.068436 7481.148825 -5037.370979 363.279706 -4427.806393 193.974232 -6185.412241 -790.638305 10681.694708 3934.877464 -1712.824541 -4968.393618 61.743495 7820.575618 6304.145708 -4019.434624 -6923.372134 543.739887 -1287.674029 -8977.714026 729.780617 11072.338938 9824.445603 -4469.658938 -243.561461 -21295.171997 -7793.439563 -10591.404867 3625.390229 11292.383029 -141.451623 -6246.407926 11612.727269 -9678.250970 -1756.732671 -4187.469537 2907.203800 771.509447 -1243.029333 -330.430559 -3375.613363 -3885.985341 3984.924310 2954.453806 -978.785537 -1630.998023
102 56.454996 -330.880235 2207.303689 607.792080 -1894.592983 -2380.746926 1393.281364 1573.610181 -298.609383 -1239.353086 1844.667337 -434.712533 10.174867 -642.589069 -150.462698 1430.650270 821.411251 -3508.777693 -1631.245185 -1032.989338 986.109381 895.609705 -546.996754 -669.569799 946.426998 -5996.924559 1283.432033 2194.192696 301.010951 5307.693643 2958.005681 1922.127787 977.392930 -546.909747 1352.736527 719.965221 -1649.740132 54.396502 -2389.988995 477.638539 -2816.699059 -2108.936213 520.316511 -38.567716 1078.119982 -410.346012 -3182.883177 959.292665 -2095.797470 960.176837
103 -877.740448 1394.071590 700.328212 1285.964800 1136.352411 2440.606389 -1690.756243 625.293212 -3024.433605 -905.983018 -2552.849322 -360.208492 4071.594435 539.645660 -1237.900898 -1526.645750 -290.026670 5410.223666 2387.896995 -2387.444892 -3310.841208 -1625.417374 250.087040 -3026.073367 1148.447757 5530.527446 3330.926852 -2953.218296 -18.487809 -9841.084979 -2988.570281 -4011.464170 935.346542 3591.517200 -16.298688 -2860.146553 3449.624119 -4384.238501 -1698.561879 -770.653803 711.605310 381.684222 -1008.213366 982.523974 -2658.806201 -4946.264021 2033.826921 1497.459471 -1416.185208 -226.071226
104 -905.577738 900.950536 116.537414 568.902789 198.497528 1714.403598 -1481.557673 61.561630 -1478.094581 186.567099 -1663.651114 -187.823419 3039.715222 1175.490597 -651.112562 -1314.831064 179.420794 2092.090252 1878.018707 -1449.047894 -2205.076403 5.511499 -232.527783 -2440.353894 26.784901 2781.341350 2945.368158 -1191.099287 63.778886 -6154.427909 -2191.884145 -2983.332027 1152.074992 3054.773604 -401.564370 -1898.410361 3309.286713 -2847.587223 -375.682535 -1115.170803 853.071152 402.916262 -453.341865 136.790588 -781.796822 -1200.201853 1098.217803 801.472211 -187.574604 -710.417576
105 -751.036997 -45.633722 154.790972 583.067976 -586.183235 1235.226098 -1081.656811 356.492618 -953.125024 -45.692394 -1087.411753 -530.370786 1312.860067 806.968091 -120.261356 -1355.095087 257.983348 1148.392642 1006.474120 -407.948704 -1067.925781 879.509102 482.893820 -1814.200394 332.143263 832.405995 2105.021841 -600.202288 25.611176 -2903.385777 -963.380906 -1187.476028 801.218488 1229.539635 -652.377760 -1672.797226 1292.935096 -854.870430 -121.095720 -1510.926902 -80.638373 -320.622078 -148.806912 -668.709075 -472.230037 176.844855 -445.216902 216.367622 225.021961 -603.752710
106 178.622198 -196.730608 -143.290607 164.268268 33.654118 -406.529354 246.485191 95.090683 740.086470 -193.475035 238.821930 -88.223913 -383.624246 -27.166371 -151.314573 473.045231 170.987913 -709.972731 24.363407 429.196506 247.921623 10.829385 -131.495616 604.851032 303.074146 -468.204962 -555.148259 -199.640821 28.981905 1023.600571 374.033164 710.389167 -206.263531 -421.425964 -1.705357 330.343452 -586.431212 568.487509 -31.037451 212.668275 295.232774 -50.381726 338.417848 264.543866 276.786594 395.353757 -9.721359 -177.329662 617.840633 -261.770231
107 807.312352 -978.418615 -103.526394 -387.631619 -1203.617866 -3433.657170 1441.806772 -397.386976 952.336665 -192.951811 1670.646339 914.768613 -4580.615666 -1902.496762 852.577474 1845.414996 -298.960645 -2788.991467 -3596.110114 1723.078338 933.591230 324.945222 -72.716409 2198.689853 959.639575 -3945.904870 -3243.375636 1329.036673 -602.335521 6822.651185 1333.886080 3898.879977 -435.927474 -3760.616202 -683.060502 1097.585825 -2020.370870 911.514227 590.529672 2061.113370 -565.527422 -209.270021 -0.978261 348.426854 687.537409 1436.198123 -2601.412130 -754.298274 -552.284339 1645.526694
108 -1806.065339 1664.444157 865.702257 929.032301 -582.240665 2517.442302 -2493.417148 631.267609 -2082.518267 32.343643 -2832.245531 -1173.058550 3924.290211 1592.787489 -114.973433 -1928.970663 1161.475330 4206.668537 2217.019795 -2938.814781 -3445.750392 -1082.677449 578.742873 -4638.700741 727.003574 5422.329816 6583.839771 -1021.924227 -144.914742 -9912.403460 -3622.648082 -5498.008750 1206.730177 5750.609300 166.239729 -3364.039625 6009.299027 -4781.926268 161.634673 -1817.982890 830.826886 -696.056612 -136.816061 196.543462 -1078.762707 -1770.042740 1067.042319 2108.477265 -519.173289 44.737888
109 -1702.459296 -183.068646 323.102229 -3949.620916 -883.015280 3304.373521 -1564.310798 3138.729310 -1620.402164 -1844.695385 1992.543473 -1692.037833 3347.379561 1584.076470 121.557012 878.378604 964.839974 -207.858157 -334.004420 -4060.488530 -4578.143501 -1404.121889 -1763.060952 94.262317 -166.834338 6616.544357 4132.414501 991.048047 -1156.410844 -7526.177575 -4111.396816 -3625.637163 -2355.068339 7532.199982 2399.596191 810.137140 6048.528072 -5618.009360 -2410.710582 -548.752231 2793.809242 -1297.394826 1185.514070 416.980734 -647.985033 -2854.218849 2232.403742 1698.323694 1727.945980 -129.813189
110 -101.815165 -263.282592 159.388923 173.452215 -497.556150 -669.453458 182.609562 124.528989 267.984216 110.082577 252.817842 -66.668674 -438.035789 -26.041668 128.636112 346.477892 99.022051 -644.883328 -271.549484 -77.901241 131.513907 304.500471 -161.459528 6.630470 320.327975 -831.025139 -372.411267 492.295086 209.235562 887.205041 389.958433 468.571654 15.111638 -616.303991 28.096217 72.615364 -323.693554 -75.307026 198.171080 210.898611 -268.410421 -34.636309 28.161609 40.594535 349.905285 283.420863 -229.111152 -320.713064 160.661989 215.016005
111 -1986.989620 61.575715 168.800389 -22.376852 -381.709523 3212.167833 -1940.008976 721.518326 -1973.274058 -279.775816 -1545.111815 -183.445615 3671.987743 893.043124 -360.221229 -2386.140794 -560.407756 2705.193384 1845.963100 -1554.194676 -2437.150815 332.640231 -691.679969 -2793.992062 108.201558 4173.232776 1979.246700 -1731.047493 -717.819130 -6773.127268 -2948.348321 -3747.780020 789.233037 3895.935588 116.973127 -2112.948580 3930.759321 -2867.104790 -675.983106 -1296.789040 1336.286654 -9.280140 -815.059671 -386.154371 -1372.852978 -1282.669180 1523.758605 1068.658131 -10.801093 7.095257
112 -951.050807 350.660159 254.603748 247.109052 -375.861754 916.919281 -1061.699764 121.561513 -774.429680 83.295218 -863.556917 68.989854 1933.323568 198.721587 -124.414055 -780.172434 -100.743986 795.223730 903.884245 -833.575429 -1071.808885 -83.031932 -378.041221 -1222.486891 37.823786 1672.511296 1148.244375 -768.009749 -222.314374 -3425.356713 -1296.215631 -1598.166723 838.413448 1356.327698 -374.227542 -1008.171989 1934.595497 -1730.660237 -222.420709 -444.738980 435.306726 406.670515 -723.756740 -141.070010 -328.978004 -745.667656 543.095000 421.718758 -164.971051 -200.233140
113 -1454.391862 -5.267624 -114.137853 191.021334 -396.864227 2311.011800 -1460.577059 -155.162943 -1649.210937 719.269887 -1934.808539 62.668229 2984.529018 1637.822426 -163.189815 -2334.030338 -145.033509 2808.464642 2313.691963 -1016.227286 -1980.214986 1087.007576 -172.173355 -2715.588563 98.229523 3336.274651 1885.082380 -1187.522397 -34.143141 -5922.009134 -2194.664484 -3435.032159 519.204655 3262.039389 56.512629 -1757.238655 3297.365037 -2474.329471 88.980949 -1459.452660 1008.780632 289.415409 -155.926034 -623.758001 -263.921983 -1046.629142 1915.286003 654.531168 152.724096 -507.691044
114 487.327900 -119.671231 111.370121 17.443268 -55.922474 -1692.878868 825.379080 18.683497 776.436740 15.989016 1009.088851 -44.053404 -2204.299770 -704.927748 439.111428 1137.347958 -208.088425 -1459.121340 -1409.426207 487.257506 1210.356892 -321.298924 88.819553 1555.667333 -142.532284 -1835.633825 -1449.496805 988.977509 158.136104 3398.368602 1390.141800 1727.393296 -555.656350 -1986.678168 -78.472734 927.900193 -2004.011858 1248.013367 412.007610 1007.342531 -637.273647 -237.672707 316.724968 244.892558 676.804772 546.409776 -1165.846941 -504.689782 -55.643631 455.519862
115 110.123651 -34.755685 473.501783 -306.662911 -1030.905380 -1487.560192 698.148474 -318.206740 1537.345415 1034.817218 829.421104 1508.577230 -1873.929450 -1584.533266 1065.041834 276.610271 1351.094512 -1769.029036 -80.111184 69.147975 -7.224216 -288.501128 -544.633988 -1285.679176 729.356758 -814.276524 -315.861333 531.905067 -1717.061325 2718.940527 -1166.172139 956.001045 -1630.356934 -1073.263548 543.775735 241.449531 453.466500 621.952812 1342.877207 376.985149 1091.285036 382.397718 -441.863755 -654.256466 -608.343047 647.514881 414.160859 -634.353803 -35.398217 1112.944587
116 67.151545 -27.183106 -30.788033 -10.306529 11.706899 -84.406484 120.764939 29.836690 1.786644 -43.887912 115.967474 -25.438032 -263.473437 4.300854 47.412767 52.727360 74.275732 -99.837731 -47.322156 3.305519 97.065741 -81.398932 52.503339 109.597112 -24.996029 -127.808681 -80.361413 141.416591 17.585669 373.369744 136.693984 133.155920 -183.854421 -63.894948 64.659226 91.837416 -175.203975 129.861713 65.381367 64.641983 -20.193558 -104.450693 108.226584 18.073349 23.853682 98.065787 -12.743564 -56.089814 58.131973 43.514741
117 -2310.258256 787.332918 -764.708366 1492.224092 498.168298 2630.284171 -2506.057935 1454.117026 -2181.050967 -367.729548 -3720.691107 -1323.948969 2261.276744 178.418731 -1312.364028 -2487.810677 -949.594240 2845.699973 2513.172068 -2547.049928 -2770.143908 1581.812400 -1049.953272 -3379.114700 -130.909998 4313.411167 -285.566568 -2052.314825 -1388.817183 -8432.298607 -4640.033828 -2054.837265 1078.249533 385.925481 -247.439960 -2142.235303 1392.189976 -2410.114938 -428.888740 -1822.203252 1097.950655 821.886170 -1920.660935 -1078.137770 -3700.943440 -1428.522278 226.365776 -2231.824380 243.976348 -509.963892
118 510.482934 -849.373404 864.651303 -1188.008718 -1659.823752 -188.795625 183.957066 433.282655 -1133.746719 -637.254446 62.215456 -454.004733 -387.972458 519.572962 356.193239 798.400772 1026.545303 1795.212391 -1510.451080 179.933471 -1027.382293 -356.021016 1020.823274 -1091.811477 1985.881261 146.290001 2075.318861 1143.690738 -156.117485 -122.232144 307.770898 -297.060709 257.233667 1637.298508 878.271349 -638.909684 2091.220634 -2174.307650 -665.844717 -120.633623 -1236.880443 -1260.819264 526.077620 -48.306979 -416.250433 -439.086678 -609.120571 1263.440327 -1545.923872 1096.619915
119 -3857.743523 1520.069920 776.857594 1493.777483 416.959703 4885.070605 -4323.798360 2802.462484 -4134.427924 -1645.664745 -3464.819668 -707.327705 8569.490121 3812.246312 -2346.716289 -5176.545401 -727.941802 5177.177909 6092.681114 -4834.345811 -6442.295978 1809.433009 -2618.795785 -7686.674180 -297.712274 6038.041003 7943.117266 -3448.025274 1882.260221 -16676.613706 -4456.386863 -8499.186665 2430.297456 9378.964608 -374.070262 -5541.915401 8317.319470 -7414.821334 -3494.688693 -3760.735677 2429.668970 -754.462136 -411.943341 575.839228 -1486.952265 -3066.431809 3284.884209 1456.021856 1230.445428 -2757.088962
120 1834.213435 -1404.967064 -1.108803 -49.416818 -285.653888 -3903.300097 2554.657787 198.939184 2189.148408 -223.478085 2927.613832 90.870906 -5423.483141 -1994.704253 1012.660844 2126.488125 185.932583 -3545.397311 -2934.465518 1757.586243 3293.076718 -105.358667 768.537124 4112.460007 23.204653 -5710.696852 -4927.974143 2147.647537 -299.945948 10727.529132 3930.859928 5246.607940 -1899.593603 -5538.805029 541.020253 3050.935625 -5926.799773 5256.900498 658.463210 2009.804893 -1530.910776 -758.944191 827.705497 -115.697780 1341.445743 1983.133141 -2059.512811 -1385.252375 533.687130 912.012599
121 1632.834660 -1278.538973 575.009474 -1188.374869 1235.598397 632.812695 1096.522507 1387.127157 -2174.688304 -1768.890104 958.680537 804.935163 -938.373072 666.420131 -1148.841151 -824.807566 -515.044470 1843.711948 -1672.958883 -1655.054021 -1626.735644 -39.792459 -624.397081 -308.704754 -427.680686 815.265729 1343.110477 208.813139 1457.255430 -2055.417884 115.916113 -2483.999823 -1625.018725 3852.268662 701.005712 -1592.362690 1660.273518 -523.282327 -563.945149 364.157426 706.549171 -65.408704 2018.534323 3025.117267 89.615873 -460.209666 -270.565059 1675.993121 268.819563 -451.829457
122 2286.266754 -1416.668539 -308.614774 -465.796964 184.123904 -2048.006240 1841.443024 619.816476 1851.547726 -909.475239 2407.597691 -518.838989 -2786.245309 -509.850759 -390.246770 1536.316015 697.304268 -2096.376694 -929.055522 2063.803332 1149.913539 -379.732973 535.997225 1473.428072 1129.657796 -3664.417675 -1789.654443 712.683073 -27.214901 6818.425580 2623.180327 3781.340852 -1828.425047 -2202.089320 316.113428 1210.294447 -3520.053051 2742.539970 -552.826963 714.489373 -260.706577 -1284.455837 1405.685772 120.173307 257.508506 1442.671437 -830.314613 -1331.822999 464.092487 76.810969
123 -1786.417359 1960.086781 -465.564868 820.720076 -176.354117 1099.101360 -2221.455072 -681.482181 -2200.357929 550.957895 -2927.431777 459.202106 2545.113011 1952.169216 -263.032865 -3215.898283 -819.656806 2103.425921 3339.461960 -1658.367901 -2035.030913 626.663462 -328.245254 -3157.020818 -948.124307 2497.971278 3514.414730 -788.089273 203.970632 -6309.741256 -2846.514899 -3648.809414 884.495184 3250.047677 -536.379469 -2310.272195 3560.332344 -3070.502924 362.032720 -1435.378092 1145.763558 581.878684 -460.904226 -1226.900634 -592.497410 -996.308930 1292.864321 215.278302 122.758122 -1034.954226
124 -1695.289831 -756.891819 648.307551 -1472.738109 -1378.097628 2123.829219 -2680.248607 1078.219940 -2243.307021 -1878.885841 -185.767638 -2161.349169 4223.547620 1492.626335 -1583.566985 -1452.428927 -539.518674 2115.029326 309.655447 -1544.510327 -4542.300521 80.354796 34.914778 -4397.227690 1074.139137 5120.792384 6603.258697 376.432409 -356.610943 -6802.968857 -2213.722651 -3454.952408 1062.734477 6283.358287 -614.872763 -4528.814529 6095.960533 -5907.369498 -549.894783 -2335.895350 366.881895 -1430.355211 -81.119879 1124.914257 -1459.410974 -245.563960 556.964119 870.367586 -1457.972113 1139.751358
125 -5027.953663 340.652200 633.583079 -1282.431682 -2278.823119 6582.943578 -4886.903030 566.946900 -2117.285476 225.681162 -3927.437954 -339.557878 8410.351407 1444.988117 294.163347 -2730.934110 427.409509 4641.419950 2557.735700 -2282.190909 -5461.897489 -569.352081 -1014.734895 -5843.927477 1457.076864 10773.969763 7697.526468 -3393.099002 -1598.605733 -15964.226051 -7461.989811 -7580.722540 3214.613296 9016.530238 -505.829880 -4893.044799 11300.038851 -8698.247187 -564.512587 -3467.472834 3434.257072 1217.585013 -2251.130696 -524.993049 -2462.372512 -1843.197574 3210.374320 2528.157114 -756.550604 819.644691
126 -2116.774061 1452.789478 269.767120 333.156887 -285.209382 4464.491201 -2914.115525 -53.590659 -2739.518964 376.394403 -3105.889803 95.691212 6233.922057 2088.003648 -559.833194 -3251.473922 359.818485 4350.213284 3992.609377 -2460.854562 -3617.051370 79.820598 -462.056142 -4761.617885 -84.439130 6215.297409 5409.305292 -2265.866948 -226.578575 -11615.649861 -4427.683643 -6206.943987 1530.793230 6418.598668 -91.042411 -2958.667426 6834.851715 -4777.336434 -353.362013 -2640.012439 1567.220704 631.615466 -1141.892336 -682.704107 -1243.171355 -2527.860494 2885.716633 2148.711756 -173.889509 -1013.133378
127 474.516229 -581.989569 222.583569 78.002463 -691.487701 -1583.418273 903.685493 46.809215 816.912087 78.912024 1143.039807 369.864995 -1454.593197 -1181.019508 635.782715 352.286622 -152.796933 -1639.025340 -893.081066 593.609977 1329.210094 52.703922 -246.935646 1336.718541 70.243864 -2338.625063 -2525.071737 661.820174 -342.283197 3904.119129 1248.133138 1609.418521 -597.214743 -2146.449317 131.108677 1265.862767 -2045.790690 1834.589257 312.646822 989.261556 -640.941639 -82.751923 -110.450787 -317.468580 704.198643 419.170006 -808.241922 -398.316621 82.493275 422.197125
128 521.545782 810.809209 96.653318 764.550124 384.888999 -2174.917799 165.218198 286.544789 475.215251 452.787749 405.630266 -115.629556 -1762.204357 -705.314064 327.533674 1225.383945 837.971281 -1086.839645 -433.635837 -433.197628 422.414256 -855.423880 803.034421 365.347675 -419.237900 -1780.052829 210.746665 999.992724 -331.092958 1825.005125 912.821364 1815.347816 -277.601710 -2375.400425 -486.818979 89.946084 -1852.636805 830.772578 592.634780 190.112550 -917.530074 341.721547 -352.147719 -565.327073 134.260190 647.817114 -773.129425 -1484.625360 1.258083 -163.934452
129 -1637.398468 2187.495070 -188.277483 945.916541 1608.355970 3605.472435 -3321.397006 681.855173 -2673.265354 -75.815572 -3359.160624 -1361.075002 4948.307173 3119.215749 -1562.579935 -1758.136081 703.034912 4677.681865 3590.888935 -2828.206511 -5354.965182 365.980519 -78.933888 -5237.460918 -49.026714 6016.408897 8222.506955 -2196.445192 116.419284 -12885.613471 -4793.632108 -5236.062289 1449.960839 6726.694171 -863.107503 -4354.466072 5894.413865 -5724.280821 -1003.312725 -3348.170266 2019.402780 143.346125 -87.733054 203.961589 -2031.164417 -2558.347645 1959.296383 624.161677 -194.598587 -1339.496313
130 -174.791337 2165.255312 2289.620673 -941.933745 597.304279 427.348054 -1580.634608 2478.567618 975.833365 -2294.558160 -1047.957488 -2455.068676 1745.932797 1053.726002 -2598.432171 1944.758780 -1868.987613 -705.955533 -642.656812 -2097.291261 -1993.265423 1638.837205 -1605.861175 -2259.470391 -116.613916 706.362084 3278.575663 581.696685 1363.924747 -6551.633501 -1050.106645 -1794.962635 2122.948555 1667.493016 -245.188176 -225.377587 205.295093 -3444.024253 -4038.426790 323.492925 -1626.265387 -1213.629547 1187.918686 730.563004 -1280.066063 -736.598352 -1769.323553 -545.806247 981.450075 -2098.009876
131 -3539.741104 1656.394463 360.937906 917.478229 -438.114888 6160.179575 -4463.163974 13.448854 -3719.969012 518.389840 -5779.834060 -769.722747 8574.141320 3394.652433 -1300.738880 -4262.816517 -95.604295 6774.721371 5109.616814 -2979.298085 -4999.597429 873.087192 -407.403472 -7020.630777 357.741627 8982.002118 7498.437980 -3482.697051 135.865887 -17172.240284 -6298.348063 -8425.362016 3386.200634 8251.789148 -307.820735 -5108.860310 9091.414570 -7318.283042 -782.987043 -3766.233528 2131.971968 783.319894 -1053.198319 -672.038461 -2460.392654 -2655.106154 2936.056616 2290.816899 -791.706424 -1246.631829
132 -2528.278499 1766.121660 -292.568402 1181.599336 734.524116 6669.848017 -4557.976418 93.973942 -3376.431274 642.356284 -4961.179970 -747.659493 10677.324422 4455.338271 -2299.928906 -4286.321602 1352.575783 6339.793806 7663.705371 -3039.138550 -6264.192388 841.373431 -995.198472 -7959.849740 661.298778 8479.723081 8182.049598 -4294.391681 474.564889 -18136.315013 -6606.747266 -8647.110742 3313.276957 9048.748753 -1113.927748 -5523.662207 9825.910782 -7334.386399 -1046.407593 -4638.276321 3343.278013 1758.099754 -1421.719383 -583.348364 -2533.509186 -2189.972868 5195.986361 1622.575351 873.837524 -2960.060335
133 -50.589177 1083.660388 138.337091 646.692604 -180.406960 -219.578756 -461.443502 287.433639 -572.163076 123.820704 -526.040912 723.822700 895.773600 -125.467607 -395.380795 -805.020284 -168.488131 202.693136 746.747406 -795.596547 -336.078682 -28.462845 -333.626282 -1500.578373 30.038697 -479.679108 286.721308 -364.387846 -266.759231 -1193.867402 -924.621789 -577.397400 560.793930 -109.124416 -344.482064 -258.772230 715.264664 -618.589243 -412.912453 151.916075 -344.848326 221.100025 -625.793359 -502.231350 -218.500375 -543.180757 -357.321490 563.567726 36.648699 -210.555958
134 -1139.809946 661.730807 79.955794 327.558942 -65.170732 1878.767085 -1462.150884 284.014050 -1252.555113 74.113464 -1474.509084 -188.969827 2747.150732 1030.730793 -497.216545 -1288.674753 131.043890 2001.628558 1696.992008 -1211.746338 -2035.093592 159.760906 -251.262030 -2384.801446 196.290977 2818.533097 2583.905570 -1120.122065 -118.337237 -5585.034973 -2160.177508 -2660.437381 842.789190 2831.078749 -205.032080 -1768.791726 3065.423280 -2604.817642 -372.656119 -1169.221509 862.271179 220.351920 -471.767233 -114.437282 -794.331808 -958.998240 1180.568017 652.684179 -3.986195 -431.658855
135 79.299699 14.789950 -29.935517 -10.342530 22.309248 -129.793297 119.840405 24.891793 -23.200390 -21.887714 124.232766 13.605939 -327.214590 -11.683142 44.998588 33.883514 41.439587 -99.594202 -82.055815 -39.203576 85.289330 -46.554432 64.251383 128.604691 -93.779657 -163.688988 -85.278613 187.662753 32.370209 378.281086 122.314394 112.294562 -210.978204 -93.236206 49.675606 86.867413 -206.617733 172.850663 102.622794 64.071604 -40.166985 -81.283464 105.798892 24.328660 63.668359 77.008416 -27.892820 -57.508182 67.363208 48.424949
136 73.099894 32.424372 -37.996972 -7.921692 57.193061 -78.534175 87.439449 29.762725 -53.393434 -49.632808 109.370262 -0.444042 -272.680355 3.344090 27.171715 23.720447 49.445460 -54.643086 -39.443516 -57.880422 53.709426 -51.019696 65.020307 89.452330 -103.618120 -113.345951 -15.431046 175.083656 49.229103 284.130213 96.266219 72.126124 -200.603230 -36.954351 45.425509 60.359166 -155.161428 125.843924 87.212630 36.733163 -26.329913 -85.730930 87.991238 32.282323 36.524434 59.727943 21.190851 -61.293117 75.562504 28.606482
137 -1039.355466 626.106598 111.639794 254.636533 -33.633100 1796.286811 -1377.290539 175.879659 -981.262771 11.290945 -1398.421020 -194.559259 2707.804529 887.495058 -537.944673 -1046.262765 140.497989 1715.057962 1580.947659 -941.713905 -1812.731106 54.470191 -289.551209 -2258.520147 282.555028 2687.696388 2385.160881 -1156.332885 -128.774700 -5185.737502 -1992.253548 -2400.867556 941.671650 2572.674851 -248.545190 -1590.824181 2894.304596 -2506.161627 -399.056542 -1043.498491 740.169885 238.865110 -509.784285 -137.370917 -787.994291 -858.392145 1009.153459 625.365038 -65.502665 -386.249863
138 -674.709124 637.661217 218.008142 401.466643 77.330240 1316.646640 -1235.583303 220.508168 -1086.416213 -139.038425 -987.628738 -171.382597 2384.150158 830.993311 -864.028921 -1375.232960 -151.068045 1502.045901 1369.461877 -1180.320863 -1762.553822 131.401199 -221.925220 -2182.643584 -76.802335 1911.843145 2421.599726 -763.145573 79.082570 -4427.314054 -1512.336157 -2455.503952 721.512426 2483.450635 -314.595023 -1860.015053 2483.913259 -1845.402063 -268.785912 -923.780317 571.105841 67.464540 -319.807609 321.386627 -626.108349 -486.976087 755.358445 701.833887 97.895757 -400.640853
139 491.378794 -538.747037 55.754214 -5.935379 -277.579484 -1102.987048 722.427378 14.515046 532.270103 50.627595 846.604821 160.261943 -1186.931878 -746.122596 389.347664 486.782673 155.292913 -993.238601 -776.924842 536.951335 963.047651 -293.045320 139.189900 1023.288629 164.058218 -1556.707282 -1446.148734 486.859625 -204.072711 2978.144005 1091.383501 1487.592012 -302.295371 -1561.824881 118.953294 779.085149 -1327.449399 1277.704945 237.034754 627.814047 -503.245221 -23.222150 -46.176574 -181.687995 251.123117 595.721469 -671.237617 -339.615660 -145.986293 315.539374
140 -1605.782959 -1022.333154 116.470665 -1298.379121 -1409.792119 1060.152812 161.651726 246.946476 -903.559906 -1628.295717 156.665563 -784.421753 -672.544753 180.205520 -311.617410 1891.663311 7.812474 -131.280855 -2206.447460 102.189407 -783.503932 -1079.421231 840.050411 440.849090 2156.317268 3576.329115 902.154671 -432.857550 -50.427688 -685.465663 356.197829 940.498890 326.819421 726.599074 208.919624 -667.287858 1979.450325 -3872.046360 -609.501131 460.704822 93.541154 -931.315029 357.722360 1634.621546 -900.879052 586.448024 24.030889 1204.411067 -337.567537 1238.343409
141 -2898.208731 1137.966800 228.412880 493.485062 -171.537019 6049.763633 -3503.783448 342.584670 -3470.639632 105.497033 -4191.898607 -757.002609 7606.999775 3225.485689 -960.273951 -3264.683308 693.262681 6237.219624 4387.944831 -3229.637940 -5338.875142 380.514646 -499.541458 -5427.146971 691.509020 8376.821584 6794.747145 -3266.979620 522.495642 -15939.721486 -5541.557915 -7701.377673 2560.957825 8233.458339 -282.344327 -4274.483022 9102.459204 -6986.925502 -912.868725 -3282.657714 2618.810158 950.964274 -805.439104 296.749970 -1903.297954 -2365.017196 3782.728746 2556.781870 355.015455 -1538.101337
142 -584.877435 438.739481 352.681479 137.475879 -186.080454 708.901446 -640.492958 -31.507609 -751.305410 -68.131271 -823.063946 -9.393479 1279.776941 629.084197 -194.997237 -696.674246 76.132065 854.460608 866.750519 -779.528751 -985.440433 160.676744 -216.596439 -1616.386952 133.749393 1615.332077 1563.074876 -288.579875 6.003942 -3125.129726 -940.948713 -1564.851375 288.275258 1349.385694 -25.795831 -980.711008 1748.858049 -1640.945725 -151.684766 -561.655199 97.919182 1.137641 -103.884691 -31.175397 -463.708088 -616.204397 328.416178 441.697030 88.765782 -395.310707
143 -1561.510108 269.959079 -842.958576 312.775859 776.961480 2043.962334 -1123.418600 1316.500657 -2222.097157 -580.081792 -664.131848 -478.214673 1879.445562 1215.219375 -270.854881 -1813.201580 -325.284432 2453.152237 1967.817778 -1289.420353 -1416.218771 1054.629893 -488.110862 -788.135765 -697.734792 2132.658875 399.564113 -841.464331 -222.117927 -3942.714195 -1474.691040 -1567.037395 -639.477522 2158.911431 584.906903 -382.405857 624.608756 -1334.899222 -1599.136053 -1400.549694 1236.463863 -479.385697 -545.216742 -884.270712 -653.310210 -1788.609887 1622.898770 -608.184383 485.824359 -665.399052
144 -6010.057918 2616.460479 1713.869515 602.672672 -1555.615126 6505.146976 -4918.781545 956.522536 -2233.455288 1108.527480 -7226.747969 -2031.592205 7797.364904 3160.781869 -2011.939060 -2809.062012 70.857052 5362.009782 4107.066058 -3488.420939 -6106.860134 541.224966 -382.398192 -6752.633343 1332.187770 11091.677371 8958.784325 -3700.380492 -1981.810743 -18907.404068 -8554.280107 -8570.839075 4279.075350 9280.728991 1031.850799 -5574.670097 9312.480404 -9337.686749 -2061.055649 -2799.279808 3450.852243 23.024550 -167.454371 -756.925324 -4652.421595 -1939.086222 2502.891975 1593.634579 -1027.882295 237.760441
145 360.949785 -785.391147 -844.146921 -443.705365 404.641621 -451.025925 62.276572 190.591451 106.646054 1137.840475 890.560804 -251.421313 -1097.533046 652.089327 -857.718167 1148.259876 176.397402 -1582.463030 -668.846721 183.510316 -324.927854 994.497950 349.277930 2359.270338 -778.231499 -867.560730 -2247.897073 154.354127 -257.556835 1589.342988 326.791142 1014.291051 -226.223610 -1187.288781 -874.792842 844.678875 -1911.925689 1252.501765 551.733215 180.630440 892.531725 836.172837 923.482849 115.581921 1157.753757 1026.850580 141.713040 -867.067658 1010.815476 -38.218894
146 -2897.858856 1496.658995 186.758843 -867.621412 1375.044134 5470.761569 -3275.124648 319.807609 -3736.285343 1136.915237 -3036.714827 154.461622 7028.003959 2525.250166 -1750.803015 -2989.483062 -1373.096960 4435.905906 3332.485924 -1782.367431 -5055.178259 2099.053978 -2664.989712 -5700.818301 -672.430197 7258.187523 4887.392728 -2570.177082 -630.187206 -14327.047797 -6301.458087 -6917.177412 2186.813162 7062.669874 -406.058207 -4192.297289 7199.371806 -7227.906481 -1828.641472 -2685.031242 2603.196971 1367.508083 -1447.968200 -306.580660 -2646.868850 -2405.275251 2259.715601 201.307626 -705.265738 -1395.102183
147 464.867536 -428.406487 -565.750058 -530.857950 -524.268466 2579.844360 -1640.656330 115.234483 -1945.381039 -542.522338 -611.726883 51.800845 4684.062861 2308.504582 -1110.444268 -2206.486584 1658.611789 2791.939679 3488.237477 -941.607405 -2824.648713 63.045682 460.880683 -3496.733035 894.401245 2665.523238 4295.660988 -1212.270979 46.331578 -5214.877545 -1918.761654 -3160.159590 209.074550 5189.281914 -860.791477 -2227.997003 5066.133329 -2218.790352 -51.236556 -2693.918375 1466.345498 -25.590983 -15.538058 -315.245029 -416.088401 -815.298504 3122.880688 1740.617249 690.591805 -1266.469439
148 -3699.150241 1604.784419 -245.121733 207.458034 2828.291195 9418.180386 -5583.759742 911.553561 -4596.710373 -1974.014233 -4947.861402 -1502.312970 10533.098090 4073.029023 -2364.334388 -2041.124880 185.087403 8362.464152 4307.325576 -2946.011649 -7038.093542 -1066.334724 -244.141550 -7492.548568 -453.723947 13539.336363 11562.433514 -4347.760438 -34.462246 -21386.969639 -7371.584429 -9851.003042 2122.181904 13034.097221 513.402199 -7430.152708 10334.709607 -9573.313614 -2394.091514 -4600.946256 3041.623390 -435.583524 -193.231660 1432.974549 -2698.942861 -5541.363617 4135.784763 3000.544118 -2040.383394 -889.597711
149 1731.874067 -1539.755754 -731.317899 -361.151436 -402.162656 -754.116535 942.447488 -827.016756 278.301588 200.546262 671.106796 667.732620 -1505.680340 -808.957768 956.889329 267.804348 684.835705 498.968552 -569.743902 1689.476159 1359.991295 -646.687756 946.809267 1014.484429 723.630146 -1432.949303 -2016.106334 -22.949193 -29.323164 4074.756215 1155.433130 2120.761918 -739.032266 -1682.607539 -383.207133 860.969153 -682.571536 2062.991814 1519.674173 177.443128 -52.633962 566.834736 -420.631423 -542.515325 157.604479 1001.121368 -72.056946 56.481546 -515.294424 444.369013
150 -791.881266 458.064535 615.999121 1249.122732 -1053.218569 -1474.776544 -467.057648 343.126229 -676.360107 256.928831 533.048184 301.394648 244.791442 -573.173713 450.446505 414.765667 331.347153 -1593.860262 -445.439507 -1830.973381 21.504590 383.816080 -30.598994 411.006842 -973.723148 -1489.251860 -735.134966 615.543056 111.412167 -8.785882 1003.495458 -282.677999 861.752728 -1244.969866 -941.370464 261.197969 -193.671452 -507.612354 -176.626324 633.725978 -852.848848 109.297361 -796.782920 174.104465 1877.178316 -373.337678 -239.675957 413.662315 499.454089 -576.442280
151 -1453.752213 2522.021521 1981.070063 1320.492497 -301.014928 -1463.080803 -411.272134 -83.136451 -1794.482940 1455.885070 -1700.168220 -45.550395 874.523029 362.853122 -341.663378 -937.334925 -1216.194813 865.539846 758.150818 -1798.173120 -726.305364 -1147.012155 -214.013217 -1566.214244 -632.533913 1103.022043 3048.964527 634.638568 -902.928143 -4132.362472 -884.146757 -2665.598754 1023.146670 1905.552661 754.583797 -1731.912607 569.734114 -2885.279584 -1103.326309 747.390864 -840.075790 -606.167110 210.247536 -385.012491 -1012.883369 -2767.217020 -2017.529637 181.308049 -2806.316375 632.733142
152 -1233.193303 1467.967011 66.428469 1166.159738 687.405559 2425.083745 -2030.679675 -212.188722 -2056.001540 623.813951 -2536.937119 -371.317889 4852.700767 1705.225597 -1429.780604 -2409.727677 -203.780003 3389.564776 2890.723567 -1717.198294 -1934.337867 -210.454559 63.511804 -2740.546604 -951.321668 3881.631472 3419.943416 -1722.998397 -22.067451 -8103.788561 -2193.225347 -4739.919768 1620.414834 4160.741129 -487.277391 -2554.365696 3520.415236 -2519.499967 -623.396211 -1498.253943 929.737820 456.866008 -248.226648 304.708302 -265.634525 -1679.925092 1639.713333 1480.946686 -673.797548 -1110.251811
153 -1435.655777 1462.087182 695.419353 1609.966634 -252.767145 1551.850263 -1870.332448 379.556883 -1912.222749 86.700130 -2510.882187 140.003594 5120.156282 1438.873453 -904.320608 -2028.962484 672.377528 2293.208496 3674.185301 -2100.277873 -2694.781972 -265.015766 -800.280054 -4428.022593 541.072794 2835.715734 4143.351045 -1923.839181 -309.390371 -8059.181744 -2579.188299 -4132.132773 1745.917383 4332.932532 54.795691 -2694.856641 4572.712884 -4059.738822 -1371.779130 -1211.324346 710.888960 209.897401 -648.633724 -436.873359 -920.962233 -2029.871421 1232.710013 1308.469200 -680.195780 -1257.274750
154 -1627.657091 692.966512 -680.012663 17.052750 -187.521247 3339.286584 -1548.505887 536.254810 -2072.654604 -643.521116 -2044.670184 -1026.894354 2546.065324 2198.182993 54.143701 -1996.903352 -378.950738 3535.202901 2618.426390 -1412.382227 -1507.153219 -227.015933 294.835473 -2365.404576 847.949453 4335.649519 1845.999492 -1135.080055 1265.828066 -6546.899227 -1684.752456 -2410.832532 951.955542 2669.245346 -391.734661 -913.024734 2793.829985 -3522.919685 -119.061862 -1155.944923 168.767772 -115.414931 -789.517871 -1099.140464 -1425.625631 -720.008324 2013.526005 93.381854 1218.056784 -366.622994
155 -2050.999191 -664.781851 -287.778583 848.355439 -1483.214220 -807.256682 592.827403 -444.714805 77.501819 893.282940 -53.021056 1781.021396 -2693.835660 -781.229150 2497.129988 -246.168950 -196.078490 -1385.669785 -1354.040941 -753.547185 1747.171999 1563.624506 -624.577749 1322.976613 -532.428971 -1728.697096 -2690.947784 409.437481 418.786435 2772.045044 1250.805308 1195.004522 -276.312892 -2203.285120 28.348260 1996.424072 -652.368542 585.053243 1211.838490 190.356762 -467.586965 497.471840 -1062.144533 -925.377744 1999.808693 -153.523117 -571.752009 528.918173 574.746201 418.803211
156 -2586.392706 1846.426824 383.780836 936.007186 -39.750174 4257.935280 -3403.493659 485.591428 -2952.673470 291.231125 -3704.299394 -515.253647 6930.243498 2572.302431 -1433.291048 -3006.745651 447.299693 4692.842260 4359.317167 -2988.255638 -4869.100575 103.063474 -630.379437 -5598.414603 364.544037 6821.502008 6565.045723 -2656.929794 -240.638222 -13614.347330 -5132.974959 -6779.885145 2131.325059 7187.127811 -275.385925 -4174.018394 7443.398752 -6363.133748 -1079.198687 -2569.329891 2090.883114 443.299602 -809.809452 19.460997 -1753.910813 -2618.102494 2938.829805 1816.721597 -243.533024 -1144.917740
157 -1129.805200 796.312494 134.542694 343.531771 -87.614695 1850.269052 -1528.934587 223.552720 -1294.645729 97.167805 -1599.807446 -148.420795 2970.886391 1118.379148 -568.728650 -1346.192115 167.936492 1966.977155 1851.233260 -1317.877202 -2062.746021 133.105476 -293.722142 -2502.094586 167.426269 2929.937525 2823.046740 -1189.683598 -93.254314 -5937.578931 -2229.381055 -2932.092525 930.277438 3033.292287 -246.619914 -1747.788598 3271.432309 -2757.017176 -466.031619 -1211.603890 825.230852 230.275515 -406.856648 -114.444925 -727.748685 -1117.669610 1153.434652 821.300179 -2.933899 -577.166437
158 -967.222642 -1070.694128 -163.886186 983.074312 -170.293521 -382.033244 658.422028 -871.416442 -431.639618 698.622063 694.862532 1950.213882 414.271577 -909.905167 1695.942095 1238.535935 1394.651545 -602.219902 -617.152816 -1036.660302 337.730359 -1700.832734 -1080.478671 450.352275 -852.545848 716.204284 -482.009024 -167.901147 558.222728 437.609391 792.510002 -1639.965720 -703.069534 1892.067351 550.726547 -571.378030 2202.881607 -1631.415118 1219.222757 1489.586171 1231.126400 415.511718 -327.429319 2208.191053 2654.643455 -1345.842823 2179.647598 1562.036691 -1702.964449 1058.690955
159 -1007.870042 1148.189179 896.459956 276.759806 -399.430191 890.897575 -1054.377444 225.913279 -1677.783678 345.098492 -1686.874932 748.479486 2372.129938 185.939962 -478.748124 -1622.160935 -683.113410 1591.101006 1111.052461 -1515.792474 -796.611655 55.135861 -595.584269 -2453.691178 -807.169227 1009.053180 2314.956222 -559.021458 -149.012634 -4400.524344 -1524.173520 -2837.192846 1270.963953 2322.766351 262.001614 -1495.428758 2469.475904 -2120.105665 -949.632873 -369.870587 -95.545823 121.878101 -528.655229 -460.075414 -705.521236 -1527.812763 -418.797727 1107.238405 -1793.679148 -14.738808
160 -2621.002720 1421.708077 -340.010179 794.186802 -123.802453 4492.081387 -3170.194820 -233.374842 -2970.557058 211.570566 -4064.976217 -181.993582 6013.555565 2749.456126 -706.618194 -3164.219184 55.928153 4639.179291 4219.934396 -2540.089704 -3980.692473 632.889374 -502.900401 -4977.230549 290.079862 6831.715366 5328.343127 -2731.559711 213.613686 -12601.165387 -4829.551387 -6181.457766 1938.500985 6337.188771 -361.150424 -3198.621561 6946.930854 -5936.222697 -471.680391 -2765.057810 1892.336589 830.650007 -964.597595 -522.170572 -1619.880567 -2392.528550 2770.166377 1774.948617 72.483413 -1228.604608
161 -4087.808041 1013.800323 302.785421 -1100.634017 -1820.215944 1753.166277 -2332.201536 983.240321 282.266483 -2303.151054 -1031.586474 -1427.804084 -2062.010228 238.177507 1227.784465 330.431055 -3269.837095 -1483.966898 -2447.089771 197.976240 -1665.057611 3589.584789 -1661.566917 -449.594461 707.217036 1392.999901 2221.220845 671.934377 767.405686 -2436.185622 -2366.176365 133.277249 824.873102 1366.362447 45.155050 -354.815836 847.922869 -3210.930465 -281.674917 -1155.250736 539.616324 -2519.918614 -603.671261 -347.660890 -604.259070 -540.655809 -3057.758560 -634.739005 1116.443270 2054.350104
162 1071.396202 -837.801869 -29.104965 -69.226917 -326.517075 -2248.983224 1541.338700 -38.344660 1120.443137 -106.010658 1469.350898 214.240002 -3192.523174 -1194.905896 764.754921 1178.766153 -106.986537 -1900.140108 -1949.493860 1062.862307 2284.470961 -86.357487 461.693916 2368.726077 22.220033 -3176.632602 -3125.951885 1236.484306 87.021027 6143.739593 2303.265709 2938.730850 -960.705210 -3418.949591 165.873994 1810.215933 -3367.791389 2908.066702 555.616381 1302.124369 -1087.947852 -313.524540 418.534715 -100.862408 900.328932 1071.821910 -1523.783892 -588.630466 140.578964 647.958432
163 -1542.463448 1394.762555 264.051847 1175.825912 202.326982 3034.728848 -2183.554357 327.759967 -2505.932800 245.862178 -2700.787284 -252.125690 5189.455493 1698.251782 -1088.812958 -2390.797021 337.154529 3638.596992 3247.009823 -2257.964610 -3047.299695 -318.774921 -196.347614 -3947.753851 180.104033 4216.455701 4200.127486 -2147.535746 3.383014 -9369.227368 -3192.155751 -4651.196071 1925.589510 4601.361452 -310.392712 -2872.436710 4875.550776 -4035.735287 -849.060337 -1679.228676 988.035943 462.833491 -905.836963 -139.537399 -1385.529712 -1864.264381 1657.555183 1549.338801 -455.539853 -824.746825
164 -999.407747 629.923627 108.084441 253.958276 -48.819453 1625.736367 -1449.467327 149.269718 -1147.305995 40.684386 -1369.537183 -79.849344 2659.987548 917.451958 -489.256394 -1193.567132 38.201761 1683.264991 1507.499235 -1036.504234 -1931.366677 197.341042 -348.374181 -2107.697891 130.246193 2514.888191 2523.619903 -1112.710656 -176.016599 -5224.801836 -2073.231975 -2496.145135 972.918756 2683.508853 -390.210155 -1700.581248 2912.636948 -2380.836223 -390.158237 -1137.574153 852.036554 353.288556 -527.736637 -70.141124 -706.494462 -951.659632 980.097609 643.417397 -48.827306 -525.443187
165 -347.521405 925.493090 978.931038 810.611104 189.368842 353.486187 -755.809242 373.915417 -1183.497890 36.307558 -601.380704 171.822300 2278.386300 293.818034 -224.257656 -875.824338 154.744611 165.406043 1088.707141 -2223.340548 -572.825446 217.370470 -489.754266 -1725.719602 -821.694292 873.653572 1376.992159 -7.207199 193.233169 -4050.908152 -681.164283 -2084.802022 836.185222 631.764443 -499.118250 -499.337104 1050.677286 -994.845353 -822.475361 -449.788477 -888.316494 596.386858 -623.524958 -233.325057 -268.953641 -1116.890623 -289.659268 499.318666 454.229078 -1716.336615
166 -874.762600 297.994179 25.776184 46.588280 -390.143146 928.911461 -979.999058 456.229587 -1133.135916 37.937997 -497.286620 57.191228 1600.825401 965.506140 -180.060017 -1204.683566 390.103043 851.448541 1284.572970 -1035.899854 -1500.354956 469.903223 -314.349465 -1502.875970 -55.804708 1055.055184 1785.130619 -38.915041 103.786777 -3053.099938 -1363.901243 -2193.826855 -232.461127 2280.380096 331.412112 -883.948516 2025.378486 -1727.725023 -364.697462 -882.694995 699.612574 -322.841588 121.312116 -175.029009 318.768099 -835.710327 1010.242105 450.394698 416.302462 -394.017314
